6022 50
harry -0.198250 -0.225521 -0.203328 -0.510332 -0.334030 -0.273051 0.739332 0.327132 0.537845 -0.603476 0.171761 0.138885 0.338265 0.107584 -0.485866 -0.288395 0.459642 -0.257624 0.992997 0.089711 -0.182133 -0.308863 0.297150 -1.226100 -0.884754 0.419929 0.481576 -0.199594 -0.468394 0.228456 0.187051 -0.785894 -0.378033 -0.380525 -0.343115 -0.445124 -0.624603 -0.116245 0.248219 -0.360552 0.083096 0.735564 -0.216576 -0.526667 0.178911 0.241840 0.875923 -0.466634 -0.499393 0.205746
potter 0.091107 -0.091995 -1.084990 -0.903770 0.507100 -0.044885 0.644858 0.286123 -0.130198 -0.823406 -0.267649 -0.613751 0.445457 0.036638 -0.716773 0.107768 0.223817 0.116624 1.040967 0.052085 -0.288409 0.056239 -0.035925 -0.583684 -0.265338 0.606902 0.609234 0.112376 -0.013091 0.225523 0.070928 -0.521490 -0.511374 -0.756610 -0.214981 -0.236293 -1.025892 -0.027854 -0.335953 -0.344494 0.535096 0.246065 0.064834 -0.531967 0.486224 -0.194297 0.566418 0.105548 -0.329489 0.284430
and -0.625833 0.448307 -0.493201 -0.156819 -0.076079 -0.174885 0.113733 -0.173965 0.393343 -0.549265 0.196619 -0.142003 -0.055133 -0.473799 -0.001360 0.157909 0.482403 -0.609927 0.850443 0.589333 -0.405935 0.304291 -0.184368 -0.359199 -1.010764 0.405641 0.539811 0.370161 -0.156853 0.256029 0.099516 -1.101011 -0.247679 -0.408366 -0.687158 0.171887 -0.171876 0.451556 0.639005 -0.235345 -0.151171 0.408364 0.108362 -0.287315 0.026194 -0.394717 0.536250 0.181514 -0.610946 0.107604
the 0.136167 0.192021 -0.652897 -0.083389 -0.166072 -0.152972 0.124541 0.245579 -0.143771 -0.860703 0.053099 -0.402751 0.195015 0.655494 0.977238 -1.077887 -0.326675 0.148558 0.717742 -0.031830 -0.059585 0.413209 -0.166013 -0.126470 -0.679276 0.165904 0.375739 0.672435 0.086193 0.270281 0.485470 -0.848169 -0.693095 0.392218 -1.004544 -0.694853 -0.107555 -0.383707 -0.320670 0.127200 0.159299 0.866585 0.068094 -0.486707 0.739882 -0.611289 0.436482 -0.117887 -0.247055 0.017154
sorcerers -0.113394 0.144379 -0.874874 -0.766180 0.074109 0.081410 0.238112 0.743875 -0.321770 0.009291 0.264809 -0.130119 0.071016 0.284888 0.570591 -0.414430 0.083756 -0.614884 0.121560 -0.191930 -0.805222 0.237848 0.266233 0.350492 -0.584321 0.419748 -0.067917 -0.365749 0.141473 -0.076508 0.564048 -0.654220 -0.052883 0.149586 -0.575398 -0.317544 -0.216416 0.427127 -0.287362 -0.315998 -0.320705 0.083146 0.563539 -0.478074 0.122832 -0.851034 0.322226 -0.354266 -0.689436 0.469978
stone -0.073773 -0.294103 -0.601952 -0.869385 0.362861 -0.417018 0.126707 0.447019 -0.230534 -0.140275 0.047896 -0.261829 -0.073131 0.514171 0.270166 -1.055553 -0.054060 -0.100967 0.892058 -0.229420 -0.415854 0.595336 0.230037 -0.042461 -0.690883 0.026360 0.497173 0.178946 -0.095333 -0.228568 0.035597 -0.849264 -0.708362 -0.232981 -0.709203 -0.177641 -0.479518 0.185889 0.132950 -0.320412 0.348171 0.220207 0.046627 -0.070519 0.140755 -0.299118 0.168588 -0.191143 -0.536979 0.228686
chapter 0.185814 0.090400 -0.437826 -0.358540 0.202750 -0.024132 0.480503 -0.105979 0.125633 -0.027946 -0.260511 -0.208616 -0.199556 0.242078 0.079850 -0.099172 0.343411 -0.482031 0.349299 -0.091083 -0.608196 0.229429 -0.014385 -0.047676 -0.349714 0.353772 0.510111 -0.283161 0.298438 0.162649 -0.013608 -0.055904 -0.282214 0.109340 -0.166703 0.158908 -0.351161 0.283172 -0.012046 -0.107720 -0.288510 0.671913 -0.001407 -0.371801 0.098091 -0.135296 0.449058 -0.273178 -0.785407 -0.187805
one 0.337870 -0.325334 -0.987032 -0.497341 0.270694 -0.017213 0.438876 -0.027751 0.255425 -0.219433 0.425065 -0.462883 1.011418 0.348181 -0.336542 -0.374302 0.597266 0.373397 0.085786 -0.168484 0.073996 0.636951 -0.101236 -0.438888 -1.120892 0.499513 0.091787 -0.065632 0.105528 0.020631 -0.034050 -0.679482 -0.163358 0.022788 -0.661258 -0.107402 -0.830727 0.093989 0.211759 0.073691 -0.217741 0.433422 0.606590 -0.349147 0.316658 -0.296006 0.845018 -0.226463 -0.609839 0.167355
boy 0.097841 -0.333804 -0.771674 -0.907570 0.165214 -0.342134 0.356321 0.189971 0.115218 0.149749 -0.122039 -0.175074 0.429734 0.367460 -0.154488 -0.090406 -0.066445 -0.304412 0.325780 -0.136316 -0.742646 0.220047 0.330079 -0.323661 -0.946456 0.296334 0.084024 0.000266 0.403719 -0.057613 0.825082 -0.270594 -0.271873 0.065815 -0.710629 -0.311114 -0.517493 0.411009 0.124043 -0.048106 0.427494 0.299437 0.203801 -0.309882 -0.404407 -0.170899 0.649687 0.145707 -0.315850 0.734452
who 0.053307 -0.176809 -0.520932 -0.461577 -0.134522 -0.382931 0.220384 0.290142 0.301732 -0.654636 0.101203 -0.264431 0.601556 0.601405 -0.363539 -0.541824 0.299500 -0.315514 0.662554 0.169152 -1.223806 0.753683 0.401819 -0.507507 -0.667795 0.679062 0.205037 0.147373 0.153913 0.035234 0.091185 -0.446064 -0.397566 -0.244292 -0.788655 -0.286245 -0.753462 -0.237899 -0.036813 -0.474665 -0.042076 0.124853 0.240046 -0.216146 -0.007336 0.211685 0.308564 -0.290471 -0.522726 0.144869
lived -0.146213 -0.136658 -1.008582 -0.231234 -0.106660 -0.464634 0.503323 0.269013 0.495644 -0.280507 -0.053378 -0.207737 0.209058 0.445043 0.035195 -0.336728 -0.037765 0.376815 0.139512 0.282892 -0.238354 0.372010 0.213043 -0.168281 -0.715920 0.424731 0.420492 -0.077409 -0.093791 0.195100 0.317323 -0.284661 -0.314304 0.072069 -0.488197 0.006154 -0.359114 -0.018580 -0.090880 0.137506 -0.164481 0.559947 0.217797 -0.104715 -0.115907 -0.401544 0.568517 0.029376 -0.366143 0.429312
mr 0.183509 0.517867 -0.942304 -0.227229 0.651462 -0.854525 0.493925 -0.124038 0.175296 -0.695325 0.293553 0.012112 0.254920 -0.164141 -0.484387 -0.367613 1.065668 -0.066984 0.530999 0.107048 0.055526 0.116938 -0.126376 -0.874728 -0.290698 0.458814 0.369070 0.245716 -0.121732 0.257321 0.569421 -0.563695 -0.433022 0.339467 -0.847059 -0.572066 -0.853851 -0.423897 -0.076488 0.556206 0.039299 0.325827 -0.093010 -0.727914 -0.079607 -0.467933 -0.073856 -0.021927 -0.601919 -0.070031
mrs 0.087285 -0.022793 -0.960903 -0.210716 0.154063 -0.797629 0.431411 -0.571742 0.225815 -0.432923 0.131593 -0.151806 0.366964 0.000820 -0.230159 -0.026524 0.531100 -0.719673 0.533389 0.366241 -0.091938 0.090415 0.106136 -0.532699 -0.725102 0.358810 0.257686 0.041912 0.762562 -0.195202 0.725858 -0.152280 -0.338007 -0.149060 -0.602655 -0.025476 -0.224626 -0.161251 0.486304 0.517671 -0.221350 0.621149 -0.477197 -0.320085 -0.012093 -0.597317 0.355875 0.095025 -0.607367 -0.134264
dursley -0.022914 -0.238807 -0.589969 -0.460428 0.696644 -0.268181 0.371604 0.287247 0.015203 -0.150702 -0.108000 0.070836 0.448047 0.315315 -0.303317 0.130021 0.715424 -0.305238 0.822783 0.599246 -0.397891 -0.273260 -0.076192 -0.331750 -0.503541 0.818080 0.152350 -0.091905 0.120652 -0.166982 0.512193 -0.499871 -0.317640 0.101297 -0.659547 -0.334021 -0.137060 -0.569210 0.228473 -0.295178 0.404553 0.152743 -0.282330 -0.536180 0.248422 -0.046454 0.720373 -0.398325 -1.129279 0.195854
of 0.342745 1.394199 -0.499453 -0.030081 0.308118 -0.003928 0.292366 0.897403 -0.228616 -0.098521 -0.649985 -1.056101 0.882575 0.641692 1.219727 -0.424558 0.315284 0.303118 0.436412 -0.787621 -0.260437 0.651290 -0.016356 -0.072091 -1.402171 0.508254 0.509252 0.267100 -0.110068 0.775703 0.159052 -1.167403 -0.632410 0.101309 -0.772060 0.683500 -0.040179 -0.189799 -0.172190 0.059059 -0.202169 -0.171313 0.378117 -0.025961 -0.188551 -0.860483 -0.101049 -0.368622 -0.387553 0.286079
number 0.156297 0.097929 -0.727936 -0.454223 -0.197808 -0.410702 0.245424 0.195917 0.277027 0.067805 -0.053737 -0.478180 0.353401 0.499410 0.091987 -0.499009 0.360737 -0.471311 0.108765 -0.197114 -0.192188 0.509478 0.414516 0.340768 -0.537107 0.258838 0.262288 -0.283536 -0.054231 0.193536 0.388766 -0.267206 -0.437320 -0.125732 -0.457285 -0.138922 -0.054126 0.205282 0.043961 -0.257367 -0.028267 0.395423 0.443464 -0.053880 -0.478838 -0.542501 0.568071 0.028829 -0.832996 0.278507
four 0.551576 0.377577 -0.719973 -0.325803 -0.068667 0.309966 0.750057 -0.001018 -0.274086 -0.501227 0.183929 -0.256221 -0.073578 0.458258 -0.138250 -0.387076 0.114789 -0.393845 0.486890 -0.016679 0.070311 0.814983 -0.016308 -0.088289 -0.973212 0.452726 -0.110802 0.251033 0.127584 -0.194434 -0.094772 -0.466751 -0.135695 0.173330 -0.674649 -0.024238 -0.198337 -0.101931 0.065958 -0.147448 -0.231357 0.550241 0.202347 0.241208 -0.350280 -0.297670 0.504110 0.016672 -0.524460 0.290742
privet 0.326411 0.042606 -1.224531 -0.564851 -0.006453 -0.157659 0.586078 0.000381 0.105273 -0.025543 -0.019625 -0.484487 0.444892 0.424075 0.189240 -0.083904 0.291584 -0.646409 0.187587 0.220339 0.173296 0.456704 0.210792 -0.281270 -0.983244 0.431590 0.033072 -0.013621 0.363535 -0.103224 -0.182677 -0.394872 -0.917130 -0.105242 -0.388812 -0.106509 -0.151201 0.010721 0.164071 -0.102351 -0.542679 0.335551 -0.010571 0.732647 0.007318 -0.216680 0.670572 0.047006 -0.475501 0.306818
drive 0.346642 0.056070 -0.892182 -0.393348 -0.046626 -0.233393 0.453007 0.152045 -0.037147 -0.550316 0.168968 0.013832 0.318455 0.088380 0.002588 -0.360584 -0.020585 -0.550540 0.444942 -0.297164 -0.137149 0.765891 0.026225 -0.183343 -0.727517 0.620100 0.266183 -0.615786 0.660028 0.458865 0.210002 -0.550135 -0.417275 0.144754 -0.339076 0.025698 -0.330131 0.161461 -0.174237 -0.340994 -0.652827 0.034484 0.112783 -0.738519 -0.126306 -0.307306 0.608308 -0.388962 -0.251768 0.357898
were 0.345879 0.841951 -0.343238 0.203881 0.448213 -0.106148 1.040213 -0.445870 0.189641 0.104529 0.478484 -0.928768 -0.274493 0.698691 -0.252339 -0.035568 0.495852 -0.500662 -0.079981 -0.438721 -0.524426 0.200086 0.529887 -0.237643 -0.529375 0.432001 0.074809 -0.123642 -0.078648 0.111989 0.224135 -1.639468 -0.716655 0.068772 0.172648 -0.788120 0.040768 0.226241 0.044927 -0.294623 0.308238 0.860956 0.522998 -0.046401 -0.623567 -0.556955 0.938285 -0.025509 -0.909950 -0.346292
proud -0.024975 -0.101706 -0.836619 -0.563680 0.136581 -0.185561 0.422394 0.029939 -0.151887 -0.250126 0.175846 -0.228974 0.200412 0.329438 -0.055522 -0.321454 0.240591 -0.281192 0.462311 -0.189834 -0.154638 0.149682 0.032366 -0.576795 -0.897210 0.198976 0.229870 -0.099150 0.406159 -0.025163 0.110701 -0.188110 -0.308351 0.283162 -0.427726 -0.216562 -0.204773 -0.205349 0.060751 -0.211935 -0.190426 0.193420 0.171237 -0.237443 -0.121075 -0.066299 0.235159 -0.358857 -0.579760 -0.035189
to -0.186914 -0.602639 -0.761399 -1.461418 0.279105 0.308240 0.360827 -0.164658 0.240933 -0.091899 0.653229 -0.708072 -0.173785 0.533102 0.443184 -0.197266 0.348857 0.519467 0.344216 0.141435 -0.270664 0.387339 -0.257832 -0.580597 -0.400963 0.370259 0.909530 0.449179 0.035264 0.349952 0.467360 -0.231054 -0.363168 -0.963883 -0.892001 -0.900434 -0.377017 -0.021588 -0.184454 -0.142604 0.247213 0.378154 -0.663504 -0.358751 -1.358414 0.125239 0.702390 0.030590 -0.742298 -0.254652
say 0.186620 -0.325890 -1.144505 -0.960827 1.009490 -0.195992 0.424040 -0.219982 0.103296 -0.183076 -0.235263 -0.139789 -0.049200 0.679022 -0.145379 0.064612 0.362764 -0.165660 0.191731 0.125957 -0.783366 0.638941 0.383237 -0.661730 -0.699561 0.485397 0.365163 -0.352205 -0.266957 0.359772 -0.564456 -0.341950 -0.182272 -0.231600 -0.245717 -0.476045 -1.023655 0.105479 0.049289 -0.518214 -0.072833 0.349194 0.475562 -0.542774 -0.478537 -0.047979 0.623412 -0.106544 -0.731115 0.129556
that 0.217040 0.220236 -0.715296 -0.502844 0.058494 -0.320387 0.013402 -0.013713 0.399760 -0.510571 -0.015188 -0.338828 0.602206 0.499154 -0.033265 -0.858340 0.244841 0.214669 0.444524 -0.048080 -0.809188 0.849389 0.142454 -0.670423 -0.481264 0.364770 0.377736 -0.016070 -0.192174 -0.042958 0.092682 -0.320839 -0.257626 0.389813 -0.234172 -0.232450 -0.708769 -0.398765 0.044357 -0.801933 -0.115506 0.212643 0.229163 -0.272075 0.327835 -0.128692 0.906667 -0.127188 -0.793634 -0.046006
they 0.242032 -0.764093 -0.459545 -0.223954 0.707511 0.018882 0.258393 -0.266447 0.224901 -0.531795 0.249135 0.090257 0.348228 0.175471 0.102682 -0.564814 0.401520 -0.565856 0.532646 -0.496582 -0.999062 -0.388620 0.367249 0.015876 -1.304671 0.683071 0.412016 0.048360 -0.502655 0.630851 0.222022 -1.079798 -0.597153 -0.297386 0.023651 -0.987675 -0.034193 -0.088832 0.031029 -0.779421 0.047222 0.977287 -0.338705 -0.735092 0.186874 0.404535 0.840805 -0.685414 -0.795452 -0.617594
perfectly 0.071633 -0.157772 -0.500046 -0.469878 0.005896 0.187761 0.677124 0.494626 -0.233298 0.091395 -0.111037 -0.029684 -0.027846 -0.084233 0.303681 -0.324176 0.240430 0.003302 0.013690 0.097974 -0.302439 0.542620 0.263731 -0.150325 -0.612943 0.510778 0.227818 -0.070428 -0.007146 0.184919 0.186936 -0.053613 -0.359457 0.052858 -0.185480 -0.381333 -0.306942 -0.039908 0.004819 -0.367082 0.020998 0.536358 0.044104 -0.280187 -0.348347 -0.183489 0.303509 0.288083 -0.592880 -0.088054
normal 0.013354 0.268402 -0.852823 -0.267533 -0.026801 -0.159501 0.664457 -0.055702 0.295183 -0.122692 -0.261162 -0.019609 0.339331 0.351976 0.421256 -0.587097 0.286149 -0.194937 0.587173 0.279398 -0.693722 0.556577 0.391457 -0.475880 -0.484670 0.134590 0.473161 -0.121905 0.272273 0.106233 0.444443 -0.530612 -0.005128 -0.294313 -0.383278 -0.332264 -0.607498 0.326646 0.138151 0.092152 -0.023323 0.137199 0.250836 -0.136828 -0.528587 -0.682284 0.078180 0.052954 -0.277267 0.026581
thank -0.263543 0.068368 -0.537717 -0.225920 0.422860 -0.268586 0.577614 -0.081568 -0.206396 -0.025948 -0.024179 -0.187058 0.144645 -0.073204 -0.104567 0.072272 0.220970 -0.385050 0.201847 0.005379 -0.581315 0.476662 0.369626 -0.363989 -0.350261 0.345644 0.428121 0.280641 0.066037 0.320806 -0.236653 -0.528378 -0.265619 0.089639 -0.393811 -0.175264 -0.333321 -0.062126 -0.215487 -0.306843 -0.407286 0.443871 -0.036204 -0.364355 -0.437905 -0.307544 0.300121 -0.114458 -0.731895 0.112142
you 0.454594 -0.609409 -0.742332 -0.894441 1.092960 0.182709 0.262273 0.158436 -0.114381 -0.357343 -0.443930 -0.753340 0.288454 0.284109 -0.642739 -0.512559 0.531784 -0.196963 0.663936 0.192571 -0.555920 0.798119 0.536842 -0.424721 -0.633426 1.037183 0.282632 -0.410425 -0.214715 0.562802 -0.376461 -0.845304 -0.611913 -0.392263 -0.631705 -0.648473 -1.276451 0.208519 -0.174360 -0.300225 0.283852 0.798708 0.387974 0.234510 -0.172881 -0.091384 -0.164315 -0.054337 -0.410176 0.066137
very -0.847830 0.293127 -0.885452 0.028629 -0.188647 -0.228166 0.447907 0.460517 0.130913 -0.004542 -0.370389 -0.193119 0.492478 0.486753 -0.003211 -0.607157 0.204687 -0.351385 0.477201 -0.323789 -0.916518 0.468326 0.313060 -0.626809 -0.830474 0.001459 1.177817 -0.007673 -0.060210 -0.218468 0.311129 -0.398914 -0.126117 -0.229621 0.001386 -0.286906 -0.108197 -0.174044 -0.113320 -0.112356 -0.218793 0.380139 0.363772 0.129000 -0.015820 -0.323929 1.114451 -0.081983 -0.714419 -0.206513
much 0.178370 -0.440256 -0.725009 0.033665 0.573017 -0.095004 0.277254 -0.279760 0.191197 0.238024 -0.124053 -0.533237 -0.171384 0.059808 0.384746 -0.639917 0.513938 -0.659301 0.281145 -0.598588 -1.058951 0.259886 1.059073 -0.786212 -0.967989 0.192187 0.552463 -0.572928 -0.194143 0.059683 0.048064 -0.487614 -0.507370 -0.405065 -0.563528 -0.721658 -0.530742 -0.261876 0.252686 -0.482594 -0.176328 0.990209 -0.620906 -0.367650 -0.383123 -0.055843 0.759823 -0.402866 -0.540172 -0.139439
last 0.337662 -0.089085 -0.979301 -0.542732 -0.345883 -0.294806 0.429986 -0.017077 0.220934 -0.420039 0.164594 -0.557600 0.077807 0.725051 -0.156369 -0.665754 0.351008 0.088139 0.637074 0.001145 -0.744445 0.328267 0.338311 -0.014865 -0.851262 0.396322 0.169216 -0.047831 -0.092637 0.159862 0.228477 0.002480 -0.452713 -0.223761 -0.874735 -0.434889 0.101952 -0.199486 0.176093 -0.237498 -0.076723 0.342755 0.176190 0.005345 0.012883 -0.895426 1.164729 -0.217338 -0.310461 -0.144389
people 0.181243 -0.205312 -0.806698 -0.444865 0.479786 0.032665 0.374836 -0.216501 -0.069110 -0.440900 -0.257398 -0.311960 0.271174 0.557369 0.056248 -0.310810 0.099680 -0.308922 0.404416 -0.411827 -0.350066 0.477386 0.330919 -0.209754 -0.961258 0.853785 0.553011 -0.075257 -0.339025 -0.003794 0.465642 -0.669631 -0.550050 -0.033322 -0.429808 -0.352039 -0.070218 0.106270 -0.069690 -0.079159 0.072228 0.317932 0.206201 -0.012891 -0.129722 0.059360 1.151262 -0.063389 -0.269165 -0.107033
youd -0.037400 -0.602648 -0.773679 -0.426975 0.887771 -0.144653 0.215833 0.120125 0.363313 -0.302186 -0.013466 -0.079453 0.275511 0.335637 -0.145801 -0.279455 0.806334 -0.180628 0.599633 -0.109854 -0.739332 0.281334 -0.015909 -0.626862 -0.797005 0.359910 0.377869 -0.135875 0.084374 0.596285 -0.032689 -0.397762 -0.841841 -0.258018 -0.423474 -0.381109 -0.577410 -0.096888 0.009792 -0.368879 -0.072385 0.440684 0.488394 -0.496293 -0.447124 -0.438263 0.386547 -0.179770 -0.392063 0.308032
expect 0.060751 -0.237668 -0.997138 -0.436790 0.806122 -0.316495 -0.077106 -0.252207 -0.077875 -0.156941 -0.564273 -0.161066 -0.163637 0.002005 -0.209714 -0.123974 0.270205 -0.402255 0.531605 0.153438 -0.483832 0.553101 0.194060 -0.621097 -0.616737 0.376571 0.589350 -0.092130 0.019547 0.337673 0.193755 -0.401269 -0.431005 -0.061874 -0.247539 -0.195912 -0.663732 0.032895 -0.280681 -0.203970 0.325920 0.400526 0.420211 -0.194335 -0.286595 0.089884 0.818440 -0.178867 -0.841767 0.174711
be 0.329062 -0.236693 -0.889419 -0.821891 0.986146 0.137851 0.584053 -0.581831 -0.360588 0.476081 -0.318172 0.022549 -0.368298 0.626054 0.207528 -0.081475 0.330442 0.017668 0.488750 0.876774 -0.419383 0.487870 0.292466 -0.304179 -0.785144 0.124764 0.846763 -1.347747 -0.507094 0.147565 -0.327774 -0.169647 -0.778303 0.247661 -0.474328 -0.038315 -0.791830 0.609297 -1.084579 0.186347 -0.467532 0.519840 0.157578 -0.368862 -0.282174 -0.387360 1.087224 -0.346794 -0.745503 -0.210434
involved 0.095347 0.187832 -0.836364 -0.116337 0.369644 -0.058772 0.398081 -0.003111 -0.044730 -0.204385 0.118008 -0.306087 0.405454 0.178270 0.070985 -0.224730 0.038029 -0.501382 0.776970 -0.029413 0.090817 -0.115110 0.034850 0.033902 -0.472196 -0.004341 0.190611 -0.007601 0.343659 0.250896 0.254868 -0.377533 -0.017548 0.014935 -0.628755 0.167368 -0.105431 -0.450608 -0.447950 0.020834 0.031074 0.246378 0.211856 -0.093032 -0.441373 -0.440447 0.465736 0.038314 -0.600176 0.004191
in -0.153707 0.200233 -0.913703 0.484878 0.019727 0.249643 0.831801 0.069336 -0.102289 0.063047 -0.264136 -0.580215 0.782140 0.181403 0.533571 -0.501559 0.170333 0.069510 0.436287 -0.169967 -0.272928 0.782878 -0.355118 0.404546 -0.711347 -0.334113 0.852257 0.078444 -0.092949 -0.127257 0.920453 -0.347203 -1.109760 0.050943 -0.716536 -0.021527 -0.596372 -0.527852 0.004136 0.540402 -0.193603 0.494119 0.339114 -0.367826 -0.628951 -0.141500 0.598588 -0.694447 -0.314832 -0.288347
anything 0.223844 -0.780561 -0.732731 -0.844819 0.591268 -0.026675 0.457833 -0.039239 -0.042771 -0.035704 0.019529 -0.606000 -0.172053 0.413935 -0.097941 -0.468784 0.472214 -0.435474 0.261480 0.013099 -0.758583 0.649326 0.295918 -0.900337 -0.816423 0.545108 0.289902 -0.528410 -0.149532 0.635001 0.093573 -0.186611 -0.891350 0.098049 -0.389260 -0.404098 -0.476774 -0.192377 0.204589 -0.537626 0.121546 0.491389 0.453211 0.153236 -0.056683 0.345145 1.161705 -0.050588 -0.768915 0.256928
strange -0.135493 -0.395647 -0.871795 -0.673563 0.214267 -0.292966 0.452779 -0.048206 -0.066751 -0.015529 -0.006538 -0.085748 -0.005403 0.011463 0.002512 -0.338761 0.068348 0.155828 0.266196 -0.244678 -0.130599 0.415778 0.479539 -0.332009 -0.530134 0.925067 0.499256 -0.058492 0.026552 -0.026761 0.118185 -0.430715 -0.101908 0.109570 -0.430002 0.086590 -0.092151 -0.109028 0.423947 -0.339630 0.246382 0.575190 0.104307 -0.302251 -0.313264 -0.214948 0.577561 -0.251581 -0.897500 -0.138358
or 0.111231 -0.090873 -0.881730 -0.303346 0.409569 -0.257143 0.376893 -0.324571 -0.220112 0.060034 -0.378541 -0.485729 0.056785 0.192217 -0.248799 -0.261163 0.381673 -0.108072 0.047302 0.067011 -0.328707 0.366211 0.538051 0.001418 -0.749231 0.549301 -0.000937 0.035904 0.275789 0.602296 -0.151578 -0.594070 -0.198027 -0.200864 -0.370298 -0.047850 -0.408118 -0.491856 -0.321999 -0.157518 -0.433712 0.464033 0.051223 0.129615 -0.213014 -0.257041 0.710468 -0.567413 -0.869254 -0.399296
mysterious 0.082439 0.013488 -0.817414 0.127048 -0.062796 -0.637298 0.184121 0.186955 -0.106060 -0.270334 -0.059044 -0.120113 0.013592 0.002718 0.560105 -0.081796 0.170787 -0.075370 0.389609 0.495251 -0.143156 0.166803 0.153795 -0.383148 -0.400285 -0.001449 0.248031 -0.130167 -0.149828 0.361138 0.391730 -0.242591 -0.726640 -0.038063 -0.372364 -0.094118 -0.465544 -0.156152 0.125492 -0.115870 0.184076 0.539809 0.264355 -0.479460 -0.087382 -0.051801 0.629760 -0.074221 -0.709022 0.263759
because -0.219202 -0.109255 -1.297134 -0.170182 0.382517 -0.518708 0.485829 -0.046928 -0.172630 -0.335471 -0.040858 -0.151700 0.213556 0.259840 -0.310032 -0.490435 0.282672 -0.174352 0.121419 0.003874 -0.778999 0.507027 0.247890 -0.314277 -0.574030 -0.015871 0.111057 -0.219487 0.367459 -0.096850 0.311256 -0.076708 -0.389824 -0.616754 -0.369211 -0.255119 -0.477300 -0.518416 0.348676 -0.207541 -0.272247 0.459415 0.198990 -0.266605 -0.345455 0.040104 0.655796 -0.619882 -0.567014 0.041720
just 0.092815 -0.493330 -0.863860 -0.635082 0.997108 -0.109813 0.693126 0.153907 0.258981 0.040329 0.071604 -0.230216 0.154994 0.098212 0.209545 -0.306444 0.501505 0.102438 0.585716 -0.218498 -0.558441 0.091462 0.574293 -0.923341 -0.948454 0.029309 0.319043 0.125066 0.026107 -0.248338 0.356131 -0.329231 -0.341139 0.007939 -0.355571 -0.404320 -0.516227 -0.161137 0.475633 -0.211817 -0.564272 0.273161 0.263584 -0.521266 -0.367160 -0.282069 0.879557 -0.400841 -0.117411 0.185586
didnt -0.227910 -0.431762 -0.879974 -0.542003 0.260223 -0.048225 -0.181042 0.050917 -0.143222 -0.408848 0.054215 -0.910346 -0.490127 0.181883 -0.329614 -0.076210 -0.019362 -0.078894 0.652801 -0.350952 -0.236113 0.425536 0.432513 -0.773611 -0.144741 0.674014 0.045581 -0.444787 -0.028468 0.610027 0.038228 -0.927753 -0.439512 -0.218265 -0.368194 -0.311731 -0.874707 -0.392479 0.349633 -1.315696 0.385419 0.831036 0.036317 -1.086908 -0.783925 -0.488153 0.330274 -0.252811 -1.079263 -0.290954
hold 0.156418 -0.093876 -0.626286 -0.411969 0.279441 0.052383 0.503687 0.312627 -0.320384 -0.185446 -0.226085 -0.668049 0.026773 0.426285 0.428967 -0.299841 0.059798 0.044773 0.372350 0.105373 -0.110219 0.473907 0.442190 -0.361100 -0.445838 0.246089 0.112187 -0.188800 0.156083 0.321841 0.111891 -0.380517 -0.276906 -0.224317 -0.646311 -0.039372 -0.273062 0.175329 0.185381 -0.065935 -0.089334 0.296185 0.192028 -0.121720 -0.058016 -0.455785 0.361067 0.104720 -1.026611 0.336448
with 0.056267 0.606101 -0.413281 0.067331 -0.393026 0.056545 0.453197 -0.252063 -0.131868 -0.231212 -0.039322 -0.995089 0.547508 0.175187 0.229584 -0.511857 0.630311 0.213558 0.034584 0.160055 -0.612664 0.246505 0.430980 0.146050 -0.498608 0.372524 0.483251 0.686325 0.289796 0.295143 0.597229 -0.739209 -0.065900 -0.508234 -0.575549 0.149601 -0.406388 0.077006 -0.070281 -0.027375 0.192557 0.250320 0.407681 -0.048430 -0.177925 -0.733060 0.587888 -0.613972 -0.995373 -0.079525
such -0.080911 -0.102246 -1.142987 -0.618174 -0.161948 0.023702 0.544974 0.012324 -0.087424 0.202522 -0.115144 -0.000837 0.077458 0.142549 -0.101683 -0.572651 0.608072 -0.085387 0.601284 -0.227832 -0.506107 0.398260 0.214607 -0.119018 -0.502124 0.560166 0.566620 -0.122792 0.268762 -0.102682 0.071482 -0.511810 0.409507 -0.150870 -0.163854 -0.052744 -0.639530 -0.549407 0.276516 0.059837 0.067942 0.205240 0.051890 0.111764 -0.279190 -0.035347 0.626960 -0.591748 -0.552158 0.148428
nonsense -0.022486 0.158247 -0.812667 -0.239268 0.191555 0.074203 0.443458 0.165465 -0.384735 -0.051152 -0.125813 -0.517394 -0.232905 0.198600 0.065169 0.019272 0.178476 -0.173778 0.206870 -0.048603 -0.229934 -0.170991 0.139853 -0.018420 -0.421048 0.617050 0.007089 -0.017622 0.104710 -0.081869 0.124671 -0.416036 0.039789 -0.109791 0.037451 -0.246739 -0.196537 -0.140980 -0.013965 -0.292847 0.064667 0.421626 0.151349 0.073267 -0.345155 -0.139630 0.321281 -0.572102 -0.491117 0.252443
was -0.587659 0.697974 -0.749173 0.758081 -0.170132 -0.321438 0.987515 0.220691 -0.588633 0.724640 -0.047660 -0.409267 0.474005 1.295345 -0.050498 -0.637536 0.464601 -0.001634 0.511979 -0.219652 -0.649646 0.126947 -0.038514 -0.620285 -0.257362 0.473905 0.274994 -0.142261 -0.472140 -0.368088 0.250467 -0.505310 0.008637 0.098782 -0.406552 -0.184586 -0.897238 -0.214858 0.067957 -0.174990 -0.167589 1.221947 0.124730 -0.310033 -0.552442 -0.140625 1.260643 0.235080 -0.768493 0.172238
director 0.285950 0.152474 -0.353278 -0.270730 0.080958 0.089338 0.327142 -0.036695 -0.090935 -0.086463 -0.020992 -0.326916 0.354015 0.359344 0.025912 -0.588528 0.558023 -0.108255 0.669101 -0.057273 0.244463 -0.158083 0.456639 -0.049177 -0.264469 0.256118 0.185046 -0.067536 0.051921 0.576512 0.190726 -0.033742 -0.615576 -0.134594 -0.159510 -0.119226 -0.265380 0.162697 0.057990 0.046484 0.007680 0.422904 -0.086366 -0.053993 0.051360 -0.276447 0.214769 0.068782 -0.351287 0.360720
a -0.546272 0.345735 -1.095718 -0.180881 0.120629 0.543118 0.411252 0.135744 0.021113 -0.655488 -0.340973 -1.038826 0.665677 0.072323 0.939917 -0.353089 0.524858 -0.203585 0.709991 -0.458319 -0.994076 0.089229 -0.242045 -0.372304 -0.377322 0.483560 0.210755 -0.633843 0.222619 0.025624 0.287950 -0.539700 0.868057 0.105028 -0.530858 -0.109054 0.118679 -0.555458 0.564776 0.145099 -0.496642 0.728951 0.194484 0.444469 -0.104746 -0.540182 0.604128 -0.702673 -0.628732 -0.461959
firm -0.219697 0.059473 -0.773748 -0.366844 0.155628 -0.332266 0.236196 -0.009962 0.006059 -0.386051 -0.221161 -0.192301 0.108723 -0.246576 0.275658 -0.191767 0.290560 -0.113448 0.233907 -0.065147 0.016091 0.106143 -0.282068 -0.025292 -0.320540 0.190463 -0.077859 0.192539 -0.316709 -0.426722 0.662019 -0.199734 -0.527479 -0.322959 -0.312945 -0.077699 -0.132885 -0.084205 -0.138819 -0.295790 0.306965 0.053885 0.112186 -0.194596 0.089788 -0.069988 0.168245 -0.366020 -0.406576 0.446666
called 0.042574 0.166742 -0.935045 -0.277863 0.099654 -0.180440 0.634393 0.425690 0.006236 -0.376267 0.040278 -0.244250 0.244466 0.473427 -0.073475 -0.035643 -0.103360 -0.110878 0.809579 -0.081725 -0.127651 0.782699 0.249294 -0.527195 -0.581186 0.222634 0.810119 0.003512 0.204878 0.005240 0.319163 -0.491802 -0.167016 -0.398569 -0.509777 -0.234788 -0.131166 -0.010315 0.130314 -0.216803 -0.022903 0.123232 0.117024 -0.458954 -0.455159 -0.008707 0.503304 -0.402875 -0.390904 -0.071081
grunnings 0.236093 0.040966 -0.488945 -0.363296 -0.041989 -0.016549 0.051797 0.433171 0.081864 -0.002078 0.031445 0.026567 0.158204 0.090999 -0.107161 0.020775 0.049805 -0.019296 0.347720 -0.216824 0.073546 -0.169226 -0.038003 -0.211743 -0.534363 0.275258 0.259315 0.193220 0.065588 -0.133761 0.333549 -0.335173 0.028153 0.104367 -0.235634 -0.181708 -0.707308 -0.178781 0.155302 -0.237624 -0.052234 0.473457 0.210411 0.150775 -0.223410 -0.069175 -0.008768 -0.110299 -0.450411 0.246116
which -0.370594 0.182110 -0.740610 -0.329358 0.274715 0.180326 0.486641 0.172343 0.536258 -0.142008 -0.063442 0.101968 0.426366 0.190459 0.185108 -0.516747 0.707843 0.179558 0.334473 -0.118706 -0.697039 0.269135 0.031154 -0.154680 -0.911422 0.109530 0.201471 0.146101 0.328189 -0.109863 0.192599 -0.130286 -0.289779 -0.152625 -0.724617 -0.285110 -0.366561 -0.119266 -0.011033 -0.065149 -0.167513 0.605237 -0.154083 -0.336303 -0.047872 -0.186535 0.504972 -0.331896 -0.507216 0.297785
made -0.010442 0.208358 -1.315597 -0.165097 0.274768 -0.103290 0.429119 0.296335 0.275273 -0.076090 -0.049410 -0.512101 0.261036 0.503250 -0.005403 0.081000 0.357989 0.109191 0.699794 -0.198939 -0.051261 0.736349 -0.049665 -0.201262 -0.572638 0.710920 0.473024 0.236647 0.115752 0.431095 0.254651 -0.704627 -0.295723 -0.298446 -0.417733 0.050809 -0.292165 -0.084554 0.565300 -0.297081 -0.170373 0.253285 0.231534 -0.332636 -0.131722 0.092736 1.063477 -0.656565 -0.308993 -0.415747
drills -0.365498 -0.179039 -0.560988 -0.287326 -0.236741 -0.345985 0.642744 0.214101 -0.107839 -0.471426 -0.053125 -0.059598 0.018050 0.137747 0.456258 -0.825940 0.265326 -0.037218 0.269494 -0.225375 -0.159105 0.594090 0.611348 -0.348549 -0.608964 0.316825 0.391777 -0.095148 0.286791 -0.199604 -0.005081 -0.266723 -0.109323 -0.029053 -0.494837 -0.276407 -0.137272 0.149525 0.097552 -0.163233 -0.187152 0.367267 -0.041430 -0.029046 0.305012 -0.171060 0.237329 -0.118256 -0.689506 0.374873
he -0.308406 -0.395904 -0.664149 -0.285904 -0.147086 -0.102507 0.129878 1.016070 0.378990 -0.251575 -0.151095 -0.048022 0.024845 -0.035490 -0.026316 -0.812515 0.495099 -0.102865 -0.014908 -0.076959 -0.581373 -0.272085 0.329596 -1.057363 -0.932273 0.526873 0.190268 -0.167217 -0.263966 0.434806 0.177322 -0.594867 -0.750342 0.107846 -0.257547 -0.313398 -0.927155 -0.136424 0.070951 -0.850172 -0.377895 0.769049 -0.568225 -0.650212 -0.136791 0.557306 0.974377 -0.498887 -0.572051 -0.159985
big 0.087008 -0.213369 -0.735947 -0.449793 -0.021822 -0.337387 0.672972 0.200048 -0.123806 0.191014 -0.240932 -0.024050 0.531005 0.341450 0.250406 -0.672091 0.571603 -0.134510 -0.057929 -0.002842 -0.435642 0.398207 0.431851 -0.268791 -0.772054 0.587941 -0.042435 -0.006160 0.684017 0.344512 0.157558 -0.572423 0.101761 -0.277126 -0.581529 -0.031408 -0.504144 0.375524 -0.094287 -0.289106 -0.210913 0.385462 0.464487 -0.388975 -0.109001 -0.355167 0.869756 -0.165620 -0.477887 -0.206835
beefy -0.400902 0.179038 -0.499753 -0.186981 0.348293 0.178044 0.053533 0.334077 -0.058812 -0.426016 -0.065334 -0.217158 0.160657 -0.266409 -0.192812 0.222051 0.061004 0.107514 0.426650 -0.066566 -0.305276 0.315067 0.221466 -0.003999 0.223466 0.091477 0.257060 0.218415 0.161394 -0.145719 0.227252 -0.338226 0.135108 0.074453 -0.004241 0.292382 -0.026920 0.066685 0.388089 0.001995 -0.115451 0.568529 0.224989 0.123875 0.096016 -0.252166 0.297788 -0.170637 -0.472123 -0.122229
man -0.134545 0.224531 -0.968081 -0.477668 0.038468 -0.204055 0.313255 0.374236 -0.088720 0.010295 -0.028397 -0.322256 0.083504 0.354060 -0.036500 -0.543926 0.513585 -0.185563 0.532683 -0.184029 -0.473154 0.484665 0.315962 0.059487 -0.854834 0.347441 0.171397 -0.294353 0.304841 0.201293 0.336124 -0.403140 0.071576 -0.129216 -0.455125 -0.055464 0.057881 0.054076 0.249159 -0.110756 0.051777 0.269176 0.401355 -0.289269 -0.115718 -0.320307 0.903379 -0.121427 -0.679169 0.043575
hardly 0.514623 0.061244 -0.996478 -0.094282 -0.244897 -0.102262 0.463609 -0.042609 0.082207 -0.382666 0.161335 -0.196274 -0.077787 0.314656 0.131494 -0.470778 0.385480 -0.371582 0.586897 -0.119722 -0.460685 0.385557 0.605313 -0.613716 -0.626010 0.477504 0.365475 -0.068859 -0.323399 0.318983 0.088935 -0.328653 -0.126730 0.055189 -0.095335 -0.300222 -0.748986 0.031008 0.269989 -0.702748 -0.059276 0.040142 0.069380 -0.456968 0.014763 -0.011201 0.690798 -0.502714 -0.603659 0.025100
any 0.260333 -0.487541 -0.725923 -0.731798 0.138281 -0.371716 0.008425 -0.428830 0.134361 -0.513326 -0.065672 -0.614818 -0.031592 0.145003 -0.013047 -0.374266 0.243767 0.164802 0.427487 0.075332 -0.457460 0.291518 0.282257 -0.717093 -1.073711 0.269593 0.441362 -0.154487 -0.012692 0.325477 -0.314891 -0.633271 -0.729341 -0.041861 -0.456847 -0.129100 -0.436619 -0.238360 0.207404 0.132340 -0.538263 0.579766 0.112407 0.051542 -0.057788 0.012333 0.961723 0.005199 -0.724442 0.049140
neck -0.074470 0.219236 -0.587291 -0.424701 -0.167469 -0.621987 0.472939 0.270494 0.128872 -0.029098 -0.047059 -0.265498 0.226284 0.219649 -0.040507 -0.474228 0.036611 -0.083903 0.317743 -0.166294 0.204177 0.064766 0.013122 -0.199598 -0.991765 0.859729 0.125783 -0.039251 -0.080167 0.030684 0.042342 -0.530465 -0.491742 -0.191920 -0.141120 -0.014866 -0.220540 0.439813 0.136699 -0.466620 -0.335346 0.377466 0.004497 -0.520943 -0.560921 -0.747859 0.535858 -0.355534 -0.765689 0.556448
although -0.116068 -0.039775 -0.855627 -0.412976 -0.034731 -0.159655 0.185778 0.148820 -0.203052 -0.190647 -0.195694 -0.408338 -0.175800 0.343489 0.430933 -0.042357 0.141749 0.012505 0.636443 0.201143 -0.389604 0.478771 0.253485 -0.183720 -0.726563 0.288285 0.282402 -0.213908 -0.087876 0.179054 -0.060107 -0.455091 -0.554171 -0.087640 -0.381782 -0.224998 -0.445750 0.016198 -0.084913 -0.244357 0.249011 0.378369 0.157115 -0.593990 -0.048095 -0.133799 0.160928 -0.418769 -0.704259 -0.209531
did -0.062685 0.293483 -1.219368 -0.539480 0.443807 -0.407055 0.583364 -0.107241 0.156556 -0.012482 0.011669 -0.613281 -0.397307 0.448067 -0.436666 -0.537614 -0.183210 -0.019925 0.436785 -0.371418 -1.016666 0.988018 0.338483 -0.866501 -0.424460 0.617367 0.193801 0.148712 -0.032191 0.468567 0.183114 -0.575074 -0.178646 0.206416 -0.643891 -0.366581 -0.449624 0.058623 -0.029618 -0.920241 0.282486 0.820468 0.437559 -0.533461 -0.264957 -0.076572 0.120944 -0.082434 -0.560744 0.065080
have 0.027185 -0.055286 -1.258257 -0.656690 0.405431 0.257757 0.136862 -0.458080 -0.169905 -0.138943 -0.532772 0.389535 -0.149338 -0.013681 0.185179 -0.191639 0.211109 0.144723 0.760828 0.498967 -1.261605 0.114430 0.448760 -0.745291 -0.527583 0.403501 0.480467 -0.683155 -0.106249 0.687350 -0.218895 -0.565799 -1.003084 0.469283 -0.243534 -0.039763 -0.400161 0.080360 -0.418138 -0.424296 0.188321 0.007348 0.315154 -0.257489 -0.682959 -0.098503 0.884715 -1.068318 -0.509945 0.416695
large -0.261692 0.450366 -1.342955 -0.380095 -0.150283 -0.379104 0.283425 0.110225 -0.027285 -0.158137 -0.277810 -0.330953 0.315724 -0.014584 0.664369 -0.646319 0.548817 0.082730 0.400996 -0.377692 -0.089141 0.066344 0.144370 0.184790 -0.412167 0.479473 0.316583 -0.298263 0.407403 0.223189 0.349456 -0.289506 0.190946 0.013263 -0.415323 -0.088018 -0.021261 0.364368 0.579053 0.262277 -0.180848 0.522722 0.142192 0.084089 -0.341495 -0.252522 0.580233 -0.336241 -0.874657 -0.148316
mustache -0.054243 0.118338 -0.826321 -0.152843 0.167151 -0.116235 0.667791 0.066725 0.133899 -0.284394 0.080459 -0.171083 0.142652 0.272190 0.308214 -0.558119 0.259597 0.028141 0.314739 0.063475 -0.293924 0.305619 0.307711 -0.039442 -0.595165 0.436902 0.205853 0.053269 -0.025647 0.070167 0.314111 -0.283981 -0.166377 0.482646 -0.107346 -0.069945 -0.410245 0.249329 0.118173 0.008972 0.121152 0.173822 0.265036 -0.137752 -0.340621 -0.283291 0.538110 0.041795 -0.508021 0.121173
thin -0.181321 0.519973 -0.584917 -0.669381 -0.004757 -0.122593 0.765970 0.679365 0.282500 -0.498998 0.197347 0.036366 0.073182 0.293030 0.446731 -0.748966 0.450589 -0.179301 0.225041 0.059950 -0.516477 0.135900 -0.004054 0.213441 -0.453148 0.407522 0.676782 -0.040988 0.118556 -0.148760 0.543472 -0.148330 -0.204328 -0.223508 -0.294489 -0.155587 -0.369092 -0.014929 0.064231 -0.311984 -0.269531 0.310389 0.079808 -0.017911 -0.441088 -0.538947 0.309794 -0.436037 -0.304623 0.033025
blonde -0.204774 0.124070 -0.419013 -0.390334 -0.030498 -0.368857 0.549702 0.069469 0.425889 0.079961 0.168684 -0.014838 0.535188 0.055532 0.318246 -0.441345 -0.488561 -0.202519 0.046541 0.257109 -0.355617 0.156306 0.342188 -0.200224 -0.275753 0.482857 0.156836 -0.301029 0.409241 -0.105334 -0.043985 -0.208355 -0.037160 -0.067469 -0.268034 0.226928 -0.240176 -0.157097 0.005588 -0.209613 0.109850 -0.073041 -0.326628 -0.057074 -0.631893 -0.185264 0.283127 0.109255 -0.427332 0.417358
had -0.083261 0.087776 -0.960594 -0.141036 -0.047374 -0.464857 0.420936 -0.689971 -0.343074 0.214554 0.576356 -0.620149 0.919140 0.278330 0.125409 -0.272679 0.202812 0.452051 0.968325 0.277356 -0.429130 -0.362342 0.552307 -0.576339 -0.562313 0.727774 0.256139 -0.078972 0.179997 0.074271 0.931962 -0.898401 -0.664590 0.500059 -0.652326 -0.117741 -0.341274 -0.403626 0.114634 -0.775795 -0.516035 0.166167 0.002559 -0.191095 -0.538550 0.336942 0.889711 -1.113681 -0.396330 0.045604
nearly 0.302785 0.179871 -0.803091 -0.205395 0.218128 0.243635 0.617194 0.064725 0.076435 -0.603660 -0.159951 -0.422885 -0.176159 0.112220 -0.134274 -0.200573 0.021211 -0.254780 0.747362 0.048792 -0.195374 0.389896 0.288202 -0.294028 -0.955204 0.239652 0.171564 -0.250505 -0.075934 0.234830 0.212356 -0.147474 -0.304027 0.042427 -0.672144 -0.340846 -0.514678 0.115497 0.031467 -0.538305 -0.222444 0.415324 -0.067888 -0.279417 -0.196336 0.042400 0.336725 -0.370956 -0.411180 -0.160903
twice -0.277339 -0.138448 -0.818799 -0.391907 0.208503 -0.156619 0.566494 -0.042777 0.117294 -0.437780 0.014844 0.028349 0.208440 0.208620 -0.027743 -0.352873 0.009455 -0.612303 0.504511 0.030160 -0.426591 0.158432 0.211936 -0.380632 -0.725015 0.229379 0.427372 -0.296060 0.329523 -0.032672 0.195415 -0.486344 0.038921 0.063940 -0.082157 0.039858 -0.110305 -0.201617 0.051285 -0.298113 -0.308899 0.146773 -0.059129 -0.118864 -0.369995 -0.470540 0.629516 -0.323844 -0.519664 0.382411
usual 0.138915 0.208976 -0.905627 -0.138533 0.074024 -0.322002 0.482642 0.220341 -0.001100 0.171663 0.019444 -0.044614 0.122568 0.262149 0.100996 -0.611265 0.090218 -0.025668 0.549533 0.341254 -0.333973 -0.080915 0.620377 -0.286287 -1.046833 0.103160 0.051202 -0.122164 0.175500 0.047074 0.566765 -0.433869 -0.466540 -0.532932 -0.289499 -0.277585 -0.525415 0.098135 0.231177 -0.105389 -0.166681 0.522978 0.016539 -0.434081 0.160284 -0.410303 0.248420 -0.052176 -0.643069 0.156741
amount 0.171803 0.101927 -0.259147 -0.340501 -0.044967 -0.166022 -0.102968 0.007554 0.261263 -0.094504 0.091716 -0.008515 0.038334 -0.106518 0.203648 -0.274162 0.615669 -0.203801 -0.020536 0.232493 0.139092 0.322015 0.354341 -0.220197 -0.645290 0.291943 0.128836 0.251632 -0.250762 0.234415 0.233829 -0.214517 -0.111048 0.147498 -0.166314 -0.351749 0.118000 -0.183667 -0.043592 -0.135076 0.085099 0.081836 0.136381 0.142512 -0.050932 -0.225542 0.485657 0.363895 -0.447170 0.258158
came -0.054128 0.081396 -0.772184 -0.024465 0.010275 -0.323170 0.083907 0.183075 0.140314 -0.309575 0.258772 -0.250276 -0.195568 0.819266 0.427405 -0.165382 0.321120 -0.274320 0.422952 -0.098763 0.189624 0.088122 0.128246 -0.318694 -0.646331 0.197221 0.322743 -0.253874 0.239375 0.060446 0.403391 -0.444031 -0.294726 0.422994 -0.673592 -0.503525 -0.503332 0.810120 0.572786 -0.312271 -0.367923 0.374923 0.388179 -0.486597 -0.455799 -0.406322 0.533946 -0.429326 -0.838038 0.109685
useful -0.087723 -0.288105 -0.744615 -0.585860 0.141976 -0.398363 0.341640 -0.035492 -0.223763 -0.108959 -0.086553 -0.399559 -0.053288 0.071258 0.229404 -0.175711 -0.065346 -0.264315 0.472946 0.040142 -0.405106 0.268331 0.056249 -0.100221 -0.666812 0.262805 0.406899 -0.185353 0.261732 0.208131 0.102099 -0.037393 -0.377748 -0.157185 -0.387134 0.077028 -0.416371 0.025034 0.200438 -0.515232 -0.093556 -0.044444 0.106530 0.131379 -0.344018 -0.253575 0.256670 -0.181198 -0.687515 0.120607
as -0.225679 -0.091932 -0.996818 0.271796 0.031553 -0.794306 1.150790 0.278316 0.568413 0.434165 -0.429073 0.059947 0.409868 -0.092319 0.643764 -0.783980 0.024304 -0.330456 0.364339 -0.203288 -1.018770 -0.693712 0.649394 -0.799010 -0.885542 0.805933 0.276455 -0.285982 0.147735 -0.180856 0.714917 -0.528955 -0.287332 -0.664267 0.600212 -0.659724 -0.627182 -0.191396 -0.756837 -0.617619 0.146667 0.517118 -0.502256 -1.041845 0.171921 -0.422094 0.422254 -0.836483 -0.418986 0.001129
she 0.048936 -0.402059 -0.495080 -0.239531 0.162014 -0.094275 0.408149 0.422728 0.076149 -0.486978 -0.406223 0.265852 0.244282 -0.149818 0.009557 -0.565391 0.622294 -0.655745 0.653112 -0.069680 -0.750130 -0.136882 0.318009 -0.827153 -0.650925 0.511580 0.481567 -0.163628 -0.571889 -0.091171 0.568266 -0.497351 -0.633047 -0.202287 -1.037561 -0.375173 -0.721452 -0.294274 0.304901 -0.264467 0.150291 0.354584 -0.319041 -0.709938 -0.388919 0.246267 0.668984 -0.374806 -0.333471 -0.178991
spent 0.154048 0.161680 -1.012521 -0.224508 0.062726 -0.286745 0.257593 -0.036706 -0.275162 -0.027355 -0.252888 -0.418934 0.392102 0.139731 -0.054002 -0.382069 0.303531 -0.336832 0.258130 -0.272453 0.052215 0.325476 0.448604 -0.369132 -0.909107 0.237549 0.339395 -0.113254 -0.145408 -0.088351 0.516998 -0.365674 -0.293123 -0.201825 -0.389001 -0.262386 -0.617173 -0.117891 -0.041048 -0.452756 -0.199781 0.068004 0.420955 -0.524229 -0.378544 -0.320483 0.366542 -0.215882 -0.629705 0.099070
so 0.123026 -0.014338 -0.840857 0.025977 0.441969 -0.527281 0.276958 0.260418 0.305715 0.164517 0.011104 -0.091235 0.186841 0.302052 -0.249052 -0.204071 0.223323 -0.380609 0.406098 -0.025404 -0.983207 0.618261 0.285067 -1.076493 -0.815423 0.390920 0.101672 -0.192425 -0.530694 0.402945 0.264734 -0.263144 -0.751724 -0.462441 -0.232974 -0.056996 -0.417172 -0.482725 0.125149 -0.381886 -0.410008 0.151063 -0.027022 -0.232826 -0.361033 -0.118157 0.650318 -0.444051 -1.075879 0.202948
her 0.404081 0.014768 -0.388556 0.296315 0.013577 -0.213290 0.623687 0.039150 0.156094 -0.811105 -0.117669 -0.342301 0.556758 -0.100447 0.386843 -0.101735 -0.011772 0.287633 0.184724 0.457731 -0.715008 -0.159725 -0.062172 -0.531708 -0.893327 0.937800 0.470761 0.031988 -0.052117 -0.119272 0.577508 -0.474699 -0.132071 -0.504784 -0.323648 -0.720096 -0.718275 -0.043213 0.669117 0.163451 -0.285642 0.861761 -0.140783 -0.026677 -0.321207 0.132790 0.526254 -0.062064 -0.957264 0.314076
time 0.454610 -0.461790 -1.201542 -0.606093 0.498245 -0.243086 0.645872 0.350028 0.118930 0.202874 0.228835 -0.027604 -0.224404 0.261183 0.183210 -0.182636 -0.165149 0.318512 -0.234327 0.033647 -0.612694 0.607698 0.168043 -0.617377 -0.783516 0.727234 0.547313 -0.310457 0.052817 -0.010693 0.430390 -0.636469 -0.355349 -0.027769 -0.397136 -0.189207 -0.367771 -0.609965 0.479441 -0.366913 0.362971 0.189201 0.711243 -0.171985 -0.634561 -0.390542 1.283055 -0.226179 -0.321416 0.347481
craning -0.053590 0.308018 -0.405974 -0.507696 0.001675 -0.074653 0.158587 0.099233 0.102877 -0.368001 -0.272144 -0.059403 -0.200816 -0.049757 0.264709 -0.596431 0.174777 -0.359899 0.170907 0.221940 -0.062449 -0.188167 0.431959 -0.163745 -0.050214 -0.015416 0.235679 0.207766 -0.525100 -0.172961 0.241788 -0.160640 -0.031313 -0.048565 -0.554886 -0.214129 -0.064798 -0.098360 0.347073 0.185995 0.222652 0.083069 0.260818 0.068312 0.008957 -0.302957 0.676056 -0.322218 -0.579803 0.394757
over -0.098347 0.426255 -0.754144 -0.052576 0.216754 0.002289 0.958367 0.169626 0.496820 -0.666187 -0.426304 0.177305 0.295670 0.331996 0.114850 -0.239647 -0.053671 0.044516 0.225380 0.396649 -0.352374 -0.044007 -0.617647 -0.206072 -0.973899 0.925794 0.281614 0.843753 -0.023458 0.050824 0.613821 -0.477415 -0.479725 -0.182364 -0.692318 0.176355 -0.353422 0.271279 -0.124799 -0.223610 0.198208 0.484635 -0.534387 -0.585216 -0.150126 -0.382528 1.128144 -0.089453 -0.278749 0.273054
garden 0.367113 0.137843 -0.752332 -0.526735 -0.355249 0.363487 0.407874 0.238585 0.099700 -0.218568 0.179173 -0.180938 -0.116929 0.318816 0.110652 -0.218812 -0.084408 -0.071700 0.564561 0.142998 -0.141706 0.159055 0.107598 0.034674 -0.821994 0.235884 0.107296 0.159690 0.014612 0.101191 0.290879 -0.361116 -0.295611 -0.134124 -0.432293 -0.198668 -0.282707 0.187163 0.147033 0.004657 -0.138982 0.409156 -0.026091 -0.174331 -0.652262 -0.323760 0.272261 0.052928 -0.724762 0.251711
fences 0.027639 -0.137072 -0.358505 0.064190 0.004520 0.122503 0.490169 -0.029389 0.209278 -0.263039 0.022108 -0.325215 0.109202 -0.393898 0.107641 0.073076 0.037821 -0.056037 0.262368 -0.039182 -0.528678 -0.013128 0.004802 -0.486750 0.000691 0.028978 0.113621 -0.333625 0.130449 -0.196962 0.351217 -0.020934 -0.339811 0.195791 0.047969 0.183736 -0.489710 0.097072 -0.012979 0.070661 -0.037650 0.196698 0.260213 0.021583 0.006672 -0.181503 0.481932 0.155896 -0.097966 0.060840
spying -0.102471 -0.397604 -0.548020 -0.048664 0.254621 -0.088891 0.196694 0.202632 -0.064836 -0.597512 0.031782 -0.113375 0.051384 0.082109 0.240226 -0.147788 0.050761 -0.356773 0.159251 -0.166004 -0.039014 0.277648 0.216430 -0.378564 -0.445663 0.248415 0.312272 0.142502 0.249604 0.370634 0.340157 -0.168622 -0.282288 0.177456 -0.295174 0.116593 -0.323793 0.240237 -0.159602 -0.347263 -0.061172 0.246084 0.000525 -0.342514 -0.056169 -0.350841 0.350932 -0.408505 -0.534111 0.158653
on 0.178916 0.912445 -0.496848 -0.129340 0.348067 0.159533 0.445537 0.081124 -0.510938 -0.817838 -0.538366 -0.127239 0.237423 0.183692 0.583146 -0.517107 0.526447 0.642104 0.639417 0.014829 -0.419654 0.111125 -0.312444 -0.349223 -0.798885 -0.179720 0.052989 0.842317 0.249241 -0.101196 0.440921 -0.769385 -0.370551 -0.896215 -0.731124 -0.252301 -0.304433 0.356949 -0.117096 -0.043421 0.056735 0.647335 -0.115199 -0.436552 -0.467018 -0.170678 0.828408 -0.366386 -0.571859 -0.184829
neighbors 0.319622 0.328474 -0.562388 -0.191369 0.000706 -0.049716 0.365325 0.073240 -0.030721 -0.099761 0.419588 -0.311879 0.120286 0.038753 0.321389 -0.328956 0.172826 -0.046077 0.453469 0.015300 -0.369833 0.380781 -0.063375 0.098280 -0.206459 0.019388 0.172036 -0.059244 0.193726 -0.045309 -0.027786 -0.260163 -0.561821 0.203801 -0.532909 -0.153266 -0.367648 0.202602 0.053936 -0.002088 0.201026 0.392982 -0.131674 -0.293707 0.078557 0.015024 0.328317 -0.233376 -0.527823 0.055584
dursleys 0.233461 -0.122321 -0.795399 -0.586036 0.356837 -0.089048 0.354620 -0.003794 0.206268 -0.362874 0.482669 -0.163141 -0.472474 0.744078 -0.070381 -0.815445 -0.026578 0.006684 0.539242 0.244104 -0.416583 0.730280 0.961593 -0.111146 -0.846759 0.107800 -0.317974 -0.374333 0.077394 0.365980 0.657168 -0.600782 -0.518795 0.197584 -0.834681 -0.504829 -0.250086 -0.126282 0.040116 -0.238572 -0.149612 0.847968 0.310085 -0.286737 -0.088874 0.066379 0.736180 -0.169170 -0.296229 0.452921
small -0.145080 0.052905 -0.911118 -0.530533 -0.323327 -0.220576 0.595316 0.127089 0.097869 -0.306657 -0.313614 -0.047708 0.356646 0.338161 0.148948 -0.143179 0.324042 0.104920 0.610097 -0.607562 -0.226348 0.356310 0.225996 0.011818 -0.902531 0.272064 0.738582 -0.250159 0.601272 -0.280082 0.476186 -0.517399 -0.173714 0.036332 -0.592452 -0.071545 -0.092390 0.147739 0.546242 -0.039605 -0.298813 0.389362 0.115606 0.067467 -0.107267 -0.447474 0.749918 -0.330054 -0.332791 -0.574469
son -0.084195 -0.052423 -1.022214 -0.203561 -0.067546 -0.180312 0.672015 0.145343 0.083352 -0.497395 -0.143138 -0.191588 0.299284 0.196781 0.133852 -0.167906 0.290024 -0.350229 0.804965 -0.100956 -0.385374 0.249061 0.231560 0.054547 -0.616705 0.297022 0.346739 -0.265641 -0.072063 0.305077 -0.179176 -0.046767 0.022557 -0.029788 -0.144597 0.156585 -0.410963 -0.219442 -0.054656 -0.313270 -0.235089 0.166558 0.378400 -0.288178 -0.012435 0.008978 0.387187 -0.655716 -0.403136 0.611324
dudley 0.151000 -0.186823 -0.768514 -0.376547 -0.081577 -0.199775 0.308319 0.227515 0.079112 -0.287681 0.396867 0.018110 0.174097 0.256146 -0.041256 -0.320777 0.420364 -0.466869 0.492815 0.464266 -0.316295 0.287501 0.124514 -0.179755 -0.595312 0.726230 0.115603 -0.403909 0.161633 0.609259 0.878086 -0.763010 -0.259109 -0.448276 -0.471775 -0.580415 -0.327459 -0.301741 0.480724 -0.190016 -0.322752 0.391482 0.322880 -0.683907 -0.098921 0.278869 0.974770 0.016708 -0.563561 -0.328732
their 0.376001 0.258408 -0.093032 -0.091984 0.034231 0.385317 0.774638 0.213353 0.074487 -0.881359 0.335976 -0.332486 0.134264 0.254225 0.633483 -0.339330 0.290581 -0.325237 0.168748 0.051402 -0.114464 -0.096550 -0.774694 -0.366224 -1.110459 0.909949 0.578269 0.162493 -0.030489 0.298637 0.627568 -0.724203 -0.115662 0.232908 0.016373 -0.545590 -0.075459 -0.097935 -0.105318 -0.018460 -0.371682 0.560427 -0.273075 -0.233009 0.194291 -0.366494 0.873130 -0.647102 -0.828830 0.071673
opinion 0.135826 -0.275714 -0.314111 -0.921306 0.241739 -0.156680 0.443039 -0.046971 0.143985 0.052991 -0.330546 -0.216253 0.064500 0.154351 0.363998 -0.131348 -0.056044 -0.272859 0.357544 -0.022707 -0.419156 0.055552 0.119489 -0.134079 -0.587738 0.432530 0.279688 -0.364584 0.070745 0.059266 0.294125 -0.474166 -0.620617 -0.419239 -0.164967 -0.307862 -0.402093 -0.077359 0.269341 0.135924 -0.404620 0.716834 -0.027227 -0.403840 -0.398177 0.429374 0.708651 -0.392512 -0.417544 0.148561
there 0.458314 0.560065 -1.049882 -0.712498 0.213331 0.302896 0.413547 -0.099501 0.522706 -0.243317 -0.041121 -0.356617 0.241523 0.443750 -0.518891 -0.701698 0.424449 -0.402868 0.388341 -0.536208 -0.728169 0.563096 0.059319 -0.610742 -0.899259 0.420712 0.096646 -0.388115 0.209664 0.122708 0.046496 -0.787469 -0.403743 -0.359585 -0.825313 -0.274447 -0.746219 -0.309953 0.125414 -0.083295 -0.408321 0.040167 0.716909 -0.532977 -0.292553 -0.148115 0.791814 0.308291 -0.464571 -0.590851
no 0.622064 0.347063 -0.924910 -0.632100 0.184202 0.531052 0.747694 -0.074729 -0.010857 0.218368 0.580196 -0.367010 0.683297 0.397748 -0.533309 -0.302826 0.478881 -0.737389 0.162768 -0.305237 0.013599 1.152569 -0.253306 -1.233697 -0.912364 0.222083 0.439492 -0.090083 -0.232358 0.239367 -0.086873 -0.085728 -0.511281 0.095439 -0.322224 0.424176 -1.013197 -0.237395 0.192297 0.051397 -0.590754 0.417606 0.591747 0.099988 0.072136 -0.159282 0.874800 -0.199592 -0.798188 -0.221002
finer 0.101236 0.171722 -0.521190 -0.123521 -0.103228 -0.124563 0.499916 0.044512 0.186450 0.020926 0.226924 -0.341432 0.218405 0.278875 0.257045 -0.041939 0.308314 0.092306 0.417362 -0.394145 -0.036432 0.353211 0.309686 0.192922 -0.333688 0.016349 -0.018496 0.127876 -0.003630 0.001016 -0.000619 -0.189084 -0.361275 -0.415328 -0.144882 0.032228 -0.443351 0.164843 -0.139595 0.092181 -0.027861 0.051613 -0.053627 -0.030396 -0.019346 -0.039922 0.214196 0.060415 -0.515830 0.333292
anywhere 0.249648 0.012422 -0.679917 -0.647003 0.266026 -0.209097 0.529888 -0.101783 0.064541 0.205979 -0.169991 -0.207105 -0.196905 0.034193 0.205061 -0.554455 0.383538 0.074948 0.423980 0.188671 -0.211553 0.464054 -0.098864 -0.186767 -0.619156 0.069944 0.264806 -0.078705 0.041077 0.063714 0.372414 -0.291407 -0.224067 -0.206534 -0.184289 -0.191016 -0.300723 0.284806 0.451183 -0.451147 0.322601 0.198610 0.492241 -0.154419 -0.040465 -0.159561 0.626240 -0.092994 -0.719590 0.154971
everything 0.192464 -0.665694 -0.688877 -0.530108 0.377305 -0.373854 0.528492 -0.001709 -0.029184 -0.331805 -0.118618 -0.385631 -0.059715 0.571896 -0.043460 -0.482877 0.505888 -0.119726 0.620734 0.006345 -0.319328 0.366842 0.184272 -0.549459 -0.887985 0.782719 0.023281 -0.402659 0.009858 0.163932 -0.046116 -0.233911 -0.202086 0.384438 -0.565244 -0.313362 -0.256301 0.048190 0.304713 -0.195034 -0.474365 0.236847 -0.047109 -0.487008 -0.403055 -0.356981 0.689623 -0.268710 -0.368868 0.392660
wanted -0.121647 -0.027287 -1.137659 -0.699817 0.408337 -0.449450 0.328637 -0.515667 -0.208044 0.021137 0.289061 -0.571403 0.147722 0.508362 0.074784 -0.577687 0.425422 0.034498 0.249840 0.221843 -0.788271 0.686506 0.257626 -0.719824 -0.617366 0.699282 0.342863 -0.459319 0.236990 0.880146 -0.067498 -0.277080 -0.337165 0.123646 -0.303914 -0.558902 -0.572781 0.002908 0.253611 -0.889313 -0.060881 0.353961 0.218030 -0.390360 -0.629651 -0.223154 0.611164 -0.260058 -0.528324 0.014878
but -0.134534 0.157974 -1.030608 -0.169600 0.381693 -0.181910 0.231925 0.184242 0.014611 -0.486595 0.204722 -0.311414 -0.187875 -0.071863 -0.583532 -0.159070 0.329221 0.112473 0.364393 -0.027686 -0.600186 0.189854 0.226255 -0.640122 -1.078863 0.181560 0.459105 -0.165409 -0.638340 -0.102630 0.221646 -0.370259 -0.287248 -0.395589 -0.262036 -0.000753 -0.656077 -0.510789 -0.108267 -0.306395 0.199684 0.627953 0.408973 -0.355162 -0.005963 -0.116015 0.816894 -0.567533 -0.703816 -0.180776
also -0.599826 -0.038356 -1.154179 -0.717786 0.278612 -0.247679 0.467282 0.271463 -0.132720 -0.279917 -0.048263 -0.269736 0.238423 0.411500 0.175161 -0.252933 0.100992 -0.441994 0.493974 0.018896 -0.399830 0.363449 0.288178 -0.205675 -0.551374 0.242434 0.316334 0.080969 -0.075217 -0.076251 0.176953 -0.282689 -0.138952 0.003057 -0.232623 -0.227307 -0.391414 -0.237327 0.360369 -0.438227 -0.343801 0.378491 0.425855 -0.141936 -0.179502 0.077039 0.129687 -0.569787 -0.392402 -0.039542
secret -0.216670 0.091672 -1.141295 -0.534789 0.197107 0.143467 0.520426 0.325464 0.010420 -0.268316 0.014128 -0.187326 0.145114 0.345771 0.269248 -0.215903 0.139858 -0.190906 0.350381 0.051548 -0.508876 0.271489 0.453350 -0.067109 -0.484757 0.442261 0.199290 0.129529 -0.204140 0.044050 0.266941 -0.557713 0.054430 -0.301553 -0.191399 -0.202365 -0.265631 0.441877 -0.083510 -0.301177 -0.124521 0.381676 0.366370 -0.337723 0.141962 -0.328457 0.278735 -0.313448 -0.650519 0.191861
greatest 0.094044 0.101394 -0.641485 -0.368113 -0.311870 -0.262046 0.329118 0.384393 0.203264 -0.245312 0.184616 0.152053 -0.062162 0.253367 0.203841 -0.640857 -0.080117 -0.116996 0.531311 0.066511 -0.220710 0.127332 -0.172543 0.176371 -0.591183 0.395890 0.192276 0.008201 0.112176 -0.117572 0.093478 -0.504299 -0.481447 -0.368919 -0.378653 -0.045443 -0.561472 -0.164614 -0.028474 -0.001782 0.041016 0.556474 0.157782 -0.004581 -0.387079 -0.083858 0.114898 -0.197568 -0.625101 0.233519
fear 0.085724 0.117891 -0.879204 -0.496804 0.001653 0.125956 0.199759 0.111279 -0.001659 -0.677669 0.154345 -0.459666 -0.116715 -0.077687 0.426415 0.124675 0.351145 -0.098873 0.495447 -0.248707 -0.073652 0.377362 0.100149 0.119287 -1.033314 0.404838 0.217136 -0.116215 -0.035080 0.271022 0.382214 0.107739 -0.612411 -0.073652 -0.218144 0.261376 -0.394047 -0.131511 -0.104481 -0.005959 0.076352 0.471405 -0.014725 -0.214832 -0.229196 -0.024652 0.737199 0.219937 -0.470318 0.267426
somebody 0.211996 0.140249 -0.397475 -0.232025 0.236722 0.177798 0.581353 -0.219799 -0.134167 0.136790 0.628898 -0.271450 0.128414 0.024965 0.564560 0.032109 0.034735 0.080492 0.536219 -0.105344 -0.079941 0.116982 0.073039 -0.164015 -0.723109 0.587353 0.145303 -0.289143 0.274323 -0.053474 0.061155 -0.178858 -0.037774 -0.133866 -0.173227 0.120885 -0.437993 -0.141152 0.085780 -0.060084 -0.008882 0.442831 0.277311 -0.162767 -0.030724 -0.276771 0.161163 -0.134409 -0.417475 0.191257
would 0.193985 -0.534143 -0.792769 -0.259035 0.257256 -0.512978 0.252613 -0.230478 0.032695 0.107930 0.015537 -0.619619 -0.096842 0.103191 -0.094114 -0.307727 0.442230 0.183834 1.224811 -0.155567 -0.406039 0.829371 0.024815 -0.541486 -0.369380 0.498715 0.180883 0.196848 0.228450 0.660972 0.334307 -0.613676 -0.561240 -0.132128 -0.341466 -0.335652 -0.682634 -0.193719 -0.188538 -0.782121 -0.305019 0.274220 0.326399 -0.328683 -0.528442 -0.107170 0.820686 -0.645030 -0.711692 -0.081589
discover -0.016741 0.159364 -0.440567 -0.183026 -0.339927 -0.365887 0.240529 -0.204307 0.285263 -0.356250 0.245362 -0.334747 -0.118497 -0.063412 0.061283 0.010656 0.018294 0.176095 -0.014288 0.148070 -0.178180 0.198863 -0.125282 0.107378 -0.375559 0.213673 -0.295251 0.109835 -0.079310 0.054558 0.125834 0.073679 -0.348128 0.475722 -0.414721 -0.116515 -0.201713 0.188465 0.191039 0.163336 -0.080172 0.306381 0.058972 -0.214416 -0.323363 -0.079915 0.450275 0.013580 -0.473883 0.010689
it -0.626023 -0.201130 -0.707650 -0.667998 0.449362 0.218907 0.375893 0.066687 0.192439 -0.297061 -0.236023 0.306307 0.257603 0.099748 -0.140207 -0.859367 0.209539 0.219244 0.249110 -0.004917 -1.137445 0.290748 -0.223120 -0.546283 -0.568480 0.335106 0.271886 -0.690546 -0.187182 0.159349 0.440606 -0.253650 -0.375433 -0.136240 -0.627616 -0.374848 -0.675089 -0.163629 0.341094 -0.442340 -0.279604 0.671222 0.295464 -0.555253 0.203893 -0.302522 0.824495 -0.417011 -0.657294 -0.068108
think 0.316935 -0.492638 -1.299098 -0.533072 0.992700 0.204939 0.464639 0.171523 -0.822591 -0.463916 -0.154267 -0.217097 -0.000403 -0.218465 -0.099623 -0.449988 0.620977 -0.347830 0.305244 -0.044575 -1.056711 1.182238 0.607182 -1.030582 -0.730163 -0.134262 0.708676 -0.228449 -0.475078 0.346809 -0.268277 -0.186862 -0.621385 -0.118175 -0.114136 -0.313015 -0.536629 -0.300480 -0.176098 -0.181932 0.163927 0.156426 0.273948 -0.489703 -0.721506 -0.265418 0.825988 -0.075957 -0.747658 0.698556
could 0.207285 -0.419941 -1.314542 -0.766542 0.286380 -0.137338 0.484363 -0.467898 -0.279279 0.094073 0.032292 -0.585776 -0.182860 0.195850 0.172097 -0.384620 0.455739 0.220789 1.028498 -0.670968 -0.225829 0.591022 0.014707 -0.573767 -0.664707 0.385908 -0.189961 -0.020449 -0.256243 0.710641 0.206641 -0.904495 -0.327224 -0.015300 -0.009976 -0.750084 -0.885521 0.380358 -0.063650 -1.160607 -0.708713 0.745723 0.412449 -0.772695 0.123935 -0.305060 -0.276557 -0.425485 -0.594273 -0.294499
bear 0.146837 0.085548 -0.902851 -0.279683 -0.057149 0.081169 0.111289 0.262133 -0.091275 -0.164905 0.173962 -0.422841 -0.107016 0.464477 0.216293 -0.252104 0.449575 -0.233165 0.219226 0.007519 -0.526285 0.231427 -0.170007 -0.327333 -0.360599 0.220274 0.251195 -0.068361 0.112268 -0.062846 0.084275 -0.115213 -0.300084 -0.010757 -0.074185 -0.246631 -0.613691 0.123903 0.102009 -0.268468 0.252864 0.368083 0.058066 -0.297313 -0.393165 -0.120066 0.223776 0.046852 -0.759413 0.468455
if -0.098480 -0.112037 -1.307809 -0.690216 0.938976 0.006463 0.566921 -0.485153 0.081155 -0.328800 -0.346697 -0.263695 0.124283 -0.180481 -0.172635 -0.436343 0.445362 0.025763 0.240740 -0.156636 -1.031923 0.541239 -0.016642 -0.610897 -0.850522 0.521186 -0.033762 -0.317527 -0.286769 0.328143 0.175972 -0.028936 -0.275976 -0.258701 -0.438183 -0.269628 -0.759898 -0.207304 -0.189517 -0.518362 -0.062070 0.398721 0.231905 -1.095049 0.299604 0.209476 0.181578 -0.100554 -1.036444 -0.042938
anyone 0.136023 -0.460538 -0.743653 -0.877669 0.584270 -0.094707 0.565116 0.145777 -0.116972 -0.056479 -0.300420 -0.071971 0.244490 0.291247 -0.070883 -0.564918 0.580700 0.056905 0.396914 0.134143 -0.771927 0.210877 0.475506 -0.792905 -0.800626 0.572798 0.171231 -0.727945 0.186579 0.435345 -0.226509 -0.338509 -0.216889 -0.362566 -0.208472 -0.422072 -0.809472 -0.355700 -0.152977 -0.403884 -0.097219 0.289839 0.219643 -0.411158 -0.359937 -0.344086 0.642147 -0.285201 -0.422201 -0.066452
found -0.259934 -0.004811 -1.100326 -0.144206 0.609007 -0.171823 0.462585 0.125450 -0.009922 -0.392809 -0.138616 -0.503810 0.063438 0.435911 0.122122 -0.267464 0.135643 0.378307 0.776258 0.069294 -0.367604 0.778911 0.526520 -0.749935 -1.418582 -0.000881 0.478744 -0.354885 0.167127 0.349314 0.204368 -0.724546 -0.054012 0.181966 -0.545443 -0.242988 -0.241829 0.153389 0.489702 -0.705581 0.036355 0.244329 0.577333 -0.189914 -0.455781 -0.347655 0.143097 -0.426503 -0.312477 -0.115597
out -0.453533 -0.078221 -0.805826 -0.496682 0.123519 -0.445386 0.248761 -0.306701 0.508272 -0.675093 0.148696 -1.025026 0.548043 -0.046979 -0.057943 -0.658841 0.308164 -0.054216 0.304279 -0.266672 -0.609484 0.017931 0.001876 -0.214463 -1.288615 0.973192 0.024734 0.070113 0.661207 0.283303 0.199195 -0.716124 -0.337923 -0.250737 -0.668728 0.285905 -0.510671 0.660182 -0.014689 0.019433 -0.410709 0.357255 -0.180827 -0.273565 -0.391325 0.082100 0.326135 -0.788584 -0.329158 0.725123
about -0.076972 0.052867 -0.830641 -0.263498 0.956783 -0.268511 0.211690 0.229477 0.139384 0.236260 0.282798 -0.476114 -0.115912 0.414140 -0.130819 -0.203163 0.388613 -0.089272 0.679485 -0.401669 -0.564529 0.630975 0.175679 -0.208625 -0.091639 0.803798 0.911304 -0.128929 0.312726 0.478357 0.736674 -0.540161 -0.296407 -0.397354 -0.394645 -0.043315 -0.531440 -0.485014 0.042578 -0.481754 0.702144 0.162456 0.483203 -0.344261 -0.601356 -0.127525 0.649549 -0.083822 -0.538197 0.440987
potters -0.287832 0.140713 -0.932251 -0.685952 0.526724 -0.177177 0.491798 0.295200 -0.205592 -0.360185 0.089247 -0.427004 -0.319891 0.415311 -0.254364 -0.337336 -0.115968 0.242113 0.602859 -0.056055 -0.399002 0.012077 0.272512 -0.083743 -0.782918 0.353787 0.222568 0.313185 0.387667 0.079791 0.287978 -0.434647 -0.665495 -0.153379 -0.292080 -0.560856 -0.611834 0.049987 0.229847 0.067666 0.047393 0.157676 -0.047335 -0.348180 -0.152694 -0.100934 0.600584 0.126869 -0.371556 0.304526
sister 0.066604 0.022956 -0.602832 -0.645969 0.176509 -0.287284 0.288556 0.248162 0.023402 -0.305897 -0.202033 -0.310837 0.178660 0.287042 0.455262 -0.323254 0.241807 0.093842 0.573965 0.002830 0.080335 0.384851 0.489896 -0.378776 -0.691752 0.088481 0.471125 -0.269830 0.138104 -0.084499 0.252425 -0.412082 -0.096811 -0.144250 -0.361170 -0.318463 -0.522016 0.129602 0.339054 -0.327019 -0.334561 0.031503 0.195702 -0.263320 -0.775508 -0.008733 0.319022 -0.680253 -0.892239 -0.277710
hadnt -0.087039 -0.194615 -1.357585 -0.485486 -0.341649 -0.358577 0.425951 -0.587196 -0.404207 0.106331 -0.048278 -0.567595 0.183468 0.100832 -0.220088 -0.379338 -0.214549 0.267810 0.936786 -0.208047 -0.762564 0.034604 0.178456 -0.577927 -1.378310 0.608296 -0.051010 -0.093656 -0.483385 0.750812 -0.008151 -0.168158 -0.594405 -0.229603 -0.686143 -0.471337 -0.638615 -0.145004 0.128823 -0.981233 -0.177336 0.133847 -0.013455 -0.409390 -0.252811 -0.157372 0.853059 -0.549310 -0.578354 -0.127575
met -0.082640 0.124704 -0.907703 -0.187092 0.688896 -0.062903 0.486735 0.242132 -0.024040 -0.007597 -0.023945 -0.547464 0.058855 0.130825 0.263885 -0.140984 0.415032 0.006416 0.651923 -0.089627 0.110915 0.118830 -0.052489 -0.491332 -0.963248 0.341036 0.049980 -0.171880 -0.085959 0.380650 -0.048785 -0.516208 -0.349679 -0.071873 -0.383747 -0.108609 -0.537878 -0.069875 0.493054 -0.421792 0.026076 0.503378 0.547527 -0.631172 -0.104389 -0.242679 0.250736 -0.572320 -0.560764 0.287776
for 0.368454 0.259248 -0.868467 -0.071082 0.365710 0.075513 0.678097 0.158415 -0.103277 -0.392389 -0.134400 -0.228558 0.046827 1.072061 -0.122226 -0.283913 0.147468 0.003553 0.471983 -0.177949 -0.423540 0.403956 0.337303 0.124931 -0.423184 0.486451 0.898396 0.337120 0.227183 0.302204 0.386031 -0.495871 -0.806164 0.012071 -0.845539 0.144662 -0.765029 -0.045635 -0.295932 -0.334575 -0.081011 0.032875 0.408883 0.395621 -0.287753 -0.598243 0.700325 -0.399715 0.145517 -0.629487
several 0.114588 0.102034 -0.520639 -0.249924 -0.124274 -0.182932 0.366626 0.209230 0.100677 -0.269111 0.036015 -0.451572 -0.155250 -0.011853 0.418847 -0.034341 -0.135356 -0.131696 0.665864 0.191939 -0.297000 0.079921 0.368749 0.142230 -0.889747 0.506193 0.193982 -0.174818 -0.021113 0.052495 -0.111568 -0.355356 -0.192005 0.089936 -0.456921 0.113679 -0.129896 -0.464380 0.084738 -0.034193 -0.208755 0.590116 -0.070557 -0.395232 -0.070243 -0.604990 0.669097 -0.136993 -0.769079 0.064006
years 0.993413 -0.093076 -0.941240 -0.670150 0.310315 -0.199254 0.409536 0.413655 0.001869 0.073454 0.111289 -0.443136 -0.575745 0.327163 -0.161216 -0.015830 0.074320 -0.033823 0.404446 0.307532 -0.341497 -0.003473 -0.052916 -0.436440 -0.897846 0.386617 0.538539 -0.339473 0.093000 -0.264941 0.205913 -0.264021 -0.503570 0.466437 -0.941158 -0.147784 -0.872215 -0.580499 0.091575 -0.137966 0.221828 0.805409 0.629962 -0.041617 -0.054312 -0.179409 0.589487 -0.414759 -0.151023 0.131895
fact 0.061675 0.208722 -0.912963 -0.408753 0.488394 -0.141855 0.351759 0.458080 -0.080493 -0.214603 0.303461 -0.422689 0.118583 0.413181 0.084146 -0.419877 -0.006204 0.324028 0.425625 0.112749 -0.240992 0.278924 0.358438 -0.304235 -1.126172 0.371007 0.478231 0.028120 0.028664 0.050109 0.275024 -0.118190 -0.690977 0.197719 -0.615071 -0.456135 -0.324485 -0.078329 0.124582 0.079287 -0.243032 -0.013227 0.473116 -0.447454 -0.222532 -0.398007 0.537776 -0.339844 -0.494844 0.073769
pretended 0.171942 0.207900 -0.343920 -0.152234 0.157794 -0.205597 -0.015757 -0.273619 0.216472 -0.062039 -0.384332 -0.190591 -0.092968 0.205269 0.070154 -0.146165 0.151927 -0.318231 0.518396 0.143048 -0.131938 0.434925 0.246128 -0.391357 -0.621323 0.077980 -0.062494 -0.149034 0.032125 0.275927 0.208208 -0.438294 0.157867 -0.263856 -0.175908 -0.446976 -0.619720 0.012512 0.083980 -0.308903 0.109221 0.556808 0.006269 -0.054049 -0.341980 -0.117849 0.378706 -0.523305 -0.656703 0.086577
goodfornothing -0.283263 0.194871 -0.145798 0.124787 0.139237 -0.188635 0.341395 0.042561 -0.108885 0.141103 0.209167 -0.080555 0.166689 -0.353566 -0.055153 -0.392856 0.114621 -0.271178 -0.229054 0.161599 -0.021846 0.205329 0.021150 0.421244 -0.526252 -0.043830 0.275960 -0.080238 -0.006878 0.139179 0.772184 -0.159249 -0.432051 -0.017043 0.044199 -0.064673 -0.094269 -0.502932 0.428606 -0.017421 -0.104803 0.143543 0.329652 -0.155522 -0.194024 -0.380132 0.445477 0.209358 -0.010912 -0.127258
husband 0.027566 0.269159 0.057024 0.008792 0.223596 0.143048 0.704824 0.190232 0.101029 -0.320457 -0.088201 0.019651 -0.060954 -0.135753 0.096124 0.085640 0.065763 -0.155134 0.215389 0.101025 -0.087781 -0.063582 0.137899 -0.162523 -0.180036 0.604343 0.410468 0.040409 -0.026301 0.061832 -0.270819 -0.904430 0.177142 -0.384994 0.131571 -0.137124 -0.374569 0.042929 -0.160940 -0.130177 -0.128916 -0.000802 -0.185183 0.131422 0.183085 -0.650594 0.323707 -0.000499 -0.257739 0.009323
undursleyish -0.183348 -0.101376 -0.763217 -0.177875 0.242843 -0.254762 0.379818 -0.146889 0.052400 -0.203188 0.084225 0.216938 0.016867 -0.247316 0.258025 -0.264351 0.370401 -0.019250 0.319029 0.272649 -0.644758 -0.270460 -0.090306 -0.318964 -0.095069 -0.235393 0.028838 -0.164375 0.151905 -0.088410 0.070225 -0.330325 -0.478349 0.071639 -0.406770 0.296576 -0.051464 0.003664 -0.158439 -0.182594 -0.078722 0.173412 0.108927 0.093239 0.043504 -0.277654 -0.009332 -0.001931 -0.344888 0.120152
possible -0.076598 0.434972 -0.905948 -0.783612 0.309196 -0.168617 0.651979 0.167634 0.249534 0.174208 0.147381 -0.083914 -0.075976 0.488943 0.296816 -0.370116 -0.047095 -0.249162 0.450147 -0.030389 -0.487362 0.058832 0.110048 -0.684057 -0.800942 0.568178 -0.107286 -0.371119 0.264872 -0.090813 0.296346 -0.407223 -0.461317 0.066638 -0.244699 -0.174240 -0.163493 0.130027 0.133418 -0.244946 0.182073 0.251266 -0.075197 -0.594041 0.054389 -0.189295 0.257089 -0.492336 -0.534066 0.219100
shuddered 0.087325 -0.133526 -0.366854 -0.586875 -0.069678 -0.367406 0.334129 0.175688 -0.120139 -0.008491 -0.028284 -0.123744 0.182570 -0.086083 -0.018646 -0.434689 -0.016679 -0.294319 -0.121772 0.051806 0.186015 0.316256 0.288131 -0.216643 -0.337828 0.003338 0.143805 -0.246949 0.060698 0.260797 0.161805 -0.069162 -0.117934 0.260058 -0.067083 -0.158055 -0.332305 0.364854 0.259687 0.144360 -0.010659 0.561631 -0.152933 -0.350136 -0.266733 -0.375099 0.414233 -0.514933 -0.678217 0.221034
what 0.016867 -0.283122 -0.845552 -0.502571 0.403422 0.106112 0.211503 -0.061948 0.171669 -0.355993 -0.048688 0.252433 0.164413 0.636525 -0.183188 -0.295361 0.141576 0.037004 0.463174 -0.432494 -1.023905 0.999025 0.812803 -0.997836 -0.758337 0.567405 -0.047135 -0.337724 -0.270856 0.540210 -0.138904 -0.239534 -0.220960 -0.307008 -0.320529 -0.566590 -0.711737 -0.291635 0.214899 -0.406604 -0.002342 0.214279 0.631562 -0.405410 -0.377116 -0.251192 0.471416 -0.040288 -1.150153 0.220918
arrived 0.207838 -0.079348 -0.990532 -0.048790 0.017278 0.024601 0.615822 0.062825 -0.171681 -0.295868 0.272233 -0.354949 0.180374 0.224314 0.420053 -0.320908 0.206606 0.127108 0.605432 -0.120835 -0.602202 0.300960 0.474743 -0.157031 -0.913078 0.504679 0.141597 0.112098 -0.186389 -0.243843 0.619800 -0.315155 -0.305866 -0.382189 -0.367565 -0.611735 -0.318696 -0.161639 0.461956 0.046050 0.014622 0.268733 0.155879 -0.430816 -0.058567 0.164199 0.585510 -0.347550 -0.837974 0.172630
street -0.050998 -0.400166 -0.961154 -0.485130 -0.125747 0.082251 0.449683 -0.053187 -0.093732 -0.426001 0.558816 -0.543440 -0.231276 0.779161 0.312895 -0.305330 0.324598 -0.249923 0.280031 -0.337501 -0.264807 0.361288 0.368810 -0.176556 -1.112208 0.230922 -0.178245 -0.130028 -0.073686 0.007147 0.214878 -0.520658 -0.743299 -0.256564 -0.467644 -0.215349 -0.378535 0.517229 0.038796 0.011965 0.339734 0.517274 0.035858 -0.176113 -0.304690 -0.526027 0.595507 0.032706 -0.542165 0.687378
knew -0.137734 -0.161555 -1.476472 -0.306607 0.796809 -0.253982 0.435949 0.076780 -0.132385 0.097870 0.334716 -0.248609 -0.099725 0.157299 -0.332330 -0.346617 0.300970 -0.248106 0.863115 0.149326 -0.647213 0.305652 0.483811 -1.047883 -0.853541 0.763689 0.060017 -0.169440 -0.102736 0.429167 0.354359 -0.047252 -0.381805 -0.065622 -0.299018 0.129151 -0.535220 -0.515347 -0.062358 -0.787273 -0.034334 0.548918 0.886293 -0.609168 -0.082356 -0.288649 0.866547 -0.086554 -0.299590 0.405612
too -0.325072 -0.062970 -0.674361 -0.130253 0.882808 -0.163762 0.529595 0.221160 0.150331 -0.230148 0.086231 -0.409298 0.319552 0.119566 -0.384487 -0.357456 0.529471 -0.579727 0.536612 0.405656 -0.495174 0.428604 0.503656 -0.458338 -0.622278 -0.045813 0.389307 -0.288382 0.576839 0.441690 0.062223 -0.346130 -0.116434 -0.415600 -0.277746 -0.183065 -0.179026 -0.295515 -0.109445 -0.371164 -0.128698 0.288276 0.040487 -0.251606 -0.452299 -0.604527 0.969588 -0.182463 -0.785637 -0.439723
never 0.256637 -0.778811 -0.794387 -0.431321 0.415474 -0.459423 0.316800 -0.265536 -0.562920 -0.135191 -0.342058 0.010539 -0.633558 0.172782 -0.311645 -0.529272 0.434938 0.583670 0.834793 0.272566 -0.632622 0.463694 0.507867 -1.020773 -1.358581 0.593054 0.723280 -0.363062 0.072141 0.636260 0.201952 -0.645555 -0.343866 0.001692 -0.363146 -0.127794 -0.632199 -0.816047 -0.047678 -0.316366 -0.315197 0.278191 0.263174 -0.084083 -0.192538 0.229093 1.011146 -0.798937 -0.627087 0.283573
even -0.049305 -0.251584 -0.571898 -0.421847 0.192764 -0.873632 0.262889 -0.579119 -0.220938 -0.105263 0.184069 -0.311684 -0.115298 0.098754 -0.192630 -0.272329 0.397916 0.209106 0.568921 0.053140 -1.035439 0.394114 0.307676 -0.258590 -0.927867 0.483668 0.400587 -0.585011 0.056284 0.349112 -0.108745 -0.253223 -0.424535 -0.114079 -0.632278 0.146800 -0.505950 -0.391822 0.124409 -0.502978 -0.744369 0.674042 0.299775 -0.366798 -0.294883 0.114581 0.913637 -0.251810 -0.551598 0.264972
seen 0.292991 -0.513485 -1.006462 -0.433658 0.400167 -0.439890 0.360936 -0.669232 -0.003776 -0.321672 -0.109197 -0.612291 0.042075 0.405127 -0.181325 -0.649455 0.448695 0.089886 0.658847 0.053819 -0.532712 0.740930 0.329898 -0.449321 -0.981518 0.283560 0.138649 -0.211203 0.074794 0.310491 0.218062 -0.553328 -0.530448 0.341822 -0.511984 0.269194 -0.782486 -0.730769 0.705104 -0.867087 0.039094 0.046004 0.249062 -0.434182 -0.124462 0.307259 0.767902 -0.698307 -0.569634 0.268996
him 0.311626 -0.789916 -0.286373 -0.480960 -0.171798 -0.285898 0.633228 -0.389156 0.036256 -0.938097 -0.125944 -0.144167 0.123618 -0.121510 0.447759 -0.172649 0.158833 -0.028025 0.472596 -0.043654 -0.572391 0.413409 0.111674 -0.527247 -0.523765 1.038287 0.041048 -0.622992 -0.057896 0.637355 0.226001 -0.589678 0.254290 -0.352979 -0.580247 -0.368670 -0.334919 -0.392771 0.778729 -0.528117 -0.089803 0.685162 -0.075260 -0.754693 -0.599315 -0.090970 0.849591 -0.253796 -0.619139 0.572492
this 0.009256 -0.058743 -0.959466 -0.427502 0.048609 -0.092239 0.269721 0.208942 0.184217 -0.053085 -0.871958 -0.480635 -0.034780 0.497912 -0.498444 -0.700978 0.569059 0.096506 0.121044 -0.088519 -0.856448 0.466139 0.125431 -0.810516 -0.530383 0.595640 0.586727 -0.016618 0.432781 -0.120559 0.556514 -0.144596 -0.727117 -0.276797 -0.584682 -0.741711 -0.369788 -0.556715 0.236083 -0.364749 0.095410 0.757537 0.515414 -0.065434 0.319831 -0.674863 0.862118 -0.104350 -0.425805 0.086882
another 0.287849 -0.335198 -0.701452 -0.393947 -0.023621 -0.179443 0.589138 -0.123645 0.322379 -0.555317 -0.044168 -0.332422 0.174615 0.421002 0.084639 -0.440305 0.434840 -0.155381 0.654926 -0.204920 -0.229942 0.398692 -0.274680 -0.673879 -0.806651 0.800578 -0.031957 -0.115789 0.144710 0.282520 0.354475 -0.319742 -0.323292 0.001647 -0.610497 -0.356044 -0.283725 0.005663 0.606680 -0.367770 -0.116255 0.565076 0.094962 0.238739 -0.135971 -0.224110 0.527768 -0.223577 -0.340801 -0.149777
good -0.127272 0.062255 -0.878858 -0.933889 0.186026 -0.424665 0.868501 0.121871 -0.070482 -0.156776 -0.311377 -0.631799 0.373890 0.251116 -0.396228 -0.855681 0.201971 -0.323362 0.269038 -0.811554 -0.277168 0.621288 0.581536 -0.892094 -0.419254 0.310859 0.289578 -0.549243 0.166782 0.042360 0.135975 -0.499887 -0.443738 -0.486769 -0.689440 -0.404666 -0.656172 -0.350414 0.188699 -0.268778 -0.101105 0.281761 0.654331 0.147724 -0.330014 0.042093 0.812207 -0.567297 -0.300699 -0.548208
reason -0.085285 0.214939 -0.861648 -0.531674 0.159926 0.250356 0.537374 0.322061 0.207740 -0.195347 0.394451 -0.415842 -0.009040 0.269529 -0.191475 -0.326082 0.640146 0.104478 0.138011 0.022813 -0.439156 0.679191 0.218520 -0.664459 -0.964426 0.507300 0.088834 -0.245710 0.401301 0.230249 0.203954 -0.850993 0.037491 -0.512997 -0.886665 -0.385059 -0.433753 -0.130576 -0.189109 -0.066926 -0.013320 0.325512 0.422846 0.014406 -0.418357 -0.128379 1.088422 -0.222183 -0.295836 0.083340
keeping 0.064206 0.284609 -0.753109 -0.198474 -0.059413 -0.276197 0.461995 0.170725 -0.262457 -0.377697 0.188616 -0.190834 0.490711 0.319992 0.222220 -0.154818 0.030709 -0.135716 0.481613 -0.081595 -0.009670 0.246548 0.165380 0.218168 -0.933003 0.399010 0.512752 0.010888 0.200012 0.469735 -0.002775 -0.210289 -0.265698 -0.215902 -0.487213 -0.010256 -0.281397 -0.031682 0.021413 -0.115528 0.209835 0.287429 0.024964 0.121430 -0.570689 -0.238550 0.523103 -0.174418 -0.586292 -0.146381
away 0.517791 -0.113975 -0.964333 -0.315681 0.409575 0.031827 0.695583 -0.113174 0.553152 -0.272085 -0.184341 -0.106292 -0.025464 0.200372 0.160654 -0.567596 -0.259210 -0.073863 0.571798 0.211525 -0.145120 0.380888 -0.242432 -0.272052 -0.826351 0.224616 0.283237 0.233170 -0.140480 -0.199830 0.346791 -0.761391 -0.346688 -0.339086 -0.164453 -0.045602 -0.416873 0.171168 0.213426 -0.494608 -0.246259 0.266258 0.122690 -0.218133 0.155406 -0.375156 0.704701 -0.249042 -0.517814 0.258898
want 0.629083 -0.515511 -1.101104 -0.894257 0.587360 0.119919 0.465804 -0.538698 -0.143444 -0.396879 -0.516066 -0.443505 0.047847 0.233150 0.052138 -0.357199 0.698785 -0.149679 0.517922 0.148639 -0.838129 0.915570 0.049262 -0.942675 -0.333672 -0.066151 0.644646 0.104209 -0.084093 0.464478 -0.581483 -0.236628 -0.422077 0.036749 -0.804098 -0.306239 -0.642847 -0.044563 0.195797 -0.650189 0.040159 0.571705 0.227821 -0.693212 -0.652765 -0.029325 0.679378 -0.218110 -1.024950 0.941968
mixing -0.392162 -0.006578 -0.401018 -0.424887 0.139175 -0.110203 0.363581 0.192430 0.215030 -0.138619 -0.085276 -0.054483 -0.301359 0.250467 0.087418 -0.223451 0.053650 0.131457 0.156720 -0.185379 -0.158328 0.015742 0.177259 -0.155155 -0.175618 0.091592 0.202464 0.088794 0.073151 0.052410 0.261440 -0.503030 -0.073186 -0.028484 -0.193103 -0.017985 -0.141552 0.088520 0.055978 -0.259013 -0.167604 0.285462 0.290491 -0.306744 -0.405298 -0.260695 0.334315 0.037592 -0.522357 0.155567
child 0.024201 -0.272289 -0.473769 -0.523677 0.202520 -0.157443 0.321672 0.456727 -0.324724 0.075189 0.037374 -0.298009 -0.437415 0.305779 -0.073178 -0.147542 0.237681 -0.350268 0.425176 0.025668 -0.296388 0.272146 0.024603 -0.047007 -0.057062 0.055178 0.085264 -0.220310 0.199949 -0.260629 0.464961 -0.047092 -0.320186 0.140696 -0.188483 0.116130 -0.391074 -0.169061 0.461721 -0.125974 0.105621 0.030966 0.047368 -0.230166 -0.298266 -0.139360 0.072123 -0.081327 -0.484425 0.244764
like -0.139114 0.103211 -1.158731 0.062447 0.229540 -0.260517 0.166817 -0.006248 0.364280 -0.280610 -0.671642 -0.065601 0.409653 0.906341 0.136256 0.364456 0.185436 -0.382447 -0.118832 0.024679 -0.747176 0.315667 0.231058 -0.165408 -0.649612 0.049626 -0.077371 -0.074183 0.309148 0.364493 -0.210827 -0.650728 0.215717 0.123408 -0.170009 0.055905 -0.245702 -0.082100 0.168608 -0.492551 0.103814 0.702966 0.471325 -0.288622 -0.190690 -0.241700 1.052335 -0.632688 -1.057816 -0.168867
when 0.105183 0.020795 -0.956186 -0.191390 0.277366 -0.131355 0.590293 0.101343 0.422579 -0.468834 0.262764 -0.399945 0.430068 -0.086806 0.382865 -0.206324 0.279644 -0.189764 0.712215 -0.309965 -0.574712 0.408624 0.396182 -0.346160 -0.345388 0.641793 -0.410687 0.291066 0.045867 0.361053 0.626354 -0.139579 -0.308378 -0.225163 -0.207909 -0.286417 -0.720083 -0.128111 0.523926 -0.679633 -0.236128 0.467973 0.253683 -0.842449 0.132436 0.440809 0.362410 -0.639091 -0.560444 0.370079
woke 0.031070 -0.139817 -0.986691 -0.298837 -0.120944 -0.081549 -0.041359 -0.195615 -0.181340 -0.690589 0.293757 -0.276194 -0.093811 0.378806 -0.161921 -0.393131 0.196272 -0.145972 0.504267 -0.076242 -0.046422 0.277886 0.382096 -0.209898 -0.806164 0.192863 0.065489 -0.111558 0.130953 0.383293 0.220640 -0.306633 -0.268159 -0.106163 -0.264645 -0.278048 -0.383697 0.098597 0.527684 -0.243630 -0.134209 0.530678 -0.127365 -0.103761 -0.606181 -0.130389 0.865237 -0.437379 -0.517858 0.124221
up -0.001963 -0.128621 -0.983459 -0.347610 0.005349 -0.536291 0.359859 -0.279363 0.617686 -1.400145 -0.060404 -0.120966 0.530900 -0.040015 0.135183 -0.375568 -0.076543 -0.152025 0.503846 0.428670 -0.199968 0.388456 -0.058699 -0.033463 -0.304550 0.529399 -0.129773 -0.201039 0.423177 0.116105 0.236378 -0.915496 -0.107478 0.088327 -0.449754 -0.430926 -0.641517 -0.140853 0.113670 -0.680336 0.101133 0.275075 -0.190697 -0.315938 -0.772844 -0.547236 0.915351 -0.159955 0.074121 -0.065803
dull 0.364049 -0.066533 -0.495786 -0.062712 0.198949 -0.324901 0.280525 0.312069 0.157355 -0.149107 0.009340 0.426764 0.350685 0.450416 0.226964 -0.055532 -0.321445 -0.271217 -0.063694 -0.032516 -0.223370 -0.119720 0.048375 0.005637 -0.551153 0.065059 -0.141847 0.073906 0.002903 0.252766 -0.043806 -0.030829 -0.277362 0.020598 -0.086311 0.320928 -0.424037 -0.361795 0.395825 -0.094851 -0.099762 0.296032 -0.218528 -0.061980 -0.373698 -0.488739 0.287915 -0.303550 -0.792304 0.180370
gray 0.293070 0.264539 -0.812916 -0.449472 0.207103 0.021992 0.375987 -0.004697 0.043344 0.040927 -0.120679 0.288294 0.105553 0.193366 0.497840 -0.413200 0.377232 -0.393556 0.514724 0.227701 -0.040629 -0.032829 0.236734 -0.256925 -0.415146 0.025457 0.180957 0.264939 0.350704 0.025121 0.117779 -0.461468 -0.488681 -0.173641 -0.282962 0.162664 -0.591391 -0.191841 0.036802 -0.184158 0.013052 0.635260 -0.195525 -0.028432 -0.007990 -0.391698 0.858923 -0.264073 -0.574097 -0.189819
tuesday -0.333497 -0.025797 -0.204630 -0.644583 -0.112731 -0.177172 0.544097 0.310526 -0.024342 -0.089166 -0.023897 -0.065660 -0.182250 0.439270 -0.258349 -0.212026 0.313253 -0.199109 0.101345 -0.112315 -0.128287 0.284935 -0.050191 0.088612 -0.413774 0.280462 0.232307 -0.176875 -0.137538 -0.050424 0.206002 -0.213228 -0.369992 0.041757 -0.432914 -0.047508 -0.223174 -0.160843 0.247258 -0.034536 -0.462541 0.501958 -0.152632 -0.495553 -0.469531 -0.149214 0.366451 0.120943 -0.544417 0.237587
our 0.172721 0.207685 -0.645639 -0.389740 0.453465 0.110236 0.518547 0.132820 0.047422 -1.043184 -0.262866 -0.331522 0.035709 0.195892 0.112774 -0.554002 0.463358 -0.178991 -0.132205 -0.256269 -0.208141 0.561488 -0.652275 -0.233107 -0.621160 0.460037 0.682136 -0.198431 -0.147702 0.101378 0.092481 -0.260251 -0.512318 0.428398 -0.291613 -0.448460 -0.700138 -0.307950 -0.116155 0.184225 -0.206567 0.669766 0.196671 -0.360703 -0.109983 -0.155867 0.517807 -0.349771 -0.442942 0.178456
story -0.008812 0.156838 -0.814229 -0.441822 0.089970 -0.115387 0.374244 0.288591 -0.092502 -0.204186 0.250442 -0.045029 -0.138530 0.072582 0.056309 -0.439325 0.116273 -0.267754 0.659699 0.384781 -0.436787 0.291818 0.189957 0.218739 -0.259362 0.182238 -0.059330 -0.341829 0.295250 0.410331 0.336536 -0.521971 -0.365536 -0.049426 -0.108398 -0.350422 -0.719506 0.286463 0.046779 -0.268025 0.030756 0.564354 0.157073 -0.331924 -0.014429 -0.124381 0.519960 -0.477136 -0.355032 0.302354
starts -0.076503 0.045840 -0.480357 -0.391578 -0.159561 -0.406188 0.551752 -0.019184 -0.042170 -0.157918 -0.361684 -0.075498 0.332386 -0.046211 0.263123 -0.254558 0.233185 0.052148 0.468472 -0.296237 -0.007029 0.262763 0.227031 0.086156 -0.384955 0.302528 0.538883 0.000314 -0.042518 0.195507 0.208705 -0.172215 -0.171336 0.090106 -0.340406 0.012406 -0.309018 0.052912 0.069474 -0.251045 0.075531 0.126727 0.061781 -0.256949 -0.304745 -0.452533 0.190307 -0.112202 -0.113099 0.214789
nothing -0.087333 -0.104331 -0.713426 -0.198270 0.618364 -0.207423 0.830845 0.196203 0.195517 -0.107855 -0.071565 -0.222291 0.258450 0.629536 -0.357040 -0.461741 0.187338 -0.257163 0.325392 -0.234940 -0.216147 0.396168 0.358674 -0.995659 -0.831358 0.620894 -0.207144 -0.337861 0.218433 0.548865 0.188747 -0.600327 -0.502517 -0.499967 -0.080698 -0.466977 -0.709068 -0.390106 0.203384 -0.174777 0.081538 0.536518 0.767003 0.261769 -0.369050 -0.171675 1.000840 -0.180739 -0.511855 -0.011239
cloudy 0.366389 0.361011 -0.986325 -0.239432 0.172523 -0.374747 0.150069 0.022700 -0.094984 -0.001030 -0.051354 0.033250 0.289213 0.009894 -0.033673 -0.202076 0.582041 -0.316102 0.194085 0.096370 0.109563 0.472317 0.045524 0.305101 -0.188471 0.382558 0.365416 -0.237703 0.323689 -0.128744 0.132839 0.084743 -0.179642 -0.068390 -0.496562 -0.081400 -0.438830 -0.047043 0.216210 -0.075324 -0.104203 -0.025225 0.087811 0.035852 -0.092720 -0.231857 0.342857 0.012981 -0.249107 0.410749
sky -0.244664 -0.022310 -1.091319 -0.535393 -0.056340 -0.210656 0.768515 0.286151 -0.018525 -0.153638 0.232152 -0.203900 0.062691 0.112017 0.495520 -0.560918 0.424325 -0.286444 0.614129 0.060871 -0.084245 0.133894 0.532625 -0.047132 -0.626910 0.257609 0.014004 0.069153 0.137357 -0.161625 0.155419 -0.563983 -0.288070 -0.344922 -0.448619 -0.160106 -0.205407 0.043186 0.145227 -0.219730 0.218249 0.646409 -0.173380 -0.168036 -0.266941 -0.175053 0.695215 0.142156 -0.256207 0.153880
outside 0.170359 0.193557 -0.877258 -0.712175 -0.197088 -0.219919 0.544540 0.248423 -0.145875 -0.341656 0.055895 -0.134272 0.490956 0.576807 0.175314 -0.627414 -0.051138 -0.165255 0.540343 0.035820 -0.521037 0.597670 0.184577 0.294113 -0.375164 0.229930 0.021120 -0.219870 0.218232 -0.131396 0.115243 -0.498629 -0.388352 -0.400699 -0.520043 -0.027642 -0.721957 0.178594 -0.074061 0.324694 -0.144299 0.059230 -0.049551 -0.301747 -0.524360 -0.283545 0.593259 -0.006111 -0.277375 0.219488
suggest 0.099753 -0.160227 -0.592100 -0.295753 0.451748 -0.300809 0.592888 0.038815 0.069458 -0.074276 0.090125 -0.417707 0.164565 0.129614 -0.255998 -0.047790 0.141622 -0.110090 0.617727 -0.287697 -0.058848 0.344863 0.183983 -0.243977 -0.334199 0.215394 0.279966 0.104972 -0.100322 0.023358 0.369443 -0.201236 -0.266772 -0.190815 -0.112374 -0.088627 -0.265932 0.246715 0.231323 -0.335204 -0.333248 0.511646 0.363721 -0.052458 0.069020 -0.334071 0.372860 -0.227508 -0.674137 0.498795
things 0.151345 -0.358536 -0.774739 -0.794622 0.606480 -0.165897 0.479806 0.335704 0.366851 -0.276611 0.159945 -0.363664 -0.305272 0.347915 -0.299648 -0.038418 0.525624 -0.051867 0.501985 0.115790 -0.345555 0.890602 0.181933 -0.362383 -0.634507 0.554315 0.374286 -0.124078 0.017585 0.237654 -0.176857 -0.663333 -0.300018 -0.009460 -0.164485 -0.174595 0.092354 -0.019490 -0.004342 0.029998 0.019985 0.386006 0.571320 -0.166106 -0.201388 -0.428250 0.620515 -0.029500 -0.627491 0.370623
soon -0.063256 -0.140858 -0.674619 -0.515478 0.119081 -0.564724 0.592078 -0.065352 0.108097 0.198049 0.154288 -0.416547 0.023277 0.308814 0.222265 -0.651176 0.254983 -0.116170 0.433525 0.001003 -0.391287 0.274388 0.378829 -0.710038 -0.653074 0.093555 0.254224 -0.278800 0.230849 0.211059 0.347070 -0.431318 -0.663509 0.031556 -0.338961 -0.149382 -0.789369 0.293651 -0.261303 -0.436215 -0.193130 0.123290 0.243655 -0.454403 -0.128195 -0.157063 0.015850 -0.282422 -0.524017 -0.009961
happening 0.054402 0.157668 -0.655975 -0.408872 0.229885 -0.082450 0.626379 -0.289948 -0.204209 -0.405879 -0.056771 -0.218857 0.356884 0.386293 -0.237400 -0.487352 0.147639 -0.287815 0.268536 0.066031 -0.575562 0.059999 -0.205107 -0.202176 -0.479025 -0.121124 0.003745 -0.273761 0.015078 0.023348 0.320507 -0.430720 -0.239010 -0.320609 -0.206260 0.040645 -0.239551 -0.401797 -0.119095 -0.289160 -0.338053 0.275107 0.248450 -0.013117 -0.275357 -0.236455 0.675048 0.336139 -0.642038 0.358240
all 0.183838 -0.113388 -0.596608 -0.221026 0.573928 0.096476 0.879190 -0.163073 0.220374 -0.514407 -0.183007 0.086308 0.299875 -0.222151 -0.359675 -0.408162 -0.075366 0.517817 0.304847 -0.778713 -0.227105 0.752058 0.236539 -0.849104 -1.060635 0.081402 0.291598 0.012333 -0.690179 0.551062 0.569161 -1.116693 -0.941366 -0.119896 -0.206607 -0.645759 -0.155028 -0.211632 -0.017908 -0.128397 -0.123789 -0.014299 0.166008 0.146183 -0.389174 -0.968874 1.309303 -0.101031 -0.584623 0.204372
country -0.033493 0.397412 -0.612943 -0.480207 0.133179 -0.271120 0.511408 0.301547 0.013040 -0.092130 0.206383 0.279629 -0.019325 0.393891 0.169324 -0.497896 0.098323 0.007021 0.160111 -0.034366 -0.070644 0.223901 0.197139 0.034424 -0.774042 0.235152 0.026625 0.144333 0.133390 0.103647 0.214905 -0.522494 -0.301430 -0.170379 -0.225026 -0.060969 -0.296496 -0.094701 0.082228 0.411007 -0.127099 0.445500 -0.101873 -0.336472 -0.273084 -0.233755 0.654362 0.078739 -0.229389 0.269418
hummed -0.190740 0.241705 -0.526441 -0.132922 0.125492 -0.232689 0.732224 0.609703 -0.022519 -0.038548 0.026013 -0.217452 -0.278298 0.395212 -0.068914 -0.369472 0.021350 0.032459 0.583200 0.007609 -0.198937 -0.044682 -0.196912 -0.390131 -0.440781 0.176141 -0.251724 0.045530 0.009934 0.234550 0.165311 -0.071311 -0.052331 0.227401 -0.313200 0.009646 -0.516979 0.339493 0.015156 -0.407913 0.101497 0.261726 -0.298572 -0.208071 -0.210633 -0.010248 0.397520 0.233822 -0.745903 0.036352
picked -0.016720 0.240414 -0.954649 -0.294765 -0.167563 -0.019851 0.418032 0.283267 0.106778 -0.293046 0.011931 -0.543823 0.046572 0.598252 -0.367534 -0.337796 0.247271 -0.131907 0.743524 0.395049 -0.368181 0.403729 0.069829 0.113388 -0.685453 0.139254 0.143676 -0.016249 0.070465 0.071174 0.385549 -0.331424 -0.493423 0.012044 -0.302423 -0.237459 -0.568131 0.310952 0.459686 -0.582995 -0.214245 0.079714 -0.546297 -0.427873 -0.256530 -0.558979 0.885084 -0.005739 -0.441417 0.278137
his -0.064509 0.200763 -0.622261 0.449137 0.177788 0.103283 1.114566 0.793202 0.266228 -0.838731 0.151159 -0.440543 0.137316 -0.446399 0.208004 -0.897674 0.424011 0.541781 -0.137916 0.629483 -0.196167 -0.402958 -0.323895 -0.205603 -1.128339 0.853722 0.925021 0.292457 0.398430 0.577395 0.653076 -0.193067 0.034230 -0.463376 -0.179760 -0.610243 -0.872306 0.512265 0.442529 -0.002416 -0.927592 0.928220 -0.142777 0.482669 -0.089705 0.153295 1.065135 -0.404467 -0.674048 -0.084627
most -0.338167 -0.079051 -0.969401 -0.185611 0.123658 -0.400830 0.363845 0.265884 0.062798 -0.072499 0.200671 0.128115 -0.134336 0.033995 0.077873 -0.458521 0.089446 -0.118799 0.094842 0.269682 -0.361309 0.681019 0.181616 -0.180863 -0.859661 0.356349 -0.001408 0.030188 0.560734 0.102674 0.121559 -0.424089 -0.289950 -0.229680 -0.358074 -0.000836 -0.435297 0.294972 0.027566 0.195154 0.073161 0.352465 0.365312 -0.290596 0.039201 -0.560732 0.484294 -0.536644 -0.945488 0.344652
boring -0.062619 0.105477 -0.647209 -0.316402 0.412721 -0.276279 0.410044 0.327662 0.344482 -0.187072 0.130665 -0.348702 -0.120778 0.021488 0.411566 -0.271064 0.485003 0.023781 0.632192 -0.107271 -0.151649 0.366499 -0.032992 -0.168410 -0.253662 0.141971 0.100399 0.212499 -0.012581 -0.041299 0.157164 -0.155739 0.011692 0.158148 -0.520132 -0.107526 -0.271822 0.079351 0.103637 -0.222624 -0.031057 0.172167 0.223575 -0.334537 -0.231174 -0.198702 0.326549 -0.180235 -0.487919 -0.010315
tie 0.407221 0.423187 -0.656500 -0.245032 0.004743 0.095207 0.259370 0.140013 -0.239580 -0.322605 0.251010 -0.034153 0.133236 0.339983 0.132945 -0.041863 -0.037074 -0.264571 0.057787 0.325448 -0.089023 0.420066 -0.081347 0.186225 -0.093783 0.210711 0.152440 -0.046242 0.079213 0.320661 0.183650 0.172134 -0.232245 0.005351 0.037784 0.176890 -0.546374 -0.252416 -0.092007 -0.028437 -0.512560 0.165379 -0.214530 -0.097809 0.050318 0.090029 0.059223 0.096093 0.067846 -0.453462
work 0.054623 -0.068652 -0.966782 -0.279700 0.230141 -0.251023 0.144057 -0.156916 0.180555 -0.432561 0.148765 -0.544039 0.090340 0.253573 -0.336943 -0.334314 0.337064 -0.087264 0.124288 -0.069182 -0.149180 0.118729 0.390272 -0.399380 -0.579177 0.340041 0.325910 -0.114487 -0.194666 0.174694 0.102763 -0.365010 -0.478327 -0.187814 -0.758348 -0.119022 -0.484951 0.123797 0.387083 -0.316014 0.328532 0.804733 0.115006 -0.216214 -0.295210 -0.482611 0.388469 -0.229076 -0.680972 0.120874
gossiped 0.149595 -0.294792 -0.272309 0.168856 -0.437391 -0.252070 0.174587 0.059374 -0.094784 -0.342269 0.143332 -0.343126 -0.103566 0.415951 -0.299144 -0.081888 0.111427 -0.163340 0.398966 0.106924 -0.129729 0.123275 -0.131970 0.240604 -0.330342 0.387797 -0.077280 -0.242281 0.095786 0.009878 0.106728 -0.348560 0.170690 -0.056050 -0.049845 -0.430494 -0.324088 0.026146 -0.107151 -0.082076 0.063751 0.147748 -0.441723 -0.331270 0.135533 -0.182741 0.093073 -0.151482 -0.331295 0.134774
happily -0.268837 0.195759 -0.638208 -0.281181 -0.234100 -0.090637 0.599857 0.135240 -0.317251 -0.184247 0.287504 -0.199191 -0.244179 0.213956 0.076839 -0.469349 0.255673 -0.358841 0.464424 -0.040173 -0.370707 0.209876 0.028689 -0.401931 -0.785874 0.249961 0.270324 -0.142048 0.311421 -0.244738 0.212854 -0.353629 -0.590324 0.272385 -0.371398 0.004897 -0.405974 0.143792 -0.122837 0.049852 0.092002 0.083928 -0.108127 -0.063585 -0.128486 -0.197622 0.070317 0.081510 -0.601091 0.124541
wrestled -0.054108 0.050065 -0.083237 -0.167727 0.074797 -0.285385 0.255100 -0.017672 -0.112204 0.103808 0.287769 -0.179433 0.056542 0.075129 0.620753 -0.255278 -0.402949 0.098694 0.071332 0.102384 0.199258 0.128680 0.338285 -0.142711 -0.280875 0.403783 0.130085 -0.321537 -0.001807 0.315797 0.211435 -0.222154 -0.021914 0.219083 0.099334 0.252361 -0.762786 -0.379664 0.083346 -0.376565 0.091860 -0.007167 -0.028728 -0.029057 -0.314881 -0.378975 0.039961 0.164587 -0.115805 -0.210819
screaming -0.128434 0.363348 -0.703227 -0.269405 0.080323 -0.099272 0.187627 0.377409 0.120595 -0.207518 -0.095451 -0.090968 0.112357 0.401549 0.669210 -0.132464 0.312149 -0.196618 0.365505 0.157555 -0.245049 0.054019 0.410822 0.101550 -0.588740 0.103124 0.104246 -0.081498 -0.058433 0.450537 0.083827 -0.150832 -0.564231 0.131455 -0.364708 0.112261 -0.461048 -0.369087 0.255192 -0.195018 -0.226686 0.296585 0.160258 -0.393466 -0.221955 -0.488563 0.448651 0.284080 -0.074391 0.277218
into -0.450910 0.499430 -0.813868 -0.175232 0.108561 0.123208 0.715819 -0.352325 0.693469 -0.629199 -0.189765 -0.148397 0.293228 -0.015806 0.642697 -0.634205 -0.239329 -0.053278 1.076823 0.159501 -0.183528 -0.238304 -0.168212 -0.010125 -0.596964 -0.379808 0.323732 0.816118 0.240265 0.255279 0.728482 -0.902436 -0.262215 -0.020253 -0.447367 0.612550 -0.059744 0.483083 -0.337401 0.152210 -0.889781 0.639377 -0.304087 -0.711006 -0.074901 -0.163906 0.884523 -1.023108 -0.592312 -0.014043
high -0.058608 -0.000489 -0.601851 -0.459697 -0.118755 0.093484 0.304186 0.124118 -0.040880 -0.782371 0.088719 -0.188343 -0.236164 0.433257 0.847300 -0.581342 0.096204 -0.480448 0.373471 0.024219 -0.520216 -0.086032 0.401831 -0.076365 -0.720565 0.255190 0.130063 -0.071517 0.530313 0.032392 0.190102 -0.282522 -0.443809 -0.317695 -0.164518 -0.148319 -0.458198 0.244932 0.529842 0.325133 -0.371832 0.715247 0.127109 -0.644556 -0.132438 -0.597610 0.614180 0.102812 -0.463469 0.095491
chair 0.038961 0.010924 -1.056363 -0.720396 0.113893 0.007299 0.054866 0.178207 -0.267943 -0.535587 0.392164 -0.165579 0.067556 0.307804 0.477986 -0.552967 0.636714 -0.180455 0.210838 0.296526 0.021105 0.201706 0.276479 0.160820 -0.555923 0.306449 -0.144482 -0.055098 0.184047 0.249910 -0.293496 -0.390151 0.100742 -0.116551 -0.464461 0.097616 -0.504110 -0.020917 0.427368 -0.436273 -0.379822 0.332009 -0.176917 -0.455595 -0.180028 -0.563627 0.622010 0.013981 -0.498295 0.292317
none -0.011891 -0.042831 -0.704040 -0.294017 0.512201 -0.211723 0.271121 0.453099 -0.088355 -0.516363 0.112803 -0.248146 0.091222 0.313002 0.128758 -0.106894 -0.010042 -0.066589 0.399999 -0.159509 -0.417531 0.683091 0.610125 -0.357946 -0.889888 0.357952 0.285057 -0.300154 -0.002735 0.162688 0.024720 -0.668111 -0.396591 -0.279799 -0.392195 -0.238633 -0.356707 0.078556 -0.292946 0.395591 -0.422351 0.288844 0.260567 -0.334846 -0.318834 -0.445988 0.630249 -0.150389 -0.584366 -0.028762
them -0.116638 -0.307916 -0.599388 -0.392687 0.323625 -0.030341 0.189917 -0.032940 -0.165704 -1.103073 0.121235 -0.252155 0.592052 0.120548 0.277331 -0.257665 0.652299 -0.157215 0.352329 0.106784 -0.259535 0.623258 0.106960 -0.429248 -0.981658 1.131452 0.296059 -0.391329 -0.325459 0.872425 0.413240 -0.658796 -0.239146 -0.144210 -0.214323 -0.269488 0.090572 0.284174 0.110082 -0.549335 0.015711 0.324313 0.010575 -0.398959 -0.195278 -0.351946 0.739329 0.198474 -0.482474 0.123229
noticed -0.251892 -0.483265 -1.349407 -0.302609 0.170419 -0.404036 0.357773 0.183564 -0.448986 -0.289106 0.029863 -0.586553 -0.218993 0.292154 0.384129 -0.370781 -0.200935 -0.329860 0.526473 0.375006 -0.518694 0.440950 0.259503 -0.713341 -0.812444 0.608904 0.162979 -0.140800 -0.098621 0.259507 0.291573 -0.505294 0.048067 0.267521 -0.166652 0.046829 -0.329468 -0.159630 0.577558 -0.238554 0.300363 0.326487 0.283140 -0.400670 -0.132966 -0.075455 1.020369 -0.777124 -0.399549 0.181684
tawny 0.109153 0.047598 -0.509095 -0.275228 0.204482 0.199462 0.337441 0.103939 -0.057525 -0.113287 0.081751 0.018118 -0.032318 0.179395 0.044797 0.041429 0.150507 -0.334967 0.385229 0.174427 -0.081953 0.284913 0.187344 0.107234 -0.096339 0.327322 0.536405 -0.225739 0.445138 0.160070 0.355793 -0.051143 -0.131308 0.057787 -0.110136 -0.060935 -0.145605 0.028757 -0.133381 0.188657 0.023267 0.401882 -0.045422 0.148953 -0.302323 -0.258518 0.320099 0.049177 -0.552769 -0.066837
owl 0.290811 0.081934 -0.708987 -0.727259 0.553455 -0.131625 0.765104 0.098145 0.387530 -0.112084 -0.512195 -0.634894 0.389923 0.305904 0.220094 -0.239312 0.139613 -0.069549 0.458224 -0.654343 -0.186503 0.139578 -0.146252 0.024814 -0.584600 0.362601 -0.021664 -0.586519 0.514738 0.314462 0.446017 -0.250608 -0.112981 0.150303 -0.578939 0.201210 -0.449876 0.342510 0.435133 -0.408082 0.274577 0.698660 0.351490 -0.132387 -0.032459 -0.336954 0.890609 0.139396 -0.400287 0.199143
flutter 0.044685 0.263641 -0.538977 -0.353931 0.207007 -0.315966 0.343639 0.461565 0.212330 -0.266979 -0.335831 0.083861 -0.027977 0.445507 0.295012 0.177155 0.341959 -0.147295 0.233622 -0.391346 0.112567 -0.228669 0.195023 -0.468996 -0.343009 -0.205514 0.226355 -0.290526 0.087490 0.278628 0.286706 -0.670021 -0.477441 -0.061496 -0.174859 0.102520 -0.115426 -0.007754 0.179798 0.311792 0.133243 0.463767 0.140385 -0.217533 -0.203711 -0.026610 0.127226 -0.372089 -0.504061 0.025772
past -0.159877 0.292614 -0.964644 -0.680640 0.539037 -0.343972 1.120773 -0.106110 0.154313 -0.425871 -0.116888 -0.387412 -0.309623 0.464954 0.348813 -0.448363 -0.214847 -0.229896 0.230302 -0.012068 -0.417664 0.492528 -0.283327 -0.278127 -0.359613 0.416163 0.065733 -0.015006 0.236949 0.404530 -0.014971 -0.797262 0.073354 -0.284862 -0.459735 -0.243334 -0.077325 -0.059078 0.100863 -0.134489 -0.344207 0.106054 -0.194178 -0.339073 -0.151364 -0.171750 0.377560 -0.796235 -0.449134 0.077878
window -0.286980 -0.246651 -1.161950 -0.065677 -0.155222 -0.097118 0.390469 0.400105 0.082940 -0.390829 -0.044741 0.028610 0.098710 0.555523 0.608093 -0.536250 -0.057410 -0.194580 0.518325 0.051616 -0.181618 0.940282 0.570852 -0.029000 -0.663494 0.298473 0.375876 -0.077503 0.439029 0.244686 0.229468 -0.463397 -0.327434 -0.289071 -0.658908 -0.373138 -0.271081 0.088084 0.180001 -0.021414 0.096620 0.619896 0.025195 -0.381452 -0.412166 -0.108388 0.852885 -0.026079 -0.279111 0.607672
at -0.217588 -0.449546 -0.822538 -0.249333 -0.149038 -0.536253 0.747608 0.334106 0.139316 -0.864937 -0.581446 -0.250620 0.336781 0.650569 -0.569125 0.345092 -0.316889 0.142703 -0.042979 -0.023740 -0.133644 -0.265807 -0.217476 -0.459225 -1.129707 0.767045 0.803366 0.548412 -0.292106 -0.313545 0.299398 -0.757024 -0.462486 -0.316274 -1.527648 -0.033240 0.028642 -0.448263 -0.322199 -0.550883 -0.385794 0.497501 -0.071156 -0.923042 -0.556381 -1.407805 0.809174 -0.055928 -0.345227 -0.589859
half 0.307589 -0.558678 -0.882279 -0.233639 0.380571 -0.536181 0.646745 0.023607 0.108135 -0.283298 -0.019018 -0.515838 -0.053655 0.151887 -0.264704 -0.050594 0.111686 -0.402515 0.558274 -0.402415 -0.429878 0.041076 -0.248671 0.237112 -0.661058 0.289372 0.476492 0.031861 0.403901 -0.164805 0.158432 0.266322 0.147570 0.007693 0.140166 -0.077566 -0.137834 0.084444 0.394359 -0.710294 -0.127761 0.922033 0.009707 -0.173523 0.051926 -0.476394 0.919401 -0.554117 -0.908389 0.054491
eight 0.013961 0.059289 -0.608498 -0.341291 0.035805 -0.144824 0.400244 -0.162804 0.083469 -0.109308 -0.005351 -0.043432 0.030368 -0.054390 0.109826 -0.003648 0.359201 -0.511491 0.250638 0.148448 -0.404296 0.481570 0.021138 -0.022005 -0.387156 0.376495 0.704977 -0.032262 -0.038616 0.094387 0.127230 -0.169472 0.132215 -0.054457 -0.315124 0.091438 -0.181117 0.417989 0.134683 -0.158713 0.016243 0.426933 0.038193 0.106839 -0.255438 -0.508066 0.673794 0.022440 -0.749625 0.034083
briefcase 0.137856 0.089365 -0.169674 0.120452 0.137953 -0.310886 0.235848 -0.015277 -0.081935 -0.283511 0.031565 -0.016438 0.178689 0.126484 0.179321 0.014874 0.008814 0.185437 0.377513 0.150126 -0.308367 0.333523 0.252235 -0.171321 -0.179683 0.419206 0.084547 0.084659 0.581282 0.157579 0.001839 0.100561 0.043890 -0.114585 0.049871 -0.102537 -0.350191 0.033909 -0.259734 -0.039689 0.406262 -0.048262 -0.220090 -0.049873 -0.225057 0.045418 -0.056472 0.024097 -0.427046 0.126441
pecked 0.082882 0.158228 -0.481143 -0.365380 0.454131 -0.166568 0.161503 -0.147715 -0.048292 -0.255291 -0.006977 0.047498 -0.178482 -0.317335 0.077811 0.087859 -0.168034 -0.096845 0.336969 -0.067115 -0.264751 -0.014036 -0.099722 0.167635 -0.338421 0.145743 0.111880 0.264480 0.142314 0.135974 -0.179985 0.136430 -0.035898 0.335168 0.023151 -0.060275 -0.597204 0.306486 0.272842 -0.138042 -0.045968 -0.060147 -0.186917 -0.223960 -0.439554 -0.185084 0.180721 -0.084080 -0.060638 0.048088
cheek 0.074822 0.148471 -0.865073 -0.236336 0.345399 0.188823 0.606526 0.029126 -0.184665 -0.484899 0.128222 0.297632 0.013486 0.190263 0.159064 -0.108410 -0.192222 -0.018981 0.229038 -0.072957 -0.159582 0.289757 -0.168654 -0.405043 -0.367577 0.202873 -0.148526 -0.110508 0.256189 0.258227 0.130864 -0.252425 -0.510531 -0.089119 -0.659468 -0.159124 -0.322070 0.190802 -0.172780 -0.309337 -0.213044 0.240549 0.037431 -0.317078 -0.309253 -0.172388 0.690631 -0.058318 -0.583402 0.104088
tried -0.110915 -0.138350 -0.895817 -0.863373 0.218149 -0.016675 0.721111 0.035094 -0.629360 -0.821872 0.545051 -0.646295 -0.178092 0.486789 0.084383 -0.671294 0.261252 0.100402 0.216381 0.728893 -0.667913 0.251853 -0.389411 -0.938126 -0.475938 0.376317 0.499380 -0.060331 0.538198 0.338671 0.029622 -0.660171 -0.432926 0.174890 -0.352738 -0.041299 -0.741246 -0.121572 0.554367 -0.519691 -0.019824 0.114364 -0.211451 -0.502075 -0.566036 0.001970 0.506702 -0.098616 -0.613570 -0.062307
kiss -0.303514 -0.306604 -0.390234 -0.032964 0.060091 -0.074189 0.398318 0.046070 0.134716 -0.782728 0.207950 -0.188943 0.039865 0.282403 0.199820 -0.254076 0.149549 -0.167736 0.279905 0.377818 -0.258162 -0.118605 -0.037954 -0.142152 -0.419239 0.158373 -0.112598 -0.284552 0.022522 0.460177 -0.191591 -0.553727 -0.093177 -0.156037 -0.201061 0.111966 -0.384179 0.305843 -0.159865 -0.185662 -0.231725 0.153704 -0.119344 -0.243085 -0.439335 -0.232319 0.380162 -0.086162 -0.835304 0.338936
goodbye -0.237840 0.082561 -0.712979 -0.200765 -0.332271 -0.287027 0.428992 0.212355 -0.328006 -0.470288 0.247495 -0.311195 -0.125160 0.192675 0.120328 -0.228180 0.058022 -0.115965 0.252935 0.061789 -0.592936 0.161244 0.479903 -0.337385 -0.350214 0.175446 0.362083 -0.059193 -0.176209 0.026718 0.420235 -0.166837 -0.027653 -0.205869 -0.144570 -0.418924 -0.964977 -0.118078 -0.045022 -0.260395 0.015890 0.242869 0.005486 -0.240845 -0.495607 -0.323672 0.533013 -0.301845 -0.475027 0.047299
missed 0.321422 0.090091 -0.810546 -0.198584 -0.082527 -0.385092 0.549716 0.356050 -0.109011 -0.069345 0.118903 -0.253626 -0.337299 0.291631 0.054724 -0.332940 0.181718 0.014028 0.287030 -0.010847 -0.090735 0.156040 -0.089947 -0.297968 -0.445737 0.103321 0.484892 0.047008 -0.006634 0.049079 0.276249 -0.118950 -0.111211 0.010446 -0.446882 -0.097494 -0.579111 0.148202 -0.372332 -0.144178 -0.082580 0.277171 0.176915 -0.171257 0.345409 -0.152134 0.510253 -0.485675 -0.504701 -0.044701
now 0.046944 0.075983 -0.910199 -0.346340 0.661199 -0.435505 0.252779 -0.286338 0.055520 -0.145120 0.218766 -0.316324 -0.138981 0.197832 -0.330376 -0.188263 0.497333 -0.046093 0.856354 -0.202787 -0.542853 0.563397 -0.129020 -0.454487 -0.603178 0.317837 0.194746 -0.190213 -0.250157 0.270447 0.004954 -0.238546 -0.272191 -0.642583 -0.710436 -0.149642 -0.817079 0.034514 0.284478 -0.008037 0.200402 0.467122 0.206613 -0.421221 0.087987 -0.172901 0.633715 0.118232 -0.784854 -0.024392
