6022 50
harry -0.855239 -0.282167 -0.139771 -0.133640 0.036599 0.119639 0.147982 -0.144864 -0.242308 -0.620676 -0.834697 0.699199 0.315758 -0.239107 0.507857 -0.714514 0.255096 0.049336 0.796005 -0.408656 -0.555698 0.101429 -0.147227 -0.264418 -0.280169 -1.062578 0.355189 0.612934 -0.448883 0.281245 0.406857 -0.366931 -0.499174 -0.025596 0.319331 -0.613526 -0.130761 0.099436 -0.491012 0.415267 -0.187458 -0.155031 0.027115 0.890025 0.103814 0.424915 -0.562772 -0.516001 -0.928044 0.219616
potter -0.596323 -0.707481 -0.331563 -0.106653 0.781315 0.092971 0.578970 0.195723 0.249878 -0.461211 -0.680774 1.133222 0.427412 -0.139055 0.017515 -0.875105 0.293414 0.261022 0.943401 -0.375843 -0.162552 -0.481755 0.236256 0.179905 -0.588274 -0.903090 0.249345 -0.361180 0.151838 -0.089102 0.213499 -0.225684 -0.249886 -0.393130 0.335092 0.410438 -0.315745 0.078029 -0.132999 0.280275 -0.370297 -0.271876 0.477449 0.017511 0.057903 0.413529 0.311403 -0.396854 -0.424607 0.478392
and -0.470177 -0.711260 0.273769 0.547516 0.034999 -0.366620 0.196736 0.024789 -0.082248 -0.370708 0.129617 0.633588 -0.332178 -0.054459 0.724090 -0.309925 -0.031833 0.288462 0.830302 -0.461836 -0.647199 -0.189418 0.298021 -0.218572 -0.173545 -0.360495 0.433408 0.317299 0.048847 0.078106 0.000731 -0.569539 -0.516812 0.599146 0.893953 -0.399166 -0.212315 -0.190102 -0.174427 0.289155 -0.369312 -0.012137 0.001789 -0.035675 0.250857 0.898823 0.321517 -0.411407 -0.657318 -0.021911
the -0.797638 -0.658748 -0.096416 -0.170014 -0.324266 -0.086600 -0.152148 0.223254 0.299471 -0.070223 -0.898834 0.562526 0.392667 -0.308633 0.811712 -0.302658 -0.764701 -0.183300 0.752772 0.326316 -0.334355 -0.269406 0.797345 0.695327 -0.313596 -0.797870 -0.072249 0.568256 0.275503 0.253827 -0.327129 -0.385040 -0.063174 -0.152990 -0.007572 -0.652104 -0.301684 0.015271 -0.354113 -0.167830 -0.295809 -0.318251 -0.263284 0.503395 -1.194174 0.886806 0.487096 -0.741354 0.241228 -0.306570
sorcerers -0.372588 -1.157230 0.020337 -0.362789 -0.345249 0.067852 -0.337632 0.128730 0.064605 -0.275746 -0.196015 0.543178 0.297203 -0.143940 0.490966 0.268891 -0.463729 0.461066 0.998842 -0.740189 -0.170150 0.159678 0.043263 0.068228 0.257250 -0.592085 0.183362 0.016599 0.207039 0.106526 0.400959 -0.112933 0.070710 0.012576 0.358041 -0.010413 -0.256649 0.058733 -0.121938 -0.323009 -0.328841 -0.825420 0.095479 0.220883 -0.493641 0.725435 0.313080 -0.908522 0.240820 -0.010873
stone -0.396169 -0.738274 -0.408938 -0.504426 0.084079 0.218416 -0.058290 0.615175 -0.216391 -0.706596 -0.173261 0.446336 0.395498 0.058575 0.397099 -0.035404 -0.289157 0.687307 0.834983 0.053093 -0.121290 -0.420240 0.165268 0.668435 -0.230785 -0.938325 0.283515 0.288055 0.503693 -0.302165 0.338387 -0.335093 -0.053582 -0.174223 0.359445 -0.100269 -0.174082 -0.278908 -0.552503 -0.178546 0.149359 -0.410851 0.010491 0.313959 -0.523419 0.752966 0.099559 -0.599264 0.175576 0.379026
chapter -0.520721 -0.406570 -0.124707 -0.576706 0.236923 -0.061551 0.002880 -0.084920 0.287551 -0.140767 -0.392707 0.293002 0.215788 0.007920 0.581930 0.017432 0.095912 0.124495 0.748640 -0.449680 -0.341609 -0.125562 0.010232 0.004324 -0.093210 -0.303303 -0.063821 0.029553 -0.187223 0.271007 0.164547 0.268605 -0.183127 -0.289404 0.403104 0.165079 0.370253 0.232694 -0.129282 -0.072717 -0.277182 -0.344117 0.095002 0.033637 -0.024551 0.795049 -0.127981 -0.007976 0.109677 -0.199763
one -1.134795 -0.740079 -0.089207 -0.006587 0.439263 0.439776 0.050871 -0.412711 -0.054364 -0.394849 0.047397 0.445941 0.363820 -0.344919 -0.151340 -0.411898 0.497000 0.008384 0.885270 -0.181240 -0.306524 -0.240826 0.021798 0.882581 -0.293516 -1.126458 -0.249007 0.225254 -0.229048 0.060149 -0.272390 -0.592213 0.050512 -0.086477 0.654590 0.005169 -0.530702 0.314751 -0.111418 0.008293 -0.333854 -0.504577 -0.202576 0.016962 -0.179153 1.035664 -0.755102 -0.807600 -0.284651 0.486224
boy -0.592034 -0.775456 -0.540143 0.005164 0.430824 0.158558 -0.062008 0.446317 0.142807 -0.091542 -0.843282 0.308607 0.467626 -0.112591 0.512857 -0.441784 0.209194 0.130433 0.593895 -0.426066 -0.489482 -0.074203 -0.140560 -0.049859 -0.367573 -0.738269 0.080669 -0.086668 0.255740 -0.207945 0.294326 -0.243072 -0.285092 0.052307 1.172644 0.072068 -0.667919 0.351015 -0.339668 -0.547153 0.196070 -0.063928 -0.354647 0.107882 -0.105809 0.714321 -0.232624 -0.398376 -0.129319 0.281656
who -0.572943 -0.345519 -0.152416 0.123811 0.121835 0.114046 0.387927 -0.320590 -0.389541 -0.266219 -0.568917 0.437935 0.256694 -0.288971 0.529969 -0.683078 0.409612 0.320824 0.734876 -0.935500 -0.609043 -0.739413 -0.299813 -0.087149 -0.134027 -0.686934 0.617096 0.205903 0.274009 0.132580 0.451377 -0.431158 -0.722507 -0.178673 0.341112 0.129603 -0.458535 0.465378 -0.804772 0.082429 -0.283669 -0.272491 -0.407732 0.046556 -0.226426 0.380077 -0.025542 -0.865151 -0.195895 0.206115
lived -0.760846 -0.656579 -0.223497 -0.018122 0.424282 -0.142906 0.269730 0.209042 -0.072646 -0.575182 -0.347395 0.155896 -0.028622 -0.251080 0.117341 -0.219982 -0.284019 0.018568 0.831613 -0.403103 -0.569242 -0.203864 0.014523 0.190578 0.094293 -0.583904 0.252281 0.006546 0.004875 0.268968 0.108727 0.005717 -0.230250 -0.090869 0.344865 -0.015404 0.096097 0.146676 -0.208793 -0.192722 -0.383310 0.113483 -0.234157 0.145382 0.192580 0.673931 -0.187300 -0.427525 0.183977 -0.081237
mr -0.913842 -0.135969 -0.187855 0.283052 0.465505 0.072913 -0.105571 -0.091631 0.256247 -0.448142 -0.673790 0.364890 0.921588 -0.571235 0.863856 -0.672919 0.022030 0.395921 0.401333 -0.462719 -0.358197 -0.818336 0.145561 -0.739504 -0.604484 -0.404836 0.533532 -0.187625 -0.331392 0.255232 0.740798 -0.243866 -0.055910 -0.190008 0.448508 -0.339559 0.223424 0.465587 -0.156250 0.401482 -0.296819 -0.337008 0.465914 0.196811 -0.299042 0.743603 0.046673 -0.541067 -0.840548 0.387204
mrs -0.189715 -0.444038 0.328233 0.299062 0.464035 0.256771 -0.026882 0.053427 0.387084 -0.639170 0.063795 0.640183 0.040268 0.281569 0.589158 -0.429703 0.374275 -0.421461 0.401110 -0.556428 -0.797847 -0.453577 0.045322 -0.208558 -0.232566 -0.436276 0.520728 0.342841 -0.108488 0.429438 0.295142 -0.053640 0.046768 -0.352580 0.347391 -0.550059 0.065726 -0.032905 -0.640366 0.201259 -0.389346 -0.747449 0.141934 -0.362935 -0.192301 0.647255 -0.020191 -0.898768 -0.358651 0.208898
dursley -0.563857 -0.185742 0.184172 0.292608 0.575095 -0.492577 -0.090312 0.192626 0.258629 -0.649221 -0.501102 0.783035 0.110774 0.045325 0.357566 -0.690183 0.282732 0.390558 0.111600 -0.752149 -0.895848 -0.256882 0.139881 0.118649 -0.631980 -0.789008 0.336069 0.500327 -0.061070 0.110272 0.081716 -0.039095 -0.098167 -0.264009 0.235516 -0.186767 -0.083283 0.190870 -0.164108 0.376048 -0.256021 -1.090061 0.077419 -0.346364 0.274920 0.405627 -0.115509 -0.158211 -0.229501 0.078714
of -0.963333 -0.702790 -0.027819 -0.407575 -0.221375 -0.800924 0.300139 -0.193302 0.211010 0.306419 0.112951 0.287636 -0.400866 0.024687 1.133662 -0.231832 -0.301333 -0.157390 0.773345 0.238793 0.400393 -0.805933 0.402538 0.795899 0.080042 -0.680643 0.545489 -0.071940 0.383556 0.763427 -0.135806 -0.583238 0.155596 -0.606713 -0.376835 -0.122945 0.072130 0.380831 -0.279935 -0.924370 -0.853193 -0.561421 -0.496097 -0.044966 0.011739 1.746287 -0.305820 -0.758715 0.280040 -0.020737
number -0.772704 -0.997460 -0.144729 -0.173441 0.124052 0.320317 -0.153564 -0.122049 0.213595 -0.634328 -0.277188 0.126322 0.050583 -0.103946 0.432135 0.086362 -0.098694 -0.009742 0.972446 -0.425679 -0.502772 -0.402150 0.089720 -0.021930 -0.376132 -0.162837 0.046227 0.082735 0.231376 -0.011995 0.344595 -0.200180 0.056032 -0.138110 0.266936 -0.202676 -0.163000 0.386598 0.101070 -0.256275 -0.208490 -0.224274 -0.032128 -0.006779 -0.147817 0.778085 -0.032784 -0.463986 0.106016 -0.086065
four -0.920074 -0.746183 0.001859 0.092394 -0.216721 0.214437 0.005744 0.007150 0.019942 -0.637317 -0.134427 0.256408 -0.293942 -0.145566 0.560624 -0.050322 -0.272528 0.161574 0.674687 -0.274501 -0.451191 -0.361899 0.255157 0.666064 -0.079721 -0.383757 0.092933 0.128195 0.020546 -0.024244 0.412443 -0.502507 -0.185642 -0.306179 0.387125 -0.322284 -0.272790 0.427591 0.024263 -0.196586 -0.614801 -0.296764 0.273024 0.137923 -0.024236 0.586947 0.074915 -0.455337 -0.149788 -0.129369
privet -0.115510 -0.683540 -0.283207 -0.445479 0.369322 0.148998 0.274839 0.248019 0.121898 -0.177403 -0.080130 1.267364 -0.217569 -0.258864 0.486576 0.149004 0.145585 0.202230 0.541518 -0.221919 -0.801056 -0.369154 0.257172 -0.087705 -0.395373 -0.816534 0.160603 0.058629 0.131676 -0.315720 0.383578 -0.213325 -0.115973 -0.019052 0.437841 -0.025505 0.059383 0.247054 -0.262189 -0.343603 -0.278385 -0.604501 -0.170442 0.570633 -0.201984 0.906239 0.038377 -0.460724 0.103497 0.243561
drive -0.514525 -0.388439 -0.217764 0.190773 0.448600 0.257940 0.249209 0.081702 0.306061 -0.579059 -0.039738 0.639686 0.175653 0.037923 0.476116 -0.059926 -0.055451 -0.271622 0.568814 -0.253294 -0.562329 -0.029123 -0.536299 0.618134 -0.439886 -0.566936 0.369390 0.076201 0.265241 0.396487 0.525468 -0.019790 -0.704237 0.121778 0.312628 0.284763 -0.113347 0.051809 -0.322816 -0.651805 -0.610471 -0.839263 -0.113680 0.129696 -0.557613 0.520644 -0.294281 -0.163128 -0.032740 -0.031427
were -0.764918 -0.690182 -0.308906 0.237437 0.716745 0.138777 0.099818 -0.327725 -0.052271 -0.396787 0.242592 -0.153584 -0.198278 -0.553208 1.153160 0.496852 0.370080 -0.364947 0.908733 0.128936 -0.977664 0.022368 0.561875 0.261942 0.245391 -1.048065 0.545831 0.306112 0.265725 0.717788 0.424346 -0.046008 -0.650769 -0.171998 0.930916 -0.374381 0.385012 0.064520 0.112043 0.234897 -0.751795 -0.653202 -0.666416 0.447670 0.270300 -0.019541 0.106074 -0.567135 0.094901 -0.782358
proud -0.318710 -0.619754 -0.076379 -0.004790 0.048453 -0.114359 0.135995 0.107421 -0.222193 -0.467609 -0.230942 0.392912 -0.126631 0.156030 0.514176 -0.019556 0.050780 -0.053217 0.533415 -0.541384 -0.261861 -0.198704 -0.341033 0.623116 -0.379685 -0.656460 0.114307 0.432997 -0.000856 -0.164686 -0.054587 -0.031390 -0.101261 -0.116848 0.510691 0.109051 0.016033 0.317951 -0.542236 0.050979 -0.643945 -0.400226 -0.104522 0.372050 0.135697 0.520625 0.029444 -0.144669 -0.202197 -0.173392
to -0.447681 -0.751998 -0.519498 0.275734 0.107142 0.111245 0.137333 -0.467999 -0.149391 -0.945612 -0.445179 0.878861 0.361709 -0.271030 0.586584 -0.484235 0.844026 1.057609 0.036954 -0.215939 -0.791231 -0.316957 0.146678 1.030013 0.124890 -0.297462 -0.038085 0.339745 0.180980 0.443887 0.139611 0.263296 -0.940047 -0.423436 0.593274 -0.459998 -0.256372 0.067711 -0.629102 0.093517 0.181377 -0.663342 -0.670930 1.202255 -0.123066 0.782699 -0.003682 0.297786 -0.162178 -0.279594
say -1.111508 -0.658652 -0.339154 -0.249633 0.597542 -0.199027 0.163385 0.054540 -0.335673 -0.956324 -0.014216 0.231179 -0.056205 -0.531057 0.857986 -0.051393 0.397770 0.241177 0.837134 -1.023254 -0.635399 -0.195292 -0.503905 0.257423 -0.347438 -1.208349 0.339556 -0.284890 0.699290 0.147065 -0.012346 0.161477 -0.449726 -0.511247 0.332672 -0.132041 -0.650861 0.050299 -0.232492 0.298842 -0.095681 -0.588323 -0.322703 0.853923 0.293738 0.218574 -0.105924 -0.189372 -0.082023 0.362514
that -0.761917 -0.395140 0.155701 0.463478 0.358317 0.168216 -0.041066 0.086876 -0.634377 -0.585089 -0.586028 0.722924 0.536449 -0.194070 0.741528 0.029093 -0.197278 0.138594 0.884259 -0.669445 -0.287918 -0.575153 -0.158263 0.062188 0.286794 -0.661795 0.353184 0.089147 0.333822 0.735237 -0.175669 -0.164696 -0.340021 -0.317438 0.077098 -0.133415 -0.376338 0.705356 0.058463 0.078425 -0.135161 -0.311888 -0.518677 0.670694 -0.228733 0.497531 -0.162238 -0.621351 -0.207488 -0.000733
they -0.378835 -0.403752 0.131103 0.634664 -0.257629 -0.430921 0.073414 0.430378 -0.947670 -0.552940 0.032964 0.126569 0.576549 -0.013120 1.314920 -0.319567 0.391205 -0.364165 0.352560 -0.778551 -0.810676 0.849062 0.221657 0.480458 -0.289885 -1.375696 0.351808 0.674411 0.077050 0.796665 0.234457 -0.455695 -0.657006 0.030898 0.535798 -0.210266 0.001679 -0.050717 -0.231715 0.119146 -1.050785 -0.678331 -0.492839 1.119771 0.075591 0.257441 -0.010646 -0.893398 -0.448584 -0.676475
perfectly -0.123880 -0.400145 -0.063582 0.240465 0.518347 -0.338060 -0.096240 -0.022938 -0.059980 -0.466974 -0.117986 0.184351 -0.162180 0.313491 0.399369 0.316948 -0.126356 0.345917 0.439103 -0.318370 -0.534935 -0.527820 -0.019794 -0.018794 -0.454520 -0.616588 -0.265839 0.033791 0.330440 0.226796 0.362981 0.040828 -0.325651 -0.189411 0.397472 -0.017013 0.353853 0.449111 -0.298698 0.064245 -0.507813 -0.444854 -0.019801 0.447859 0.258679 0.696805 -0.246633 0.064761 0.152561 0.011952
normal -0.477556 -0.868929 -0.075124 0.224018 0.439377 -0.159543 -0.232531 0.295244 -0.368309 -0.273239 -0.525601 0.314747 -0.026146 0.169920 0.803159 -0.206610 0.123877 -0.110198 0.575913 -0.469712 -0.542356 -0.247316 -0.062344 0.079654 0.056137 -0.368389 -0.006198 0.554981 0.155764 0.068731 0.012495 -0.126540 -0.231236 -0.409347 0.662838 0.028015 -0.220042 -0.442698 -0.042658 -0.145837 -0.178953 -0.462554 -0.173790 0.192604 0.093418 0.755860 0.049419 -0.333689 0.183099 -0.058351
thank -0.417865 -0.458961 -0.114600 -0.206941 0.163884 -0.120230 0.236942 0.373276 0.261915 -0.263828 -0.319744 0.123965 -0.320540 0.025400 0.312282 -0.295200 -0.002818 0.163224 0.984740 -0.528438 -0.347702 -0.478011 0.091920 -0.096512 -0.552500 -0.654219 0.147473 0.141269 0.420431 0.026832 0.161727 0.257746 -0.213741 -0.227205 0.360538 0.181099 0.302947 0.349664 -0.360195 0.056201 -0.299377 -0.485467 -0.084224 0.152895 0.215001 0.326753 0.173916 -0.341740 -0.305948 -0.190704
you -1.155402 -0.864282 -0.145002 0.188190 0.166385 0.173948 0.204198 0.500954 -0.986991 -0.582389 0.195912 0.701406 0.120433 -0.126977 -0.007160 -0.868833 0.603949 0.678257 1.377400 -0.598205 -0.766656 -0.926333 0.066590 0.560119 -0.468536 -1.025776 0.095692 -0.491173 0.282331 0.314823 0.527721 -0.309899 -0.596094 -0.295753 0.600730 -0.170876 0.254749 0.325980 -0.223225 0.234219 -0.224013 -0.497779 -0.114339 0.808103 -0.125168 -0.257018 -0.181173 -0.472849 0.275350 0.403997
very -0.812077 -0.726226 -0.157980 0.324911 1.134334 0.225623 0.590486 0.165767 -0.047440 -0.387730 -0.598585 0.041871 0.592212 0.206757 0.234548 -0.133420 -0.408514 0.091395 0.513636 -0.506773 0.100870 -0.499647 -0.204676 -0.157926 0.519484 -0.399038 0.493902 0.603973 -0.131990 0.458673 -0.266200 -0.358716 0.058913 -0.151410 0.478236 -0.414926 -0.047922 0.383605 -0.114552 0.066068 -0.654992 -0.547816 -0.059173 0.529176 -0.178184 1.225691 -0.298481 -0.537037 -0.262890 0.113036
much -0.538936 -0.805655 -0.484015 0.022828 0.539037 -0.799773 0.053865 0.245653 -0.677969 -0.454133 0.067146 0.589818 0.412895 -0.221509 0.357179 -0.004582 0.357017 0.219507 0.413390 -0.696790 -1.025835 -0.011084 -0.648400 0.038390 -0.139570 -0.887450 0.337946 0.736239 0.290172 0.153291 0.251799 -0.026885 -0.479921 0.031755 0.147556 -0.112343 -0.118623 -0.215522 -0.212241 0.041686 -0.599828 -0.981106 -0.609085 0.785374 -0.226816 0.543511 0.029179 -0.710875 -0.443244 0.229040
last -0.781330 -0.889261 0.095981 0.045411 0.607976 -0.134460 0.465124 0.249371 0.061428 -0.444125 -0.599286 0.318692 0.222355 0.157267 0.314242 -0.264395 0.030871 -0.260989 0.561686 -0.379603 -0.483302 -0.460402 -0.097719 0.508830 -0.588481 -0.520113 0.383608 0.723780 -0.088291 0.115953 -0.083922 0.195842 -0.407310 -0.625148 0.678358 -0.368034 -0.496365 0.162475 0.074088 -0.387776 -0.343270 -0.202532 -0.100480 -0.063486 -0.404931 0.828448 -0.170146 -0.893297 -0.080188 0.130758
people -1.126271 -0.824897 -0.461681 -0.040892 0.064317 0.175086 0.440162 0.226905 -0.533415 -0.195069 -0.221676 0.063614 0.188393 0.114212 0.629942 -0.264870 0.173136 -0.414214 0.243416 -0.658849 -0.325952 -0.265617 0.083740 0.496855 -0.142862 -0.772133 0.117978 0.238717 0.178797 0.092959 0.617886 -0.248834 -0.025091 -0.127990 0.863733 -0.084330 -0.221630 0.299372 -0.374696 -0.034731 -0.256900 -0.609661 -0.461289 0.403734 0.096686 0.501998 -0.052345 -0.924088 -0.074940 -0.327227
youd -0.833240 -0.598988 -0.088824 0.334557 0.079747 -0.115049 0.498896 0.346968 0.025997 -0.500290 -0.161591 0.429971 0.094703 -0.217035 0.423013 -0.383199 0.055259 0.224162 0.670791 -0.673950 -0.188474 -0.526607 -0.414345 0.582189 -0.590010 -0.606812 0.625778 0.194363 0.354481 0.639794 0.014145 -0.289859 -0.412511 -0.325344 0.185187 -0.123385 0.072191 0.364210 -0.301969 0.406130 -0.598883 -0.771076 -0.125425 0.486527 -0.151220 0.270583 -0.158265 -0.627463 -0.033925 0.029750
expect -0.745241 -0.701912 -0.167968 0.223705 0.183156 -0.099775 0.244125 0.351508 -0.028905 -0.706588 -0.222075 0.348386 0.049592 -0.340605 0.467434 -0.066007 -0.151132 0.432936 0.857403 -0.315412 -0.423512 -0.494036 -0.017332 0.260443 -0.500722 -1.133022 0.143645 -0.279943 0.213726 0.295720 0.038941 -0.137573 -0.176379 -0.122944 0.368000 0.355635 -0.508749 0.188026 -0.642614 1.031256 -0.437690 -0.426379 -0.177615 0.416339 -0.077944 0.125875 -0.035942 -0.468660 0.032174 -0.054343
be -0.629997 -0.328986 0.154508 -0.739752 0.671540 0.057033 0.047411 0.604428 -0.302721 -0.815586 -0.537085 0.431825 0.282750 -0.241434 0.294057 0.536712 0.255537 1.313610 0.380128 -0.493901 -0.718641 -0.400483 -0.268269 0.631015 -0.273508 -1.204955 -0.600485 -0.068030 0.483898 0.508782 0.211220 -0.133566 -0.156609 0.425115 1.016638 -0.364583 0.210312 0.436128 0.752586 0.565675 -0.854474 -0.920296 -0.897381 0.605841 0.459774 0.330124 -0.925948 -0.607782 0.474727 -0.003965
involved -0.502003 -0.191618 -0.448889 0.150136 0.185951 -0.173983 -0.578407 0.018418 0.261164 -0.527339 0.060623 0.055614 0.102415 -0.152682 0.545733 0.033334 -0.027465 0.545345 0.500486 -0.439359 -0.313558 -0.338312 -0.309491 0.231665 -0.245644 -0.319665 0.303565 0.619086 -0.217479 0.301748 0.257419 -0.048575 -0.213147 -0.475926 0.424986 0.160061 -0.397191 -0.075803 0.075086 0.519663 -0.450088 -0.222510 -0.190117 -0.219673 -0.299851 0.856358 0.261530 -0.305879 -0.038177 -0.104081
in -0.675703 -0.539306 -0.026726 0.545214 -0.032077 -0.142374 0.277349 0.787228 0.246395 0.081321 -0.464780 0.620933 0.480559 -0.041400 1.345907 -0.008773 0.284745 0.102685 0.494014 0.083342 0.068510 -0.322521 0.049139 0.843425 -0.284099 0.356436 0.673355 0.717133 -0.365672 0.705420 0.132542 -0.211976 0.905468 -0.367241 0.871148 0.108709 -0.040825 0.496715 -0.773509 -0.186169 0.046978 -0.702086 -0.406967 0.057838 -0.137294 0.871571 -0.012258 -0.870379 0.177189 -0.097702
anything -0.479468 -0.423035 -0.082370 -0.116839 0.090457 -0.209727 0.396378 0.483377 -0.111703 -0.926036 -0.339814 0.244816 0.729829 -0.173752 0.405589 -0.272429 0.271059 0.108532 0.403781 -1.132614 -0.455517 -0.458271 -0.492339 0.718672 -0.359321 -1.419675 0.480867 -0.080265 0.023845 0.082147 0.356386 0.068150 -0.216818 -0.440806 0.355049 -0.064547 -0.268485 0.219343 -0.076555 0.110436 -0.300459 -1.183316 -0.576852 0.893302 -0.197354 0.277395 0.101019 -0.579142 -0.293600 -0.006532
strange -0.613593 -1.116082 -0.074823 0.272465 0.626662 0.276544 -0.168874 0.408762 -0.154598 -0.538109 -0.004539 0.606023 -0.089620 -0.040651 0.640407 0.062362 0.009004 -0.161962 0.379425 -0.273577 -0.031597 -0.502297 -0.089128 -0.040985 -0.147776 -0.651999 0.621730 0.574992 -0.122919 -0.388662 0.614020 0.234396 -0.052809 -0.292860 0.304866 -0.218354 -0.300991 0.011390 -0.303092 0.056472 -0.279511 -0.645840 -0.502008 0.044203 0.199868 0.365835 0.011195 -0.589302 -0.217993 0.240973
or -0.474378 -0.743814 -0.090644 0.192297 0.537068 -0.180506 -0.086893 0.169639 -0.527402 -0.550232 -0.073228 0.145569 0.325483 0.081673 0.677435 -0.328657 -0.120758 -0.028706 0.643267 -0.267180 -0.429991 -0.588737 -0.307676 0.151008 -0.011219 -0.711223 0.310870 -0.145627 0.165633 0.451881 0.527073 0.307482 -0.406746 -0.056548 0.223448 -0.257639 0.015335 -0.316876 -0.088058 0.600660 -0.048321 -0.887201 -0.399341 -0.105988 0.313323 0.484208 0.026836 -0.519672 0.273799 0.316868
mysterious -0.770692 -0.420029 -0.174506 0.203446 0.255210 -0.500144 -0.027724 -0.088391 0.135742 -0.503536 -0.408997 0.606422 -0.034150 0.150300 0.298597 -0.067748 -0.418747 0.099783 0.356442 -0.423539 -0.084239 -0.283919 0.059893 0.094044 0.176261 -0.590896 -0.037298 0.418566 0.068154 0.206410 0.301627 -0.173101 -0.381771 -0.308494 0.365734 -0.039703 0.111335 0.311880 -0.315208 0.170778 -0.272708 -0.460380 -0.285473 0.117659 -0.149295 0.625315 0.058976 -0.348015 0.177723 -0.156365
because -0.716219 -0.561463 -0.121153 -0.074479 0.274533 0.245067 -0.082587 0.078646 -0.204435 -0.907007 -0.315350 0.121317 0.171592 -0.075538 0.367660 -0.312395 0.289972 0.261399 0.651877 -0.494663 -0.515336 0.041075 -0.540089 0.183839 0.106839 -0.850799 0.481171 0.252134 -0.100662 0.215574 -0.332668 -0.204531 -0.030542 -0.612026 0.489031 -0.073191 0.123406 0.000331 -0.117245 -0.153830 -0.343094 -0.953827 -0.400783 0.228996 0.019642 0.705988 0.142333 -0.578142 -0.506838 -0.066530
just -0.375137 -0.925074 -0.065370 0.280833 0.108731 -0.031896 0.437596 0.322357 -0.070432 -0.619832 -0.499642 0.514529 0.428160 -0.347149 0.348242 -0.526371 0.585023 0.439711 0.444042 -0.412464 -0.486826 -0.287758 -0.417074 0.332443 0.285741 -1.324266 0.779174 0.303092 -0.096702 0.168468 0.023076 -0.237231 -0.102395 -0.081128 0.417011 -0.194296 -0.208307 0.431707 -0.227415 0.167757 -0.253664 -0.720476 0.042130 0.350424 -0.073771 0.514441 -0.323828 -0.438154 -0.004036 0.202728
didnt -0.574269 -0.597727 -1.077059 0.220531 0.011810 0.232862 -0.113943 0.090952 -0.444084 -0.863583 0.353281 1.062854 -0.222689 -0.751809 0.263772 -0.316113 -0.332891 0.393544 0.550797 -0.602648 -0.222144 -0.341736 -0.263235 0.302855 -0.238216 -0.787139 0.477053 0.006163 -0.075781 0.749108 0.603373 -0.105370 -0.847231 -0.361613 0.571058 -0.277446 -0.103174 -0.041402 -0.482172 0.376745 -0.357262 -1.175420 0.232369 0.761289 0.292104 0.195531 0.579032 -0.992602 0.013036 -0.014418
hold -0.456202 -0.560532 -0.111602 -0.172068 0.416943 -0.116141 -0.351616 0.299700 0.066156 0.048006 -0.391691 0.415089 -0.024128 -0.023843 0.159487 -0.020799 0.505765 0.348097 0.709953 -0.828309 -0.329797 -0.361302 -0.112583 0.521170 0.144115 -0.602310 0.280578 0.082238 0.212780 0.176834 0.545782 -0.321863 -0.053724 -0.287249 0.455693 -0.223055 -0.437898 0.094654 -0.125645 0.205958 -0.498119 -0.410443 -0.361378 0.249273 0.038753 0.660127 -0.273271 -0.210833 0.383802 -0.020979
with -0.143582 -0.998737 -0.436908 -0.365343 0.244264 0.035354 0.174003 0.148508 0.305664 -0.085335 -0.043094 0.285991 -0.042625 -0.192178 1.220525 -0.328995 0.186036 -0.047381 0.555850 0.154604 -0.377572 -0.511294 -0.002966 0.285402 -0.173454 -0.421262 0.746200 0.278939 0.151795 0.512234 0.072677 -0.145106 -0.052088 -0.336867 0.488445 -0.288881 0.475345 -0.078000 -0.571829 -0.173904 -0.280702 -0.240530 -0.476162 -0.331279 -0.010231 0.886042 0.208863 -0.256022 -0.222751 -0.208914
such -0.490794 -1.015726 -0.091028 -0.218813 0.493287 0.219513 0.024222 -0.245885 -0.226288 -0.370050 -0.108054 0.366735 0.451831 0.133145 0.537235 0.008400 0.297327 0.446778 0.680456 -0.347817 -0.602558 -0.297332 -0.351641 0.130907 0.016414 -0.872114 0.670586 -0.193829 -0.042549 0.219812 0.304243 0.061132 0.114235 -0.379013 0.319761 0.148948 0.089528 0.108745 -0.207213 -0.049314 -0.462315 -0.500841 -0.303197 0.601564 -0.041385 0.451446 -0.483448 -0.274136 0.144529 0.514326
nonsense -0.329070 -0.498770 -0.039797 -0.026996 0.188411 -0.083618 -0.009278 0.121898 0.122537 -0.289024 -0.166002 0.525038 0.138902 -0.098004 0.180314 0.062121 -0.413472 0.106379 0.562727 -0.312467 -0.440649 -0.142528 0.010809 -0.010180 0.005897 -0.706001 0.214275 0.152417 0.215173 -0.183861 0.396314 -0.062332 -0.220974 0.121393 0.407312 0.155274 0.051352 0.046395 -0.127186 0.105746 0.012476 -0.260830 0.165445 -0.025739 -0.332240 0.502716 0.133068 -0.165162 -0.540955 0.259607
was -0.441118 -0.025044 -0.541593 0.504934 1.159140 0.312748 -0.058260 -0.568235 -0.384822 0.111642 -0.261860 0.121536 -0.420728 -1.157255 0.627633 -0.492873 -0.264198 -0.088047 1.029690 -0.364584 -0.526250 -0.245484 -0.323137 0.172901 0.324624 -0.627030 0.287348 1.072970 0.106869 0.303979 0.222451 -0.110762 0.161797 -0.348966 1.029540 -0.692564 0.372250 0.656197 0.339077 0.368685 -0.025900 -0.946020 -0.442115 0.204729 -0.034861 1.328873 -0.523268 -0.657604 0.780372 -0.120635
director -0.198977 0.185252 0.344729 0.017909 -0.076113 0.030488 -0.474421 -0.067398 0.134180 -0.454524 -0.189905 0.329482 0.191611 -0.044330 0.290458 -0.128112 -0.176338 -0.013080 0.879624 0.039515 -0.447058 -0.040258 -0.178608 0.367867 -0.101373 -0.450056 0.276097 0.044562 0.208946 -0.162744 0.216047 -0.096947 -0.034281 -0.020216 0.317637 0.140728 0.179377 -0.130060 -0.412065 -0.320997 0.022883 -0.166195 0.164129 -0.186528 0.069349 0.679277 0.128489 -0.425150 -0.171916 -0.263884
a -0.108850 -1.350949 0.074829 0.268112 0.401131 0.208237 0.275522 0.704648 0.339405 -0.010105 0.012944 0.181178 -0.091587 -0.061063 0.797939 -0.232603 -0.179657 -0.167134 0.385101 -0.548924 -0.295653 -0.985753 -0.222389 0.068384 0.732875 -0.471072 0.086653 0.314933 -0.475477 0.715135 -0.253576 -0.062955 0.650358 -0.548473 0.193928 -0.711031 -0.289233 -0.599615 -0.168940 0.033412 -0.847079 -0.356891 -0.635113 0.802298 -0.089676 1.176130 -0.457110 -0.502802 -0.393387 0.009445
firm -0.372945 -0.241571 0.138911 0.215857 0.014996 0.209390 0.028399 -0.055211 0.201345 -0.169318 -0.159563 0.289289 0.084831 0.219624 0.301997 -0.095554 -0.247247 0.053200 0.609469 -0.332355 -0.248651 -0.411281 -0.135427 0.474167 0.111638 -0.194178 -0.036207 0.226797 0.168430 -0.228414 0.531184 -0.020722 -0.142950 -0.086399 0.448153 -0.026509 0.157815 -0.039048 -0.101436 0.118703 -0.305560 -0.246089 -0.060941 -0.006495 -0.284523 0.316514 0.108538 -0.156968 -0.058512 0.188209
called -0.773420 -0.507427 -0.507088 -0.119276 0.422642 0.291120 -0.126864 0.107080 -0.293855 -0.092186 -0.513470 0.555152 -0.178602 -0.137944 0.648715 -0.130023 0.234394 0.207710 0.411629 0.020014 -0.745189 -0.650585 -0.026880 -0.010264 0.140069 -0.427210 0.407727 0.152954 0.113553 0.262410 0.489449 -0.003161 -0.422100 -0.128602 0.898982 0.011565 -0.444919 0.105988 -0.311810 -0.218894 -0.111317 -0.677341 -0.051551 0.225223 0.263122 0.715105 0.177068 -0.332557 -0.152187 0.439406
grunnings -0.419811 -0.442179 0.154271 0.081059 0.051287 0.396740 0.082727 -0.094403 0.326531 -0.279994 -0.230077 0.216043 0.199259 -0.103080 0.113260 -0.120207 -0.121563 0.283212 0.500408 -0.152551 -0.120319 -0.274967 0.205909 -0.040147 -0.030089 -0.300422 0.008488 0.182786 0.248026 0.514493 0.454465 -0.121349 0.038277 -0.049272 0.043078 0.016448 -0.117358 -0.026276 -0.222949 -0.255770 -0.063756 -0.267223 -0.044376 -0.148870 0.081653 0.460000 0.069344 -0.218666 -0.168841 -0.015781
which -0.818060 -0.523339 -0.295226 0.112750 -0.222458 -0.040169 0.265393 -0.059683 -0.191352 -0.407120 -0.147599 -0.054715 0.091107 0.098920 0.960486 -0.264446 0.038451 0.351829 0.912646 -0.385016 -0.761598 -0.181117 0.085228 0.083458 0.033010 -0.335392 0.035304 0.553837 0.289483 0.185552 -0.156884 -0.350698 0.153073 -0.462241 0.177700 0.015337 -0.298031 -0.216726 -0.626007 -0.299507 0.004081 -0.710930 -0.214731 0.407854 -0.243897 0.808582 -0.189015 -0.110445 0.380421 0.096827
made -0.863529 -0.578785 -0.086996 0.553730 0.285244 0.195656 0.295406 -0.123421 -0.301198 -0.374755 -0.225365 0.554596 -0.383090 -0.135709 0.464375 -0.344640 -0.075211 0.023071 0.282067 -0.059819 -0.236325 -0.395126 -0.563987 0.498866 -0.120049 -0.691753 0.813768 0.181267 -0.226702 0.318988 0.122305 -0.286595 -0.607613 -0.081885 0.811830 -0.103858 -0.173681 0.051558 -0.103244 0.163266 -0.552094 -0.431114 -0.264340 0.293530 0.223292 1.140767 -0.448112 -0.560598 -0.054433 -0.156332
drills -0.250442 -0.609021 -0.275003 0.122878 0.260271 -0.007710 0.071593 0.013252 0.110648 -0.202275 -0.256321 0.475278 0.150006 0.274150 0.567837 -0.096077 -0.125313 0.470895 0.986824 -0.395106 -0.202015 -0.231869 -0.449140 0.325190 -0.050989 -0.328325 0.242960 0.082319 0.004154 0.117957 0.270727 -0.180850 -0.002048 -0.134166 0.293127 0.256606 -0.225213 0.076930 0.094108 -0.287891 -0.352092 -0.315909 -0.063211 0.257325 -0.413303 0.618185 -0.534650 -0.182893 0.008667 0.104781
he -0.627909 -0.753081 -0.014475 -0.100847 -0.474948 -0.117657 -0.484286 0.027507 -0.670986 -0.722066 -0.450387 0.193597 0.433047 -0.533173 0.722635 -0.442453 0.320692 0.238713 0.698683 -0.834423 -0.637141 0.130808 -0.391891 -0.299650 -0.376647 -0.665487 0.460425 0.681142 -0.329590 -0.072604 -0.165698 -0.201841 -0.308342 0.012430 0.225522 -0.460450 0.193438 0.383949 -0.484622 0.322525 0.065308 -0.911827 -0.038649 0.948844 -0.162149 0.824151 -0.676116 -0.682973 -0.693623 -0.122220
big -0.195081 -0.650326 -0.125762 -0.127235 0.647916 -0.062875 0.037214 0.202755 0.067786 -0.429223 -0.027770 0.078414 -0.005891 -0.002345 0.714273 0.090343 -0.280362 0.396150 0.712533 -0.313317 -0.516283 -0.265370 -0.324190 0.067525 0.046151 -0.750248 0.429582 0.516245 -0.017838 -0.030360 -0.118169 -0.197105 -0.157456 -0.394326 0.452998 -0.413241 -0.404679 -0.097338 -0.229648 -0.553284 -0.516543 -0.518537 -0.287757 -0.063431 -0.407268 0.877400 -0.080359 -0.164900 -0.032726 0.413225
beefy -0.543552 -0.082055 -0.036789 0.268517 0.166005 -0.122280 -0.021659 0.272153 0.728421 -0.070383 -0.293849 0.347405 -0.288591 -0.302063 0.122768 -0.128647 0.106495 -0.035860 0.294217 -0.012025 -0.376737 0.134266 -0.182994 0.037407 0.226220 0.088330 0.107642 0.167391 -0.007590 -0.042181 -0.037202 -0.081768 -0.012588 -0.056944 0.074882 -0.158226 -0.109819 0.305575 -0.356198 -0.001822 -0.127201 0.032099 0.308895 -0.190918 0.134663 0.763310 -0.220898 -0.081493 -0.268286 0.093155
man -0.670247 -0.455146 0.027421 0.109220 0.662681 0.206748 -0.094197 -0.116617 -0.141580 -0.327243 -0.667854 0.334585 0.173863 -0.005687 0.524516 0.141048 -0.067437 0.505089 0.768605 -0.527414 -0.114962 -0.474241 -0.034394 0.075937 0.109336 -0.564289 0.483247 0.498618 -0.200831 -0.311430 0.132697 0.073187 -0.408676 -0.294539 0.811852 -0.269105 -0.059783 -0.145682 -0.159453 -0.456052 -0.474942 -0.482481 -0.362581 0.084404 0.103971 0.631276 -0.249736 -0.420729 0.093700 0.182465
hardly -0.234012 -0.663214 0.120700 -0.041517 0.375095 0.201304 0.153791 0.017322 -0.263861 -0.414734 -0.394136 0.523955 0.139839 -0.070669 0.510430 -0.156041 -0.215314 0.000508 0.732277 -0.529386 -0.727802 -0.264259 -0.338691 0.267151 -0.246789 -0.843637 0.385139 -0.168190 0.039105 -0.281586 0.130652 -0.253846 -0.452270 -0.222549 0.440757 0.071554 -0.282559 0.312029 0.027491 0.261502 -0.247375 -0.904564 0.101862 0.188090 0.092677 0.395800 0.077984 -0.694653 -0.385979 -0.113185
any -0.482693 -0.899523 0.049947 -0.205676 -0.104699 -0.143343 0.046613 0.269165 -0.175709 -0.509611 -0.124867 0.042296 0.591172 -0.087476 0.227544 -0.207707 0.198109 0.051569 0.592718 -0.380014 -0.740174 -0.796090 0.066432 0.907681 -0.063656 -0.658962 0.402739 0.281369 0.108347 0.004947 0.354592 -0.285111 -0.577213 0.123349 0.056824 0.076976 -0.070119 0.246863 0.075920 0.401112 -0.419740 -0.683170 -0.206353 0.824117 0.017336 0.738863 0.138807 -0.719979 -0.234951 -0.039308
neck -0.317150 -0.373557 -0.050594 0.153185 0.090854 -0.071239 0.230421 0.055493 -0.101822 -0.329634 -0.643457 0.745937 0.164672 0.178956 0.323179 0.009766 -0.126800 -0.082052 0.892039 -0.401836 -0.605233 -0.180464 0.089368 -0.019919 -0.161286 -0.562029 0.721128 0.229853 -0.160181 0.430363 0.504633 -0.221624 -0.430510 0.126881 0.282512 -0.099270 -0.254469 -0.097905 -0.032605 -0.420922 -0.346660 -0.801558 -0.010266 0.072444 0.126039 0.949776 -0.119250 0.055569 -0.089972 -0.352058
although -0.177091 -0.374415 -0.016223 0.289727 0.425614 -0.314378 -0.159993 0.330648 0.108849 -0.648811 -0.450314 0.595525 0.263761 0.269182 0.358803 -0.013603 -0.059007 0.049292 0.609666 -0.448269 -0.563357 -0.401160 -0.233612 0.372559 -0.088762 -0.673871 0.387274 0.321736 0.014292 0.226298 0.043270 0.348270 0.031216 -0.481495 0.114650 0.098717 -0.235048 0.557702 -0.162939 -0.210123 -0.187993 -0.606968 -0.016132 0.376568 0.228384 0.431824 0.078652 -0.572359 0.062687 0.099860
did -0.393127 -0.906350 -0.698753 0.205194 0.285866 -0.265397 0.180062 0.063696 -0.475029 -0.298703 0.113619 0.929533 0.001167 -0.791257 0.465563 0.095944 0.204711 0.390974 0.856553 -0.282616 -0.409283 -0.420656 0.035961 0.181601 -0.605773 -1.141582 0.781272 -0.103777 0.080058 0.722454 0.091766 0.217342 -0.412005 -0.548426 0.500685 0.224247 -0.293455 0.444705 -0.328632 0.186462 -0.239653 -0.919842 -0.235642 0.484782 -0.200423 0.456892 0.240052 -0.868540 0.212558 -0.069360
have -0.961622 -0.622497 0.137304 -0.030101 0.097920 -0.436812 0.366873 0.020183 0.278347 -0.707322 -0.631415 0.153024 0.288332 0.593219 1.303757 0.265821 0.522815 0.697847 0.851428 -0.591582 -0.561048 -0.299809 -0.480967 0.103711 -0.518956 -0.915229 0.338146 -0.303076 0.420405 -0.226075 -0.263766 0.021681 -0.093957 -0.105535 0.466372 0.025706 -0.244903 0.594243 0.523114 0.770615 -1.166145 -0.846760 -0.445840 0.801114 0.500359 0.291037 0.238337 -0.219043 0.193035 0.198412
large -0.522197 -0.810757 -0.411005 0.534758 0.043444 0.133770 0.121752 0.198674 0.387309 0.219375 -0.419406 0.391967 0.395212 0.364301 0.631897 -0.040800 -0.221118 0.123224 0.761782 -0.301575 -0.381207 -0.764644 0.041507 0.226708 0.377403 -0.415632 0.580124 0.490884 -0.229771 0.274331 0.532896 -0.086069 0.223618 0.008281 0.507449 -0.498901 0.073268 -0.431224 -0.292697 -0.135999 -0.553413 -0.315986 0.142403 0.069315 0.118019 0.838687 -0.604062 -0.292951 0.014086 -0.017566
mustache -0.282361 -0.663879 -0.022585 -0.146764 0.362927 -0.001105 -0.030914 0.282794 0.170192 -0.424259 -0.249862 0.453760 0.109356 -0.211503 0.595353 0.089834 -0.174622 0.004781 0.504134 -0.525720 -0.307841 0.077641 -0.122767 0.383305 -0.049180 -0.531542 0.536193 -0.093734 -0.137612 0.047276 0.264769 -0.127366 -0.083802 -0.169915 0.428089 -0.133091 -0.224273 0.154443 -0.272683 0.070546 0.028506 -0.494707 0.119137 -0.314141 -0.163963 0.561403 -0.297779 -0.307919 0.177643 -0.529523
thin -0.241958 -0.782857 -0.265959 0.291236 0.113086 0.199182 0.062645 0.226741 0.213163 -0.241498 -0.445542 0.452401 0.135376 0.288290 0.583509 0.017051 -0.471526 0.018308 0.653490 -0.725663 -0.389666 -0.344084 -0.041354 0.071378 0.138091 -0.509796 0.205691 0.317897 -0.142818 -0.166947 0.253184 0.046468 0.386831 -0.250456 0.693811 -0.399632 -0.138407 -0.078035 -0.090148 -0.296569 -0.142961 -0.709240 -0.000270 0.434290 0.246143 0.793313 0.051785 -0.075954 -0.199198 -0.213625
blonde -0.205245 -0.226830 0.148358 -0.302503 0.352093 -0.047645 -0.180696 -0.159083 -0.197759 -0.563278 0.058330 0.577863 0.206097 -0.065017 0.058286 0.195571 0.067800 -0.236870 0.330202 -0.264445 -0.324305 -0.236177 -0.133356 -0.090620 -0.162202 -0.386519 0.262115 0.110814 -0.034297 -0.054110 0.022933 -0.017847 0.221797 -0.014772 0.215154 -0.059640 -0.363824 -0.172124 -0.591262 0.060016 -0.535683 -0.272749 0.175921 0.138036 -0.136714 0.718684 -0.079003 -0.419358 0.198880 -0.324860
had -0.870206 -0.746161 -0.141696 0.505643 0.309084 0.950011 0.524026 -0.468450 0.656983 -0.615619 -0.593020 0.717831 0.002304 0.160035 1.574446 -0.248435 0.056435 -0.229382 0.536755 0.088049 -0.330029 0.088166 -0.981889 0.150058 -0.014260 -0.819491 0.635698 0.564489 -0.304531 0.073127 0.279910 0.190701 -0.266664 0.429872 -0.091739 0.253869 -0.072453 0.874422 -0.079588 0.565959 -0.454881 -1.024438 -0.503009 0.642332 0.048481 0.354634 -0.043556 -0.154500 -0.313393 -0.102972
nearly -0.568222 -0.837079 0.133476 0.241462 0.318041 0.161056 0.087028 0.801103 0.019963 -0.607653 -0.040298 0.479663 -0.374180 -0.031468 0.216941 -0.101920 0.377017 0.518237 0.548365 -0.348055 -0.741503 -0.083134 -0.760737 -0.142240 -0.192719 -0.808199 0.370883 0.344770 -0.066002 0.465387 0.464099 -0.296185 -0.104676 -0.214613 0.457213 0.340901 -0.228926 -0.014454 0.012700 -0.311777 -0.002885 -0.372455 -0.357568 -0.138853 -0.368866 0.808130 0.406329 -0.210668 -0.299947 0.219445
twice -0.442137 -0.662019 -0.411474 0.258817 0.586392 0.413621 -0.026471 0.205027 0.244738 -0.772836 -0.241418 0.603665 0.139094 0.158745 0.306926 -0.312055 0.156869 0.196434 0.470342 -0.495519 -0.084510 -0.335797 -0.194775 0.331498 0.064119 -0.499248 0.078653 0.628146 0.071846 -0.111793 0.527068 -0.322981 -0.107782 -0.038977 0.325739 0.069620 -0.047881 0.031740 -0.096155 -0.146484 -0.373842 -0.213434 -0.226730 0.528853 0.048337 0.572199 0.206836 -0.626819 -0.044685 0.062320
usual -0.145948 -0.809220 0.321705 0.176976 0.398792 -0.252079 -0.193154 0.430189 -0.243636 -0.822882 -0.350893 0.721932 0.639618 -0.167696 0.614907 -0.006793 -0.137929 0.145776 0.054498 -0.266178 -0.165828 -0.452924 -0.363964 -0.099218 0.050220 -0.802901 0.305571 0.312348 0.002158 -0.070104 0.412465 -0.494339 -0.204105 0.040989 0.041917 -0.019879 0.098988 0.108444 -0.207938 -0.406880 -0.411101 -0.603505 0.011504 0.184595 0.118792 0.959647 0.198850 -0.463624 0.295090 -0.093635
amount -0.293527 -0.129616 -0.261987 0.283102 0.105048 -0.080475 -0.078167 -0.091223 -0.136940 -0.373251 0.119719 0.140404 0.110947 0.215849 0.237828 -0.046765 -0.215236 -0.010234 0.234134 -0.069331 -0.425338 0.110853 -0.057155 0.293542 0.207698 -0.261182 -0.173660 0.106626 0.059123 0.447409 0.189884 -0.198458 -0.016889 0.022700 0.286378 0.441951 0.157295 -0.050366 -0.000831 -0.046573 0.144501 0.019149 -0.116229 0.348686 0.264254 0.609727 -0.123300 -0.080606 0.164655 -0.125521
came -0.317448 -1.015887 -0.510405 -0.033551 0.407247 0.134451 0.059435 0.115846 0.215418 -0.183500 -0.419743 0.478192 -0.493693 -0.388400 0.831651 0.183302 0.002660 0.169062 0.256049 -0.427362 -0.349907 -0.587527 0.046669 0.137726 -0.136492 -0.594803 0.223743 0.428212 -0.331935 0.160137 0.522808 -0.611880 -0.358838 0.286433 0.662664 -0.077548 0.120369 0.203261 -0.034108 0.008425 -0.103432 -0.270848 -0.101218 0.236848 -0.333543 0.998908 -0.209162 -0.504214 -0.040195 -0.320197
useful -0.550407 -0.368424 0.050520 -0.240343 0.546992 0.048058 0.209493 0.375221 0.262987 -0.277520 -0.294434 0.478341 0.172644 0.156554 0.712379 0.222421 0.302479 -0.122687 0.633699 -0.337560 -0.327182 0.011250 0.009540 0.308914 0.159115 -0.364496 -0.097337 -0.085703 0.347264 -0.088613 0.415772 -0.163860 -0.125400 -0.157299 0.125308 -0.262526 -0.105475 0.112565 -0.248300 0.044212 -0.336097 -0.636878 -0.030428 -0.048791 -0.018141 0.537722 -0.055051 -0.512197 -0.287035 0.006005
as -0.611828 -0.536789 -0.628793 -0.081181 0.278827 -0.188886 0.070455 0.803475 -0.399296 -0.245309 -0.570123 0.254564 0.826110 -0.515768 0.709683 -0.167075 0.153053 0.183563 0.121814 -0.429578 -0.470694 0.304618 -0.497037 -0.748584 -0.506153 -0.841776 0.909520 1.626770 0.592645 -0.112061 0.024135 -0.285668 0.328859 0.127928 0.094892 -0.118296 -0.122585 0.073135 -0.519186 0.240584 -0.964323 -0.832846 0.424576 0.384030 0.658035 0.842411 -0.223292 -0.696379 -0.127752 -0.401274
she -0.559851 -0.468040 -0.142837 0.085027 0.025983 -0.326691 0.107484 -0.104785 -0.193038 -0.161463 -0.780757 0.514679 0.846895 0.112841 0.664406 -0.592516 0.434591 0.198155 0.613079 -0.944122 -0.380665 -0.014747 -0.294903 -0.473377 -0.419185 -0.724732 0.632395 0.607833 -0.526226 0.246640 0.062634 -0.455102 -0.711817 -0.370310 0.799878 -0.363680 -0.085308 0.106134 -0.580615 0.545854 -0.121116 -0.646853 -0.390480 0.477901 0.041632 0.448605 -0.290279 -0.531884 -0.143825 -0.052182
spent -0.676250 -0.643199 -0.559378 -0.343664 0.249984 0.008263 0.125720 0.384478 -0.222267 -0.110465 -0.623036 0.302807 0.056072 0.051352 0.242883 -0.105954 -0.114779 0.217178 0.469858 -0.449123 -0.516087 -0.142473 0.109378 0.380504 -0.320217 -0.579344 0.609345 -0.040473 0.026685 0.177630 0.187072 -0.102204 0.015245 0.097386 0.049604 -0.069712 -0.163726 0.361023 -0.445442 -0.090464 -0.600983 -0.652679 0.278718 0.182063 0.215253 0.837153 0.059218 -0.744674 0.267373 0.333013
so -0.715132 -0.465365 -0.087539 0.090821 0.658899 -0.289128 0.365783 -0.042058 -0.466413 -0.644405 -0.266515 0.422922 0.020974 0.071340 0.709810 0.090536 0.160243 -0.096590 0.630462 -0.891613 -0.426287 -0.061441 -0.523455 -0.143555 -0.102260 -0.647207 0.239070 0.132321 0.622464 0.591017 -0.117138 -0.790374 -0.041064 0.060232 0.651551 0.220421 -0.224728 0.631565 -0.801661 0.316428 -0.406655 -1.045876 -0.045721 0.555772 0.040502 0.289176 -0.319732 -0.709020 -0.333825 0.167292
her -0.186305 -0.931881 -0.155313 0.021068 0.249614 -0.344817 0.964552 0.371273 0.082197 -0.347921 -0.433290 0.539647 0.001141 -0.580482 0.782526 -0.223822 -0.009630 0.081526 0.716563 -0.490069 -1.292684 -0.611389 0.100620 0.194871 0.021275 -0.364266 0.288471 0.655579 -0.052147 -0.312745 0.361738 -1.104155 0.201857 -0.200255 0.152887 -0.166728 0.112199 0.121183 -0.460572 0.174408 -0.364935 -0.245510 -0.533250 -0.068702 0.177223 0.356303 -0.217990 -0.034554 -0.819038 -0.182494
time -0.765313 -0.883832 -0.687892 0.487606 0.269499 0.084402 0.958202 0.031227 0.077723 -0.712333 -0.434894 0.025647 0.774621 0.034973 0.401185 -0.165485 0.229504 0.253957 0.511983 -0.570152 -0.346839 -0.148423 -0.306112 0.811346 -0.424661 -1.162907 0.503554 0.175074 -0.510180 -0.139344 -0.054686 -0.214225 0.010057 0.075883 0.604464 -0.134265 -0.448013 0.232822 0.206465 -0.113858 -0.227908 -0.843232 -0.193236 0.524511 0.120864 0.748184 0.100913 -0.458738 0.261147 0.004340
craning -0.199409 -0.587425 -0.214821 0.028372 0.365434 -0.029943 -0.059388 0.216378 -0.018970 -0.097991 -0.564868 0.051279 0.222032 -0.145118 0.401853 -0.127213 0.071438 0.037730 0.204148 -0.531977 0.078865 -0.208499 0.408460 0.347378 0.102186 -0.404922 0.052986 -0.035935 -0.075646 -0.035481 0.101110 -0.100442 0.065144 -0.101459 0.243524 -0.013090 0.095662 0.185963 -0.084481 0.022032 -0.248101 0.261917 -0.533049 0.549624 0.054672 0.877312 0.199606 -0.142325 -0.019723 -0.151938
over -0.990555 -0.500297 -0.507321 0.331899 -0.153850 0.007046 -0.028181 0.455452 0.021609 -0.499085 -1.055241 0.178547 0.143119 -0.448678 0.750772 -0.062669 0.229225 0.137506 0.740433 -0.211848 -0.626054 -0.226017 0.267652 0.012024 -0.477376 0.120683 0.745175 1.168642 0.557550 0.483773 0.134406 -0.519497 -0.088146 0.140255 0.497866 -0.247468 0.305096 0.264978 -0.432223 -0.089698 -0.420508 0.026511 -0.463303 -0.336734 0.025408 1.070613 -0.072584 -0.308640 -0.366892 -0.113816
garden -0.200245 -0.756517 0.001994 -0.085678 0.203415 0.107729 -0.214245 0.340884 0.136444 -0.477849 -0.392538 0.458863 -0.122612 0.022477 0.480471 0.043428 -0.509033 -0.333210 0.776744 -0.262172 -0.681162 0.006877 0.156267 0.180236 -0.321824 -0.162393 0.055230 -0.170033 0.216486 0.352051 0.537080 -0.160435 -0.118481 -0.020487 0.218224 -0.155015 -0.120550 0.149241 -0.518998 -0.033363 -0.045977 0.009320 -0.219126 -0.026291 -0.074319 0.941142 0.000725 -0.529621 -0.159394 0.102330
fences -0.344774 -0.281805 0.374716 -0.150699 0.128803 0.391546 -0.125941 0.158901 0.151957 -0.117586 -0.093573 0.123349 -0.130944 0.010774 0.281451 -0.001998 -0.075662 -0.089879 0.461042 -0.179398 -0.326666 -0.120022 0.010809 0.307860 0.075769 -0.044622 0.526288 0.070951 -0.150183 0.127206 0.307597 -0.077733 0.191437 0.042644 0.141866 -0.160387 -0.019174 0.541557 -0.252026 -0.258832 -0.216929 0.160311 0.152395 0.131712 0.016460 0.388198 -0.037166 -0.093113 -0.057160 -0.239056
spying -0.434953 -0.528511 -0.177853 -0.041073 0.328382 -0.107374 -0.220688 0.210720 0.286303 -0.603673 -0.413294 0.218571 0.039899 -0.269281 0.375340 -0.099446 -0.125903 0.418793 0.144523 0.012629 -0.293199 -0.060068 -0.060864 0.241843 -0.085567 -0.434216 0.361859 0.281010 0.472293 0.203305 0.029850 -0.048915 0.115708 -0.013226 0.372419 -0.017945 0.125360 -0.120718 -0.308954 0.202593 0.103765 -0.382686 -0.087008 -0.145424 0.009861 0.466793 0.074805 -0.292922 0.134639 -0.199101
on -0.702751 -0.985652 -0.199700 0.242718 -0.106339 -0.002470 0.455376 -0.095949 -0.045100 -0.849514 -0.467142 0.649827 0.317488 -0.323038 0.835722 0.193231 0.404867 0.276591 0.975885 0.477054 -0.277010 0.192417 0.680525 0.181390 0.134868 -0.269353 -0.099054 0.449082 0.177044 -0.215489 -0.199589 -0.667101 0.136790 -0.424195 0.536615 -0.179472 0.485974 -0.358969 -1.009020 0.143035 -0.301556 -0.236195 -0.397691 0.532476 0.053101 1.252779 0.249429 -0.039784 -0.037964 0.378182
neighbors -0.413213 -0.415132 0.004121 0.009425 0.131012 0.128564 -0.099275 -0.053843 0.082360 -0.130299 -0.511843 0.271397 0.230998 -0.191207 0.167049 0.167277 -0.232212 -0.190576 0.409874 -0.467618 -0.630518 -0.082938 0.154792 0.316910 0.113097 -0.710719 0.039097 0.057218 0.130541 0.093227 0.268472 -0.185837 0.037476 -0.169828 0.600547 -0.143079 0.013188 0.061115 -0.064781 -0.152997 -0.291617 -0.047920 0.060234 0.014221 -0.438655 0.696859 -0.360016 0.105086 0.052892 -0.333084
dursleys -0.540218 -0.333781 0.350379 -0.086930 0.210962 0.066004 -0.071177 0.418337 -0.164561 -0.598293 -0.569610 0.625816 0.468987 0.122662 0.512291 -0.136161 0.121648 -0.023962 0.492952 -0.214283 -0.219623 -0.026142 0.133444 0.543023 -0.396268 -1.435823 0.493706 0.455123 0.328060 -0.234991 -0.009942 -0.327215 -0.380501 0.075560 0.826677 -0.182949 -0.353586 -0.035522 -0.386984 -0.033807 -0.471358 -0.882475 -0.257061 0.470815 -0.628847 0.564540 -0.199677 -0.790793 0.352251 -0.135656
small -0.015084 -1.049931 0.102223 0.434724 0.365614 -0.367065 0.138140 0.274491 0.043611 -0.256423 -0.504087 -0.144660 -0.115088 0.524130 0.636218 -0.005963 -0.130110 0.031067 0.690047 -0.392282 -0.507747 -0.656945 0.097300 -0.002807 0.108875 -0.605524 0.441309 0.335135 -0.307965 0.145177 0.282368 -0.012321 -0.018061 -0.474407 0.779313 -0.160223 0.073588 -0.072563 -0.366930 -0.249162 -0.275711 -0.130587 -0.048804 0.273185 -0.254097 0.844273 -0.465481 -0.549048 -0.003299 -0.205057
son -0.441140 -0.621296 0.305407 -0.345821 0.272522 0.158643 -0.131933 0.208313 0.296071 -0.352955 -0.384758 0.251456 -0.104842 -0.185908 0.258592 -0.190124 0.060210 0.521633 0.833890 -0.434669 -0.293207 0.086213 -0.140834 0.129677 -0.536098 -0.826925 0.236089 0.058642 0.120911 0.205495 -0.051706 0.008398 -0.050779 -0.167837 0.611708 0.010877 0.016276 -0.128892 0.290436 -0.167904 -0.175796 -0.357218 0.294176 0.035880 0.105985 0.745300 -0.166299 -0.581983 -0.006724 0.070976
dudley -0.931445 -0.432158 -0.076998 0.557921 0.072370 0.255683 -0.018564 -0.023319 0.317083 -0.334653 -0.102884 0.363809 0.299878 -0.137259 0.342786 -0.281723 0.070401 -0.331162 0.355621 -1.200377 -0.710432 0.017084 -0.145892 0.252981 0.018381 -0.501473 0.609505 0.729948 -0.202924 0.154189 0.286253 -0.311625 -0.642561 0.092696 0.833808 0.050121 -0.041110 -0.044812 -0.260335 0.030358 -0.201542 -0.788644 -0.111755 0.337700 -0.273563 0.600059 -0.104429 -0.570935 -0.514287 0.298954
their -1.019166 -1.083141 -0.511691 0.238880 0.707871 -0.183374 0.078475 0.181673 0.157880 0.066404 -0.098567 0.452878 0.094805 -0.281796 1.118285 -0.252127 -0.293169 -0.209763 -0.120972 -0.637704 -0.566720 -0.251404 0.400662 0.604076 0.127584 -0.398457 -0.260867 0.825259 -0.328024 0.133785 -0.025181 -1.005252 -0.311792 0.005769 0.142652 0.003474 -0.083851 0.035468 -0.331928 0.173966 -0.721667 0.220625 0.001674 0.594137 -0.179915 0.597949 -0.644405 -0.290194 -0.268394 -0.557939
opinion -0.706532 -0.602123 0.005662 -0.299090 0.054782 0.467753 0.136460 -0.080024 -0.039801 -0.257505 -0.466538 0.522573 0.060135 0.049693 0.019064 0.059597 -0.139657 0.248190 0.833234 -0.400566 -0.265306 -0.337283 -0.047955 0.271287 0.290871 -0.336515 -0.015193 0.341438 0.103928 0.183496 0.238514 0.066291 -0.090566 -0.268836 0.251145 -0.075581 -0.309685 0.349187 -0.435965 -0.016033 -0.445769 -0.278453 0.095897 0.092201 0.362605 0.343613 -0.045268 -0.383254 0.390843 -0.187185
there -0.895793 -0.753536 -0.365859 -0.113276 0.548258 0.196074 -0.154486 -0.221067 -0.738302 -0.515850 0.001492 0.002169 -0.125417 0.510453 0.687089 0.177487 0.363962 0.504188 0.410207 -0.714484 -0.397163 -0.536052 -0.110350 0.252268 0.285909 -0.996929 0.348416 0.241618 0.050861 0.374867 0.050167 -0.156903 -0.506819 -0.608877 1.222921 0.232190 -0.241342 0.266301 0.050145 -0.052190 -0.222659 -0.786792 -0.109249 -0.102268 -0.316831 0.776801 -0.050058 -0.959145 -0.836211 -0.013853
no -0.453234 -0.037373 0.189285 -0.402263 1.108097 0.439312 0.390346 0.028921 0.415964 -0.264441 -0.058690 0.093212 0.024048 -0.246576 0.650400 -0.117400 0.694333 0.239906 1.079742 -0.658470 -0.700310 -0.898339 -0.084112 0.340999 0.682757 -1.176959 -0.268826 0.059200 0.220889 -0.033631 -0.057116 -0.238588 -0.439885 -0.163074 0.609849 0.034285 -0.477974 0.737999 -0.280071 0.202777 -0.484435 -0.605390 0.292108 0.105884 -0.339687 0.667736 -0.304045 -0.872010 -0.381633 0.680077
finer -0.517609 -0.195277 -0.001507 0.144398 -0.106675 -0.165095 -0.288920 0.230012 0.142425 -0.272192 -0.212401 0.160302 0.125413 0.241891 0.660928 0.201089 -0.330671 0.308795 0.253302 -0.511603 -0.293772 -0.185270 0.226380 -0.115707 -0.134881 0.191911 -0.005143 0.183049 -0.301870 0.130601 0.452440 -0.153675 -0.143279 0.032767 0.348840 -0.086789 -0.640113 0.237353 0.116171 -0.166367 -0.193228 -0.081024 -0.039290 0.045266 -0.148556 0.499790 -0.195726 -0.295034 -0.038805 -0.144730
anywhere -0.610505 -0.569108 0.132386 -0.076264 0.182237 0.077915 0.361057 0.111040 -0.196716 -0.319514 -0.223992 0.536002 0.252446 0.063108 0.139228 -0.577704 0.139951 0.379250 0.597481 -0.378975 -0.486759 -0.163616 -0.196098 0.717456 -0.151796 -0.688020 0.204800 0.227497 0.377489 -0.154664 0.204173 -0.148670 -0.173666 0.434541 0.580536 -0.193145 -0.271999 -0.032192 -0.195450 0.194081 -0.017496 -0.402966 0.095504 0.313182 0.092296 0.497379 -0.016601 -0.310321 0.032163 -0.073552
everything -0.539694 -0.760930 -0.070654 0.460050 -0.131700 0.011142 -0.010081 0.344244 -0.074856 -0.580497 -0.398052 0.714506 -0.254109 -0.379722 0.063623 -0.460202 0.036379 0.203690 0.566472 -0.452059 -0.257372 -0.502666 -0.109647 0.263594 -0.302404 -0.786309 0.805069 0.127587 0.032279 -0.229925 0.383116 -0.458197 -0.337159 -0.547402 0.407756 -0.017016 -0.470965 0.044770 -0.448273 -0.053956 -0.316020 -0.719773 -0.181135 0.615327 -0.084513 0.385314 -0.392994 -0.526789 -0.045578 0.143753
wanted -0.357310 -0.774667 -0.752909 0.171296 0.809736 -0.171010 0.422981 0.363954 -0.196176 -0.568482 -0.357497 0.433476 0.063708 -0.478866 0.422547 0.050245 0.212964 0.412871 0.481511 -0.691695 -0.587096 -0.301172 -0.497979 0.380200 -0.371893 -0.649350 0.754098 -0.086999 0.161378 0.329371 0.519618 0.207539 -0.489773 -0.534259 0.251031 0.068989 -0.445016 0.404175 -0.204282 0.351042 -0.332303 -1.032172 -0.401196 0.689655 -0.526588 0.781650 0.165780 -0.278407 -0.388664 0.065973
but -0.681376 -0.302948 -0.237684 -0.079462 0.364246 0.173061 0.201577 0.191045 -0.116916 -1.091551 -0.256916 0.222916 0.089204 -0.209619 0.556315 -0.408019 -0.055322 0.095215 0.964728 -0.550720 -0.510614 0.090775 0.008070 0.185755 0.270763 -0.790132 0.818875 0.099242 -0.158698 0.329284 0.015208 -0.365549 -0.358519 -0.426301 0.195610 0.287974 0.136358 0.206511 0.138366 0.454178 -0.312285 -0.093166 -0.022808 0.560032 -0.058853 0.730161 -0.041519 -1.050496 -0.351474 0.206316
also -0.259711 -0.551061 -0.342433 0.161091 0.588728 0.506619 0.229703 -0.000223 0.237120 -0.387005 -0.451156 0.368348 -0.182519 0.001639 0.544682 -0.281228 0.086526 0.169592 0.698150 -0.649090 -0.313606 -0.148240 -0.448387 0.563221 0.109897 -0.782516 0.274374 -0.068104 -0.002277 0.200219 -0.052240 0.001909 -0.487955 -0.041680 0.422710 -0.004301 0.143350 -0.003948 -0.478387 0.032728 -0.173621 -0.953545 0.126726 -0.191634 -0.188978 0.521691 0.028068 -0.559151 0.181411 0.085329
secret -0.528276 -0.910727 0.001348 0.064639 0.295215 0.044330 0.106108 0.244808 0.015409 -0.334172 -0.530854 0.425805 0.032324 0.383911 0.273254 -0.156598 0.143255 0.065146 0.740209 -0.310065 -0.245670 -0.433008 -0.392961 0.143060 -0.636797 -0.610786 0.359629 0.053733 0.130673 0.125594 0.518513 -0.110979 -0.378924 -0.122231 0.430953 0.085964 0.149910 0.253232 -0.002280 -0.194266 -0.749197 -0.254399 -0.249094 0.155484 0.142784 0.600699 -0.071558 -0.339563 -0.097535 0.286321
greatest -0.434787 -0.497806 0.179833 -0.190185 0.437672 0.101380 -0.436139 -0.009781 0.197475 -0.270842 -0.352847 0.560947 0.240496 -0.107228 0.430631 0.117217 -0.219835 0.249187 0.546004 -0.176817 -0.615264 -0.264639 -0.086002 0.618737 -0.060171 -0.759319 0.115416 0.022758 0.395488 -0.369975 0.193849 -0.246196 -0.019364 -0.152926 0.351896 -0.374617 -0.004337 0.174843 -0.150550 -0.273610 -0.011770 -0.207469 0.082662 0.160441 0.003088 0.655682 -0.123523 -0.046834 0.135639 -0.039030
fear -0.711059 -0.574725 -0.064000 0.199177 0.146768 -0.108693 -0.056356 -0.202771 0.071480 -0.143800 -0.272903 0.618348 0.341162 0.120714 0.383272 -0.098445 -0.142088 -0.062030 0.458003 -0.511214 -0.376822 -0.121788 0.176920 0.335168 0.052398 -0.430299 0.190962 0.005099 0.113514 0.077812 0.594962 0.159861 -0.155922 0.050211 0.409219 -0.007643 -0.408913 -0.064840 -0.380620 0.271694 -0.153670 -0.660946 -0.140148 -0.048211 0.159902 0.908983 -0.129053 -0.195417 0.060000 -0.216579
somebody -0.721702 -0.223346 0.382257 0.230685 0.316596 -0.036756 0.173876 0.191945 -0.222157 -0.053454 -0.539219 0.124243 0.386648 0.353167 0.367743 0.217000 -0.471488 0.406743 0.543417 -0.109358 -0.245269 -0.074745 0.036038 -0.017005 -0.310119 -0.591709 0.290144 0.177714 0.168164 -0.117916 0.242241 -0.059455 -0.028338 -0.170117 0.131099 -0.140751 0.117651 -0.296061 -0.046462 0.069929 0.129725 -0.296840 -0.086463 0.181974 0.131083 0.589521 0.123085 -0.418010 -0.026764 -0.134462
would -0.769160 -0.500011 -0.492226 0.314256 0.225803 -0.027791 -0.258632 0.449524 -0.690318 -0.885770 -0.554369 0.375457 0.039064 -0.091107 0.524666 -0.149158 0.020325 0.523778 0.502820 -0.018463 -0.348097 -0.454661 -0.468017 0.775746 -0.338403 -0.683538 0.315978 -0.292447 -0.214392 0.328362 0.358152 0.084352 -0.647190 -0.116266 0.508054 -0.192654 0.007572 0.364879 -0.681867 0.862972 -0.184217 -1.093616 0.088238 0.434523 0.159324 0.505809 0.296509 -0.544068 -0.145440 0.066959
discover -0.231195 -0.245072 -0.220068 0.267511 0.236611 0.189105 0.087533 -0.188245 -0.123589 -0.204229 -0.126222 0.052611 0.198837 -0.189093 0.145536 0.121367 -0.076560 0.097770 0.214606 -0.186139 -0.189060 0.221669 -0.286046 0.020820 0.004249 -0.441029 0.144427 -0.237609 -0.302197 -0.113744 -0.167532 -0.268022 0.056818 -0.230919 0.242522 0.196884 0.168314 0.206329 -0.074674 -0.068734 -0.263775 -0.288862 0.083468 0.063146 -0.351791 0.310524 -0.364799 -0.002279 0.003253 -0.180736
it -0.548261 -0.772214 -0.506024 0.114580 0.019780 0.364573 -0.010490 0.539646 -0.621594 -0.621617 -0.483371 0.227316 0.709055 -0.156383 0.344211 -0.285416 0.233033 0.547871 0.917439 -0.972003 -0.440204 -0.368239 -0.242746 -0.291729 0.179570 -0.704825 0.280970 0.584553 -0.241676 0.019838 -0.089727 -0.407410 -0.370940 0.135484 0.675945 -0.205459 -0.260646 0.121618 -0.079224 0.567601 -0.342349 -0.741999 0.088475 0.598447 -0.564973 0.667531 -0.274173 -0.096627 -0.290203 -0.189598
think -0.567552 -0.561850 -0.394589 -0.232902 0.196651 -0.207984 0.610186 0.616426 -0.157817 -1.040912 -0.265805 0.922353 0.636721 -0.180063 0.450718 -0.242488 0.242614 0.971648 0.886685 -0.853332 -0.865718 -0.476184 -0.127305 0.029731 0.138368 -1.063339 0.424582 -0.572768 0.799303 0.184027 -0.116106 0.057371 -0.174701 -0.405323 0.409581 0.396671 -0.393631 0.775420 0.409900 0.685797 -0.536173 -0.873040 0.192840 0.484404 -0.168763 0.663450 -0.265872 -0.561500 -0.058774 0.235869
could -0.701519 -0.980094 -0.937402 0.394606 -0.008940 0.270472 -0.502352 0.554872 -0.416260 -0.377579 -0.117041 0.834956 0.110680 -0.454596 0.210865 -0.635801 0.429005 0.460148 0.792873 -0.113376 -0.526949 0.126391 -0.392449 0.489552 -0.719186 -1.634897 0.398603 -0.294618 -0.356854 0.683102 -0.248119 0.268352 -0.420589 -0.026550 0.050299 0.029042 0.260477 0.668666 -0.361492 0.163779 -0.729783 -0.880147 -0.344972 0.472173 0.016541 0.516365 0.077318 -0.131679 -0.132957 -0.198603
bear -0.489682 -0.259311 0.210997 -0.005856 0.207633 0.100925 -0.133612 -0.011974 0.068872 -0.411174 -0.502231 0.510250 0.283971 -0.400974 0.461759 -0.072680 -0.324565 0.089750 0.293122 -0.222244 -0.198932 -0.477211 -0.057345 -0.008174 -0.029143 -0.473040 0.553098 -0.255524 0.027033 0.162227 0.537133 -0.050238 -0.037646 -0.501219 0.432685 -0.115011 -0.072112 0.017550 -0.304331 0.233182 -0.107484 -0.831884 0.347561 -0.154501 0.118184 0.475619 -0.101651 -0.187087 0.271694 -0.050901
if -0.814543 -0.402524 -0.178990 0.051703 0.276422 -0.358169 -0.198103 0.583287 -0.737553 -1.177434 -0.007251 0.672639 0.491918 -0.513043 0.630737 -0.724113 0.129560 0.411736 0.481422 -0.343302 -0.485442 -0.639939 -0.176397 -0.239534 0.279696 -1.184031 0.337681 0.065234 0.508862 0.088757 -0.151343 -0.482404 -0.424712 -0.273426 0.112458 0.656403 0.162215 0.130743 -0.288202 0.392978 -0.717046 -0.915877 -0.293842 0.336620 -0.205160 0.599642 -0.266103 -0.428035 -0.088053 0.173926
anyone -0.574277 -0.616832 -0.533213 -0.216946 0.294401 -0.204424 0.092096 0.275395 -0.293878 -0.662438 -0.138211 -0.167417 0.551313 -0.381467 0.485411 -0.323008 0.119586 0.636846 0.619136 -1.002320 -0.514362 -0.604393 -0.472637 0.344156 -0.307416 -1.021385 0.282548 0.443413 0.088513 -0.182130 -0.002394 -0.387577 -0.526906 0.022264 0.493246 0.075261 0.049811 0.235857 -0.388960 0.257543 -0.485052 -1.003123 -0.098112 0.545834 -0.435451 0.376562 -0.147893 -0.521210 -0.062468 0.550385
found -0.481973 -0.799952 -0.259757 -0.025440 0.519824 0.001713 -0.138939 0.008237 -0.071715 -0.809642 -0.035741 0.743652 -0.275689 -0.213302 0.820250 -0.443227 0.233048 0.232915 0.734194 0.049350 -0.464616 -0.859670 -0.297775 0.538825 -0.234186 -0.890666 0.837452 -0.295276 -0.634164 0.105603 -0.286741 -0.240477 -0.521614 0.220319 0.378178 0.288376 -0.318464 0.487312 -0.105703 -0.156274 -0.237487 -0.635424 -0.126564 0.666811 -0.122811 0.722591 -0.025290 -0.588890 0.171448 0.144693
out -0.702458 -1.208901 -0.470057 0.565224 -0.722994 -0.095606 0.488333 0.138311 0.532215 -1.045055 -0.431336 0.158310 -0.514116 -0.114384 0.276443 -0.464401 0.772189 -0.046115 0.764422 -0.034118 -0.191037 -0.475420 -0.381156 -0.017919 -0.292014 -0.678410 0.332678 0.505132 0.398862 0.062462 0.376116 -0.193594 0.088780 0.029941 0.325515 0.374624 -0.684912 -0.201116 -0.391591 0.014594 -0.637922 -0.364613 -0.181662 0.051990 0.111976 1.292948 -0.781312 -0.348665 -0.639335 -0.468342
about -0.937826 -0.174719 -0.285674 0.371940 0.248286 -0.103595 0.265022 0.033303 -0.478006 -0.685082 -0.386811 0.077998 0.255805 -0.127074 0.544779 -0.413450 0.025300 0.292258 0.733378 -0.173148 -0.264975 -0.733882 -0.390494 0.082043 -0.038052 -0.519836 0.425641 -0.022856 0.292208 0.445337 0.429583 -0.259042 -0.214972 -0.573900 0.929807 -0.322329 -0.316409 0.120948 -0.499780 0.202863 -0.359683 -0.657085 -0.711718 0.566416 0.315578 0.384419 0.544906 -0.536246 0.517277 -0.307169
potters -0.341802 -0.568841 -0.291634 0.363486 0.198984 -0.222152 -0.110262 0.075227 0.117874 -0.453959 -0.627823 0.446014 0.166722 -0.351171 0.563619 -0.625735 -0.001786 0.171223 0.608352 -0.095323 -0.511855 -0.266477 -0.106414 0.252029 -0.169229 -0.701434 0.418431 -0.096472 0.680972 0.032107 0.413277 -0.117257 -0.256185 -0.032445 0.733548 -0.047701 -0.350769 0.444779 -0.503856 -0.260481 -0.007957 -0.485265 -0.149447 0.226726 -0.089317 0.497663 0.109397 -0.557853 0.123800 0.177118
sister -0.486854 -0.739517 -0.334929 0.063749 0.133582 -0.033245 -0.126789 0.045748 0.195747 -0.496246 -0.281065 0.551506 0.055989 0.208116 0.366978 -0.377548 -0.095525 0.365414 0.557388 -0.004437 -0.157734 -0.274592 -0.351214 0.651551 -0.257756 -0.857182 0.795290 0.026259 -0.194008 0.361578 0.263678 -0.135786 -0.321210 -0.243057 0.483828 -0.086050 -0.003373 0.233403 -0.478436 -0.040886 -0.390714 -0.495575 -0.017730 0.195342 -0.228313 0.534973 -0.203697 -0.201275 -0.027428 -0.027218
hadnt -0.543377 -0.768620 -0.281536 0.050153 0.356259 -0.052934 0.247523 -0.029944 -0.421195 -1.033893 -0.587012 0.747916 -0.021758 0.116263 0.843797 -0.353863 -0.066955 -0.410667 0.614118 -0.498768 -0.554934 0.021854 -0.847234 0.360591 -0.522089 -0.757772 0.724535 -0.003503 -0.270653 -0.009951 -0.092125 0.179545 -0.513789 -0.303020 0.280118 -0.056837 -0.065698 0.689703 -0.074237 0.213426 -0.562256 -1.105770 0.072134 0.760738 0.042939 0.513067 0.204161 -0.648916 0.070120 0.061972
met -0.507160 -0.727848 -0.239293 -0.013324 0.461803 -0.069073 0.538393 0.363144 0.144180 -0.557644 -0.298682 0.864681 -0.174392 -0.164811 0.437733 -0.368976 0.024060 -0.042579 0.276057 0.030583 -0.427793 -0.001976 0.103240 -0.021607 -0.266496 -1.460431 0.482990 0.033003 -0.093160 0.362233 0.146002 -0.199094 -0.032851 -0.510750 0.357704 0.003252 -0.229962 0.205679 -0.464419 0.102432 -0.237887 -0.500551 -0.171020 0.265184 0.059930 0.567664 0.015003 -0.184452 0.275153 -0.055246
for -1.065631 -1.200701 -0.060545 0.104912 0.310518 0.552535 0.082942 0.038963 -0.403072 -0.198969 -0.572617 0.073471 0.112273 0.000600 0.898785 -0.120443 -0.346912 0.112837 0.278546 -0.273652 0.145094 -0.442673 -0.309006 0.591301 -0.315775 -0.629589 -0.048435 0.147513 0.132011 0.869063 -0.017003 -0.266399 -0.211957 -0.451480 0.648167 -0.359030 -0.104913 0.038286 0.197602 -0.397521 -0.207229 -0.388099 -0.241805 0.247806 0.330014 0.697385 0.298388 -0.293559 0.254080 0.435693
several -0.484109 -0.750334 -0.065374 0.007038 0.124851 -0.239199 0.269459 0.351841 0.127937 -0.145668 -0.409404 0.302908 0.186915 0.181158 0.792952 0.037818 -0.360892 0.149536 0.307839 -0.314646 -0.632450 0.078259 -0.281097 -0.032924 0.154513 -0.534603 0.422801 -0.046542 -0.039986 -0.217994 0.339475 -0.231382 -0.136037 -0.071865 0.325172 -0.192413 -0.416715 0.142597 0.017350 -0.008610 -0.233511 -0.452627 -0.025891 -0.115947 0.090383 1.051092 -0.345284 -0.523166 -0.376480 -0.222802
years -1.260055 -0.912110 -0.263400 0.239298 0.473632 -0.242838 0.100800 0.115989 0.217559 -0.666964 -0.299019 -0.105139 0.729186 0.064627 0.636138 -0.303583 -0.266708 0.153649 0.431579 -0.512465 -0.308015 -0.066325 -0.086196 0.310146 -0.169857 -0.667280 0.482790 0.409657 -0.767263 -0.064062 0.002700 -0.211661 -0.086988 -0.285360 0.817260 0.243399 -0.017767 0.375096 -0.110656 0.497384 0.148356 -0.442446 0.024350 0.256229 -0.395386 0.286741 -0.039496 -0.775636 0.347918 0.052403
fact -0.260895 -0.873706 0.102844 0.089102 0.278532 0.286210 0.408909 0.145192 0.117574 -0.228281 -0.502569 0.688151 0.153667 0.264552 0.499183 0.004473 0.069497 -0.073502 0.520376 -0.201119 -0.687996 -0.086672 -0.013216 0.626998 -0.149409 -0.624226 0.954965 0.317854 -0.124257 0.325468 0.042843 -0.110253 0.267932 -0.575838 0.708813 0.022638 -0.006598 0.430799 -0.200696 -0.049985 -0.298052 -0.597261 -0.282803 0.387191 -0.265289 0.627114 -0.093498 -0.756731 0.074372 -0.265985
pretended -0.565207 -0.327038 -0.065147 0.220936 0.297758 -0.037651 0.219470 -0.014954 -0.005986 -0.468936 0.000905 0.391693 -0.089525 -0.066187 0.568665 -0.136681 -0.047892 0.381749 0.288926 -0.109179 -0.107257 -0.221815 0.216967 0.262744 -0.178287 -0.670329 -0.084646 0.436417 0.012154 -0.138795 0.088667 -0.063121 -0.069288 0.175879 0.317517 0.046326 0.359779 -0.050348 -0.402552 -0.531364 -0.418581 -0.249918 0.195691 0.179161 0.065671 0.376531 0.066344 -0.506769 -0.181160 -0.108012
goodfornothing -0.489587 -0.271893 -0.453440 0.117630 0.067348 -0.270504 -0.180906 0.483285 0.081957 -0.170167 -0.068429 0.246639 -0.147703 0.348921 0.174354 -0.095018 0.223396 0.402237 0.381468 -0.282574 -0.155328 -0.049581 -0.089302 0.520501 0.364201 -0.164181 -0.075153 -0.154757 0.101648 -0.179246 0.294138 0.278573 -0.114643 -0.402317 0.277203 -0.151816 -0.427760 0.227334 -0.110306 -0.335542 -0.138028 -0.037418 -0.054363 0.220244 0.022235 0.275258 -0.112809 -0.137787 0.036671 0.037279
husband -0.521154 -0.284754 -0.102260 -0.198877 -0.152744 -0.071710 0.240565 0.176977 0.306205 0.284643 -0.012282 0.378682 0.309498 -0.260764 0.177924 -0.054238 0.250172 0.212901 0.139606 -0.302053 -0.264428 -0.021074 0.306005 -0.262351 0.182503 -0.063014 0.443311 0.394931 0.103153 0.083766 0.245650 0.115689 -0.093558 -0.043212 0.124809 -0.087189 -0.092764 0.380076 0.149140 -0.237825 -0.060253 -0.120889 -0.256564 0.321716 0.123767 0.604181 0.210405 -0.043766 0.030331 0.101888
undursleyish -0.171851 -0.193536 -0.366775 0.264440 0.019554 0.166110 -0.115404 0.047647 -0.141442 -0.038160 -0.086005 0.238347 -0.062570 0.224725 0.138203 -0.379505 -0.088534 0.059391 0.422714 -0.211323 -0.324742 0.058850 -0.503108 0.123242 0.004327 -0.489831 -0.036810 0.474106 -0.242969 0.255778 0.131813 0.182846 -0.137266 0.075527 -0.001308 0.345514 -0.164314 -0.205962 -0.279154 -0.207942 -0.424891 -0.157744 -0.181921 -0.167247 0.008122 -0.011279 0.637483 -0.258609 0.027897 -0.074959
possible -0.296394 -0.541838 -0.345717 -0.072366 0.095269 -0.115562 -0.318456 0.468849 -0.043363 -0.523106 -0.583799 0.489268 0.293386 -0.445363 0.624263 -0.095631 -0.047737 0.114957 0.411042 -0.755962 -0.509697 -0.158524 -0.138848 0.383707 -0.067490 -0.791554 0.434672 1.089567 0.166549 -0.128082 0.136052 -0.175365 -0.217223 -0.105795 -0.108292 0.329025 -0.156066 0.019360 -0.073535 -0.102486 -0.316223 -0.558758 0.044955 0.039136 0.185751 0.801378 0.097528 -0.354528 0.376985 -0.018044
shuddered -0.178118 -0.471479 -0.366525 0.046666 0.149336 0.071811 0.148641 0.438561 0.065719 -0.315651 -0.375687 0.294604 -0.093434 0.000846 0.219635 -0.165158 0.208453 -0.020778 0.395599 -0.224535 -0.227148 -0.315907 -0.000411 0.454923 -0.545599 -0.268113 -0.150980 -0.093514 0.072745 -0.036947 0.266300 -0.131019 0.025730 -0.246362 0.560569 -0.554136 -0.191729 -0.201904 -0.285244 0.080437 -0.104436 -0.379209 -0.074198 0.217368 0.267543 0.578857 -0.069995 -0.001038 -0.003874 -0.534558
what -0.690391 -0.266331 -0.443479 0.000723 0.336822 -0.258437 0.494199 0.028175 -0.665041 -1.376253 -0.597663 0.726906 0.285642 -0.149083 0.259974 -0.182828 0.210944 0.337091 0.817537 -0.802095 -0.549006 -0.659130 0.058262 -0.058118 0.205599 -1.045401 0.709606 -0.349742 0.117227 0.125656 0.314387 0.035288 -0.524773 -0.723500 0.391131 0.406730 -0.149925 0.413039 -0.616224 0.066519 -0.537177 -0.613192 -0.404104 0.564943 0.024353 -0.044292 -0.329514 -0.723813 -0.331750 -0.017001
arrived -0.540783 -0.624061 -0.225540 0.337675 0.472905 0.377622 0.219847 -0.146095 0.068076 -0.234706 -0.574412 0.709586 0.067375 -0.092908 0.603287 -0.248573 -0.328066 -0.170562 0.537806 -0.368515 -0.247042 -0.074515 -0.056815 0.421098 -0.030499 -1.118995 0.564424 0.348946 -0.127397 0.091768 0.171576 -0.094304 -0.034045 -0.247918 0.247023 0.105445 -0.389780 0.133514 -0.315563 -0.125865 -0.108653 -0.536284 -0.094090 -0.095721 0.105936 0.622796 -0.245489 -0.583430 -0.090578 -0.027866
street -0.759066 -1.052707 0.059923 -0.175869 0.088559 0.012760 -0.203128 -0.012482 0.153422 -0.324080 -0.288323 0.591641 -0.013190 0.013520 0.384779 0.350558 0.407593 -0.218302 0.407962 -0.145826 -0.774369 0.069486 0.166391 0.758260 -0.662293 -1.062463 0.475248 0.249777 0.035713 -0.341312 0.280573 0.139880 -0.178946 -0.354682 0.698116 -0.341920 -0.508391 0.101071 -0.507588 -0.199601 -0.107895 -0.232933 -0.416077 0.206667 -0.265652 0.815918 -0.170069 -0.558855 0.467573 -0.159115
knew -0.831622 -0.078755 -0.418227 -0.161452 0.500400 -0.014949 0.233064 0.241283 -0.371744 -1.062977 -0.232677 0.588010 -0.472917 -0.241539 0.597725 0.045390 -0.141746 0.243058 0.763024 -0.804877 -0.845111 -0.221723 -0.713082 0.454189 -0.243193 -1.224247 0.809893 -0.058939 -0.083299 0.561100 -0.210078 -0.115481 -0.039575 -0.127842 0.527179 0.147238 -0.485308 0.613950 0.038753 0.343874 -0.271904 -0.956222 0.137259 0.286222 -0.273325 0.706213 -0.109812 -0.766529 0.186355 0.512187
too -0.421420 -0.241938 -0.435400 0.067190 0.678938 -0.026046 0.325451 0.223709 0.093732 -0.909671 0.032730 0.225056 0.103966 0.474056 0.812544 0.199358 0.169371 0.425321 0.323317 -0.513035 -0.571847 -0.203316 -0.230439 -0.096178 -0.142232 -0.950156 -0.235172 0.645230 0.264424 0.436192 -0.023594 -0.249301 -0.151030 -0.385870 0.688673 -0.161594 -0.332954 -0.037605 0.098920 0.442402 -0.863842 -1.136476 -0.220901 -0.010083 -0.069419 0.515534 -0.050614 -0.593966 0.059371 0.281400
never -0.789398 -1.124734 -0.149317 -0.195870 0.268091 -0.443843 0.520010 0.144583 -0.275606 -0.762339 -0.543993 0.527777 0.302838 0.000873 0.454041 -0.214501 0.012826 0.191043 0.861225 -0.839505 -0.844118 -0.217455 -0.671631 0.437780 -0.270762 -0.830475 0.166945 -0.400624 -0.332650 -0.378996 -0.195756 -0.506091 -0.562519 0.277032 0.230953 0.288112 -0.242416 0.842952 -0.851822 0.737384 -0.283128 -1.381583 -0.791330 0.216575 0.081729 0.112804 0.137314 -0.740658 0.138181 0.697960
even -0.729980 -0.649523 0.022464 0.288661 0.199542 -0.068984 -0.208578 0.271189 -0.330512 -0.530789 -0.410826 0.003629 -0.021069 -0.283739 0.376349 -0.059437 0.005305 0.141463 0.682641 -0.455120 -0.647165 -0.721294 -0.602372 0.378267 -0.209343 -0.999183 0.291397 0.162637 -0.121413 -0.108382 0.198409 -0.152180 -0.520054 0.001259 0.270411 0.302535 -0.156861 0.074202 -0.035018 0.399725 -0.601471 -0.857042 -0.038582 0.347629 -0.209859 0.456306 0.138844 -0.438357 0.260722 0.252829
seen -0.549481 -1.033888 0.217930 0.330047 0.810961 0.237317 0.072982 0.046641 -0.205747 -0.970005 -0.291575 0.265245 -0.045534 0.257683 0.590337 -0.460875 -0.083467 0.399477 0.451769 -0.484935 -0.341989 -0.225734 -0.219327 0.596593 -0.121598 -1.160000 0.912472 -0.358583 -0.286462 0.207454 -0.062731 -0.111604 -0.197248 -0.010405 0.480018 0.395820 -0.288066 0.531340 -0.332036 0.462613 -0.279939 -1.148440 -0.660673 0.185696 -0.187885 0.362066 0.324126 -0.697686 -0.082068 0.168194
him -0.204503 -0.759185 -0.525646 0.063720 -0.628819 -0.288557 0.375709 0.158161 -0.212909 -0.834558 -1.026133 0.738702 -0.080614 -0.151582 0.692532 -0.442080 0.364428 -0.094735 0.462750 -1.169332 -0.564874 -0.521642 -0.359579 0.490478 -0.021174 -0.768030 -0.002357 0.060490 -0.210391 0.212037 0.438113 -0.180488 -0.504633 -0.117257 0.489522 -0.263236 -0.461564 -0.470312 -0.042598 0.560169 -0.772668 -0.558923 0.026388 0.039217 0.332112 0.169469 -0.377391 -0.196515 -0.431114 -0.411787
this -1.196425 -0.663498 -0.661908 0.218398 0.378765 0.008331 0.422378 0.228792 -0.637387 -0.680638 -0.808623 -0.174906 0.644234 -0.247119 0.387594 -0.149900 -0.405007 0.074168 1.399329 -0.317005 -0.637191 -1.042726 -0.225510 0.079513 -0.219046 -0.693609 0.288138 0.496697 -0.303281 0.274633 -0.243431 0.016235 -0.377121 -0.104409 0.119107 -0.105659 -0.393977 -0.172502 0.108311 0.306033 0.274740 -0.323701 -0.374411 0.567677 -0.034652 0.591742 -0.069566 -0.587924 0.194230 0.190764
another -0.805789 -1.085233 -0.032448 0.107779 0.248614 0.346585 0.556310 0.233785 -0.089834 -0.124423 -0.759918 0.501686 0.137173 -0.396873 0.567014 -0.333172 0.372257 0.094147 0.557977 -0.541373 -0.605295 -0.719621 -0.093558 0.305011 0.144576 -0.587707 0.037531 0.389278 -0.477828 0.222775 -0.103258 -0.336602 -0.264788 0.045565 0.394406 -0.131709 -0.250602 0.043083 -0.387764 0.212010 -0.554871 -0.272182 -0.292229 0.088131 -0.223888 0.343455 -0.161822 -0.508440 -0.018181 -0.022176
good -0.657005 -0.676514 -0.809045 -0.217357 0.952710 0.283573 0.833254 0.422538 -0.143719 -0.431688 -0.262874 0.265338 0.620281 0.210762 0.414480 -0.101352 0.502079 0.386614 0.644178 -0.812295 0.014472 -0.569183 -0.462408 -0.015295 -0.028170 -0.613375 0.131419 0.162775 -0.336833 0.499560 0.119564 0.193206 -0.485089 -0.191538 0.491066 -0.461220 -0.562648 0.072883 -0.044564 0.080735 -0.558295 -0.768640 -0.088178 0.358233 0.098719 0.684022 -0.382561 -1.003166 -0.010675 0.184564
reason -0.631205 -0.683833 -0.006317 0.294747 0.574506 0.059562 0.372519 0.245967 0.059271 -0.721458 -0.605163 0.449160 0.202119 0.515800 0.268923 -0.190401 0.245445 0.402330 0.423866 -0.574677 0.075230 -0.707433 0.304959 0.291758 0.006765 -0.971441 0.508311 0.206397 -0.046902 0.151924 0.283641 0.030011 0.044808 -0.710185 0.881871 -0.085106 -0.329337 0.028870 0.216048 0.230042 -0.308837 -0.592336 -0.165991 0.683416 -0.038399 0.637705 -0.373565 -0.642544 0.341175 0.244138
keeping -0.500439 -0.581276 -0.002933 0.289689 0.331220 0.114107 -0.311432 0.203770 -0.097336 -0.251598 -0.082496 0.481786 0.258322 0.015059 0.324342 0.111798 0.188514 0.114518 0.639472 -0.812852 -0.458487 -0.326495 0.052293 0.190707 -0.173401 -0.594866 0.462259 0.108549 -0.056659 -0.046478 0.530094 0.099862 0.166635 -0.283618 0.158915 0.007472 -0.400750 0.037558 -0.280420 -0.163453 -0.201125 -0.208342 0.052023 -0.099829 -0.383737 0.651664 -0.172417 -0.549869 0.082785 0.023292
away -0.274357 -1.016936 -0.115212 0.212993 0.435879 0.138551 -0.044693 0.169176 -0.553374 -0.462041 -0.689676 0.486810 0.168965 -0.151691 0.680694 -0.307180 0.035667 0.551524 0.154646 0.363628 -0.515920 -0.381313 0.132450 0.532866 -0.174781 -0.720398 0.438583 0.253240 0.117754 0.061516 0.354894 -0.693732 0.156013 0.006554 0.840197 0.177260 -0.005462 0.025301 -0.036155 -0.224870 -0.168284 -0.689332 0.125562 0.162566 0.129547 0.528238 0.189965 -0.722821 -0.287794 -0.299889
want -1.015727 -0.737482 -0.479680 -0.018745 0.162317 -0.632663 0.421002 0.316565 -0.157370 -1.088568 -0.167422 0.768690 0.225694 -0.792051 0.689425 -0.363636 0.354203 0.772899 0.866388 -0.396434 -0.837069 -0.362019 -0.605715 0.826037 -0.499331 -0.758123 0.146622 -0.414908 0.415638 -0.110282 0.233679 -0.183204 -0.434554 -1.027060 0.875784 0.074871 -0.284370 -0.012524 0.012419 0.874860 -0.452795 -0.726370 0.104635 0.736172 -0.237458 0.490532 0.079837 0.094320 0.082068 0.312640
mixing -0.209655 -0.123130 0.143217 0.317399 -0.008940 -0.000941 0.324331 -0.115232 -0.150558 0.047724 0.026287 0.002091 0.215728 -0.212702 0.337918 -0.011436 -0.147273 0.028923 0.552585 -0.379100 -0.537091 0.110217 0.067771 0.501388 0.069989 -0.004350 0.069852 0.172267 -0.221610 0.058157 0.169955 0.135551 -0.134996 -0.348820 0.423603 0.188448 0.321679 -0.008284 -0.592803 -0.110636 -0.596793 -0.251738 -0.169461 0.719160 -0.460637 0.561427 0.328744 -0.123506 -0.224583 -0.178506
child -0.312538 -0.343092 -0.273343 0.089567 0.295648 -0.188420 0.476311 0.148540 -0.219177 -0.151362 -0.076789 0.255234 0.084894 -0.086875 0.611404 -0.154035 -0.248254 0.091117 0.352651 0.014104 0.086433 -0.228976 -0.061370 0.496782 0.011145 -0.020952 0.401896 -0.086551 0.192227 0.198761 0.209586 -0.050042 0.046127 -0.077379 0.382632 0.066849 0.610248 0.036860 -0.544482 -0.384090 -0.500462 -0.070244 -0.350784 0.308650 0.142647 0.334734 -0.118683 -0.314935 -0.122195 0.018520
like -0.221047 -1.026430 -0.606104 -0.091963 0.642191 -0.337390 -0.330220 0.266972 -0.319854 -0.629641 -0.389478 -0.033399 0.137246 -0.270271 0.983272 -0.189494 -0.502118 0.036577 0.715275 0.011204 -0.154428 -0.350373 -0.439332 -0.257067 0.348433 -0.892498 0.566648 0.140309 0.238228 0.327162 0.145321 -0.167928 0.017286 -0.942712 0.449122 -0.555774 -0.626117 0.317215 -0.222329 -0.166132 -0.757527 -0.043642 -0.501900 0.508864 0.313433 0.420088 -0.227179 -0.006132 -0.261376 0.236332
when -0.573693 -0.638147 0.252231 0.106224 0.104021 0.004319 0.481992 0.022074 0.006943 -0.825407 -0.263810 0.647453 0.063147 -0.565752 0.903604 -0.504560 0.126993 0.190923 0.406812 -0.392837 -0.627195 0.153410 0.127843 0.138007 0.119651 -0.865382 0.594555 0.231669 -0.259496 0.242464 -0.390546 0.053518 -0.427125 -0.112332 0.270745 0.292350 -0.436335 -0.033657 -0.332837 -0.213480 -0.438433 -0.602480 0.137909 -0.088636 0.086805 0.652254 -0.128083 -0.517483 -0.340073 0.162929
woke -0.647500 -0.646115 -0.104576 -0.261638 0.362881 0.114697 -0.169366 -0.087308 0.319283 -0.671414 -0.358431 0.505811 0.189574 0.045567 0.402428 -0.244775 0.160850 -0.117063 0.581296 -0.323239 -0.178898 -0.444509 -0.047489 0.216321 -0.414064 -0.420329 0.392513 0.015534 -0.024671 0.226429 0.337169 -0.340260 -0.342471 0.156131 0.596419 -0.447723 -0.432272 0.092707 -0.179978 0.177053 -0.595941 -0.320780 -0.131374 0.307714 0.116140 0.476703 0.501490 -0.270640 -0.261335 0.013870
up -0.623037 -0.617754 -0.131823 0.074923 0.149631 -0.178352 0.053729 0.331483 0.150801 -0.594824 -0.818555 0.500010 -0.038541 0.308627 0.790581 0.114944 0.943725 0.084810 0.036875 -0.291174 -0.278097 -0.353537 -0.171765 -0.054279 -0.453565 -0.373313 -0.233440 0.389913 -0.159629 -0.036936 0.509738 -0.503913 -0.076007 -0.282193 0.803518 -0.319038 -0.426200 0.347065 -0.539325 -0.023959 -0.689622 -0.195383 0.358755 0.279233 -0.033487 0.989345 0.440403 -0.196978 -0.353787 -0.454719
dull -0.354367 -0.257373 0.052677 0.135755 0.485012 0.057095 -0.183743 0.015309 0.254042 -0.213830 0.047343 0.051198 0.016027 -0.068183 -0.081202 -0.200616 -0.178941 0.209913 0.360388 -0.070396 -0.143439 -0.185008 0.175207 0.243170 -0.155737 -0.295486 0.281277 0.240782 -0.233692 0.197212 0.421004 -0.056794 -0.297182 -0.210496 0.272094 -0.241708 -0.099019 0.197085 -0.363706 -0.218194 -0.218379 -0.098045 -0.113834 0.216008 -0.054213 0.552535 -0.264490 -0.094094 0.031416 0.089300
gray -0.339223 -0.701526 -0.160329 -0.070283 0.294896 -0.034241 0.001301 -0.058252 0.197743 -0.526092 -0.134446 0.632756 0.146437 -0.105094 0.458184 -0.144426 -0.339921 -0.019134 0.805225 -0.384172 -0.319758 -0.078211 -0.111418 -0.121451 -0.249502 -0.780193 0.272020 0.648174 0.062279 0.186547 0.438747 0.302413 -0.329817 -0.035900 0.649229 -0.544959 0.007821 -0.130818 -0.200630 0.160778 -0.522363 -0.109070 0.071005 0.354727 0.194976 0.343732 -0.372614 0.042847 0.114891 -0.299313
tuesday -0.600700 -0.425290 0.190319 -0.142177 0.293949 0.171949 -0.142093 0.236074 0.205732 -0.058409 -0.079092 0.305722 0.011298 -0.196360 0.422285 -0.353855 -0.016621 0.531996 0.668190 -0.319999 -0.331077 -0.016318 0.233564 0.199950 0.364910 -0.151902 0.158970 0.109472 -0.093825 -0.027859 0.283760 -0.336336 -0.432609 -0.044935 0.573006 0.128899 -0.421994 -0.040893 -0.337699 0.332074 -0.049473 -0.105124 0.131358 -0.020940 0.265003 0.373083 0.109416 -0.292400 -0.054970 -0.172314
our -0.965552 -0.891110 -0.156422 -0.376341 0.368172 -0.121774 0.450632 0.307921 0.028123 -0.345055 0.017852 0.536932 0.241997 -0.184187 0.769722 -0.193048 -0.068923 0.024571 0.615641 -0.334379 -0.420936 -0.611188 0.162926 0.626635 -0.235980 -0.011849 0.203843 0.185204 -0.150617 0.393171 0.189435 -0.400973 0.138763 -0.648434 0.257051 0.127726 -0.213168 -0.054144 -0.134061 -0.067226 -0.099789 -0.499918 -0.048790 0.375374 -0.080584 0.247307 -0.208409 -0.359445 -0.325120 -0.397502
story -0.354460 -0.314890 -0.220654 -0.083041 0.275995 0.082305 -0.155390 0.001052 -0.054409 -0.905424 -0.374654 0.210017 -0.105028 0.179058 0.416087 0.036262 -0.521568 0.715366 0.707923 -0.471767 -0.541343 0.227628 0.099045 0.287845 -0.299561 -0.539232 0.802116 0.221670 -0.046592 -0.244903 0.335006 -0.271866 -0.413005 -0.368774 0.238015 -0.004558 0.157463 -0.130878 0.006197 -0.125866 -0.124190 -0.295610 -0.315913 0.574428 -0.067171 0.702930 0.076162 -0.312088 0.273682 -0.147203
starts -0.485686 -0.356159 0.033627 0.271355 0.188652 -0.049249 -0.268945 0.014519 0.281180 -0.044727 -0.247478 -0.005703 0.071650 0.170087 0.198194 -0.261849 -0.085141 0.005003 0.465009 -0.201665 -0.124221 -0.293969 -0.221732 0.419061 -0.155638 -0.317554 0.572136 0.212618 -0.177595 -0.088934 0.110403 0.065974 0.113557 0.011256 0.298629 -0.276209 -0.048112 0.023095 -0.274894 0.018093 -0.427824 -0.212541 0.209519 -0.078275 -0.037053 0.489685 -0.115657 -0.561183 -0.323946 0.310113
nothing -1.027927 -0.365863 0.182030 -0.206948 0.305216 0.293448 0.211998 0.420840 -0.383595 -0.528850 -0.404979 0.449286 -0.067984 -0.302942 0.205538 -0.119814 0.097837 -0.111077 0.647509 -0.982841 -0.246896 -1.062226 -0.050462 0.435369 0.099579 -1.031459 0.612291 0.322268 0.082851 0.076825 -0.005680 0.025931 -0.195263 -0.491960 0.665432 0.011239 0.017088 0.190707 0.038926 0.083383 -0.161515 -0.621641 -0.168525 0.545182 -0.106992 0.661827 -0.098817 -0.891078 -0.156808 0.312353
cloudy 0.134293 -0.045127 0.193313 0.118679 -0.077362 0.174130 -0.131651 0.198371 0.313883 -0.495235 -0.049095 0.563851 0.602972 0.118491 -0.185668 0.286566 -0.285755 0.078231 0.605792 -0.024777 -0.306846 -0.347378 0.048364 0.182687 -0.206049 -0.464616 -0.085351 0.135910 0.400597 0.036217 0.361922 0.082917 -0.220803 -0.019133 0.292573 -0.005780 0.292372 -0.290528 -0.128482 -0.543742 -0.308945 -0.299013 -0.150818 -0.020421 -0.170766 0.598773 0.137667 -0.592170 -0.054684 0.110698
sky -0.714816 -0.696564 0.118933 -0.182683 0.141872 0.083394 -0.053283 0.022292 0.398276 -0.578142 -0.923450 0.628774 0.173934 0.324518 0.671127 0.102312 -0.239430 0.524473 0.547848 -0.557359 0.011771 0.067118 -0.285010 0.166661 0.151980 -0.564746 0.208096 0.369185 0.179475 -0.047702 0.320057 0.223973 0.440074 -0.158045 0.424101 -0.162131 -0.688662 0.111668 -0.235272 0.055425 -0.049573 -0.497442 -0.085822 0.090944 -0.227564 0.901716 0.092872 -0.425904 -0.009290 -0.182015
outside -0.624518 -0.677458 -0.092556 -0.174012 0.644994 -0.179453 0.116009 -0.002009 0.215371 -0.491606 -0.261266 0.343017 0.079813 0.237762 0.645920 -0.285290 0.016223 0.218280 0.694500 -0.051905 -0.095461 -0.252993 0.245992 0.235320 -0.091074 -0.802584 0.356214 0.311585 0.148056 0.185413 0.160840 -0.237437 -0.550092 0.176001 0.434917 -0.178717 -0.537531 -0.198898 -0.086623 -0.230263 -0.172349 -0.212926 -0.070871 0.012869 -0.351346 0.934561 0.185224 -0.363154 0.317042 0.050870
suggest -0.401323 -0.281594 -0.212641 -0.000422 0.330641 -0.189140 0.267094 0.452439 -0.003395 -0.161573 -0.442288 0.235414 -0.240948 -0.078675 0.611908 -0.246614 -0.145302 0.126653 0.624105 -0.301706 -0.482426 -0.118242 -0.281398 0.470100 -0.057986 -0.320764 0.225607 0.153146 0.437312 0.289307 -0.004085 -0.074297 0.187473 -0.254911 0.261165 -0.118654 -0.180367 0.172260 -0.208785 0.201300 -0.243533 -0.400718 -0.436693 0.162133 -0.241667 0.570630 0.082459 -0.553982 0.034670 -0.202462
things -0.851954 -0.442024 -0.334572 -0.385128 0.105234 -0.248750 0.303294 0.356219 -0.202671 -0.354866 -0.216287 0.486317 -0.012514 -0.180251 0.503240 0.246877 0.096263 0.066248 0.798695 -0.674973 -0.447001 -0.657655 -0.149712 0.393202 -0.235318 -0.842805 0.536117 -0.361984 0.035997 0.062670 0.339008 -0.157104 -0.099786 -0.394955 0.635773 0.020144 -0.202473 0.192302 -0.186060 0.084466 -0.546245 -0.496789 -0.472650 0.426150 0.172426 0.043731 -0.480893 -0.562999 0.174449 -0.393109
soon -0.280487 -0.446401 -0.280707 0.099344 0.307963 0.010818 -0.079651 0.368557 -0.183124 -0.443080 -0.420872 0.518798 0.109308 -0.209063 0.645812 -0.434241 -0.037701 0.513917 0.323477 -0.190284 -0.488091 -0.022550 -0.191068 0.306685 -0.192672 -1.027509 0.462376 0.364791 -0.005674 0.309673 0.272568 -0.073189 0.031122 -0.188431 0.184990 0.201632 -0.107750 0.180946 0.068251 -0.100117 -0.612223 -0.306375 -0.507692 0.777978 -0.062148 0.623610 0.036895 -0.314158 -0.099965 -0.173776
happening -0.375046 -0.453814 -0.118139 0.120834 0.220738 0.159186 -0.159770 0.057676 -0.016549 -0.643414 -0.430220 0.183918 0.088189 -0.239414 0.495125 0.328742 -0.089570 0.279228 0.508281 -0.422744 -0.492012 -0.278834 -0.431689 0.062080 0.047681 -0.337312 0.410337 0.540597 -0.045649 0.298745 0.451888 0.161595 -0.506981 0.171030 0.470525 -0.128878 -0.293212 0.112797 0.066209 -0.072330 -0.165087 -0.282769 -0.236696 -0.068139 -0.121211 0.367885 -0.065316 -0.137374 -0.192674 0.102206
all -1.240250 -0.554627 -0.212010 -0.200618 0.321363 -0.056064 0.797108 0.451482 -0.774778 -0.392573 -0.489149 0.171894 0.819596 -0.575722 0.499548 0.148497 0.219141 -0.119667 0.251300 0.029933 -0.921072 -0.208233 0.129325 0.946202 0.243897 -0.562839 0.377812 -0.171800 0.116176 0.378410 0.515992 -0.447335 -0.712660 -0.160173 0.617718 0.027428 -0.163590 0.627660 -0.091440 0.346175 -0.358466 -0.504732 0.155840 0.055032 -0.045339 0.892997 -0.020062 -0.975151 -0.117650 -0.089502
country -0.519824 -0.541656 -0.368076 -0.061143 0.209050 -0.160447 -0.236422 -0.261823 -0.051235 -0.376897 -0.189324 0.436709 0.229645 0.183801 0.383812 -0.031147 -0.297896 0.013209 0.681107 -0.346957 -0.190120 0.122939 -0.116601 0.362049 -0.226409 -0.274369 0.132416 0.544637 0.041819 -0.430323 0.178376 -0.011299 -0.153566 -0.211901 0.347368 -0.259650 -0.253271 -0.287261 -0.205115 -0.188763 -0.237353 -0.311132 0.474009 0.270556 -0.108588 0.642855 -0.315927 -0.190921 -0.222982 -0.019868
hummed -0.469656 -0.564193 -0.227372 0.009563 0.390035 0.088188 -0.162426 0.122903 -0.053070 -0.396144 -0.544962 0.268472 0.077484 0.155701 0.509371 0.019956 -0.083076 0.314549 0.634455 -0.054209 -0.124408 -0.011771 -0.132145 -0.041311 -0.066504 -0.507949 0.444627 0.037514 -0.134390 -0.020608 0.004783 -0.164014 0.034505 0.267352 -0.259149 0.009982 0.070053 -0.233666 -0.294939 0.176110 -0.042213 -0.222418 -0.036800 0.009523 0.084440 0.820826 0.085713 -0.109453 -0.060196 0.038485
picked -0.463105 -0.638398 -0.158610 -0.037598 0.518419 0.197702 0.176394 0.115330 0.026434 -0.497680 -0.629134 1.040062 -0.404359 0.061362 0.670965 0.120166 0.145259 0.342629 0.428699 -0.472402 -0.531366 -0.233082 -0.141366 0.054159 -0.226569 -0.511300 0.488795 0.300609 -0.252243 0.209954 0.590785 -0.449171 -0.347663 0.048751 0.515305 -0.663251 -0.244634 -0.112159 -0.259033 -0.210709 -0.100693 -0.348617 -0.283367 -0.058301 0.102973 0.810229 0.329265 -0.407708 0.437730 0.232376
his -0.532560 -0.951065 -0.556892 0.382172 0.014573 -0.233978 0.006096 0.506164 -0.054978 -0.493652 -0.294865 0.599265 -0.138502 -0.391501 1.314558 -0.276365 0.068245 -0.141565 0.693729 -0.505678 -1.114515 -0.646648 0.142048 0.762617 0.342697 0.180161 -0.289371 1.379515 -0.615625 -0.492890 0.009987 -1.262499 0.422894 -0.283027 0.180611 0.265809 0.563649 0.406253 -0.081921 0.053757 -0.469695 -0.288502 -0.215849 0.380319 0.334692 0.729628 -0.566748 -0.131919 -1.174029 -0.307647
most -0.708204 -0.336763 -0.238534 -0.526057 0.299377 -0.082793 -0.236410 0.030085 -0.147594 -0.802267 -0.555921 0.682711 0.091544 0.217844 0.331052 -0.260953 -0.299115 -0.109185 0.709294 -0.408856 -0.448669 -0.192355 -0.140347 0.500582 -0.005507 -0.672691 0.237321 -0.046228 0.052727 0.333645 -0.046947 -0.244717 -0.164538 -0.216146 0.359271 0.164340 -0.331379 0.054467 0.011634 -0.505256 -0.492151 -0.473404 -0.132391 0.006804 0.260222 0.651823 -0.412980 -0.176818 0.038205 -0.390434
boring -0.298875 -0.839592 -0.361701 0.067649 0.222233 0.072869 -0.120399 -0.267303 -0.188060 -0.270255 0.004707 0.188531 0.144146 0.230535 0.287827 -0.095105 -0.040016 -0.036391 0.559138 -0.248908 -0.307918 -0.456006 0.061199 0.341476 -0.265927 -0.493513 -0.097266 -0.063166 0.292571 0.108910 0.524606 0.014303 0.057607 -0.131186 0.092589 -0.096849 -0.225858 0.242008 -0.124843 -0.062223 -0.088511 -0.260348 -0.266876 0.199139 0.271748 0.397759 -0.025344 -0.766469 -0.044468 -0.168395
tie -0.045093 -0.142817 0.125246 -0.090033 0.051993 0.191313 0.135992 -0.048111 -0.381092 0.083947 -0.307271 0.241401 0.018311 -0.288106 0.630305 -0.100150 -0.161353 0.210053 0.333408 -0.307211 -0.213929 -0.016041 0.138535 0.184619 0.023439 -0.100158 -0.424880 -0.049615 0.163933 0.202967 0.130265 0.065381 -0.543178 0.054810 0.204299 -0.294910 -0.160217 -0.028732 -0.109847 0.163516 -0.118189 -0.155446 -0.019534 0.087668 -0.353227 0.468395 0.086751 0.288323 0.473957 0.258121
work -0.627367 -0.597881 -0.285018 -0.086161 0.173900 0.104484 -0.140513 0.185641 -0.211898 -0.448434 -0.096196 0.700794 0.049416 0.131699 0.347780 0.119049 0.131314 0.327285 0.854397 -0.452727 -0.362005 -0.430124 -0.011309 0.150357 -0.588530 -0.635234 0.537317 0.060665 0.449150 0.030381 0.231177 -0.235191 -0.690667 -0.265719 0.388932 0.019878 -0.153931 0.095504 0.118890 0.143649 -0.338372 -0.474221 -0.192077 0.060774 -0.089322 0.610902 0.136966 -0.329886 -0.100220 -0.092513
gossiped -0.128771 -0.085152 -0.115056 0.262020 0.306893 0.142258 -0.080331 0.073483 0.001668 -0.229467 -0.073955 0.213270 0.455071 -0.023470 0.197930 0.213088 -0.102464 0.339565 0.523350 -0.114143 -0.108328 -0.285675 -0.183176 0.067249 -0.117306 -0.483457 0.214938 -0.063787 0.301434 -0.075947 -0.015743 -0.221277 -0.085611 -0.153752 -0.207063 0.115381 0.325428 -0.415524 0.137209 -0.141520 -0.147563 -0.168946 -0.050862 -0.153411 -0.212373 0.397915 0.146610 0.008394 0.090948 -0.374215
happily -0.640486 -0.163190 0.194390 -0.025603 0.298445 0.145101 0.293473 0.219682 0.152025 -0.215881 -0.042995 0.518028 0.124130 0.010269 0.319574 -0.297652 -0.245121 0.140017 0.425579 -0.325706 -0.627087 0.007969 0.152633 0.169582 -0.047548 -0.538733 0.383661 0.216025 0.522510 0.136935 0.361379 -0.391718 -0.414494 0.033913 0.197349 0.048864 -0.199256 0.136253 -0.443124 0.291142 -0.127365 -0.287885 -0.119283 -0.119964 -0.284099 0.858262 -0.124734 -0.028260 -0.090723 -0.021882
wrestled 0.031391 -0.118122 -0.104127 0.185110 0.309825 -0.017698 0.021330 0.033533 0.257611 -0.462761 -0.078622 0.562329 0.211400 0.176398 0.266253 0.266644 -0.055848 -0.040804 0.055976 -0.180212 0.252562 -0.325424 0.213728 0.366198 -0.184712 -0.180693 0.478298 0.095804 0.373317 -0.025032 0.328173 -0.045507 -0.160800 0.056522 0.471812 0.065659 -0.311421 -0.009236 -0.107598 -0.307696 -0.260105 -0.010003 -0.196542 0.039002 0.013206 0.262748 -0.062196 -0.283156 0.076058 0.152147
screaming -0.145093 -0.326567 0.020823 -0.074388 0.161534 0.021459 0.181247 -0.154408 0.311643 -0.346936 -0.347184 0.524425 0.182654 0.313013 0.274709 0.141729 0.191238 -0.066005 0.575916 -0.574477 -0.458947 -0.479279 -0.232946 0.292932 -0.167445 -0.568787 -0.223452 0.356016 0.014278 0.012704 0.318815 0.087582 -0.337081 -0.153433 0.756975 -0.320059 -0.083157 0.020053 -0.225360 -0.298221 -0.289182 -0.226402 -0.049645 0.012140 -0.166827 0.511516 -0.002834 -0.172958 -0.069506 -0.283017
into -0.297034 -1.022763 -0.362945 0.371109 -0.324387 -0.195876 -0.184085 0.444904 0.549914 -0.080620 -0.632795 0.458354 0.286010 0.016417 1.520346 -0.094182 0.225879 0.171139 -0.114099 0.201247 -0.645214 0.318548 0.012241 0.199849 -0.144517 -0.301979 0.395159 0.624567 0.049103 0.527114 -0.285100 -0.217030 0.025653 0.295557 0.401875 0.129322 -0.002664 0.070498 -0.397397 -0.230165 -0.321710 -0.204038 0.000673 0.166736 0.115694 1.804449 -0.171481 -0.255046 0.044594 -0.246872
high -0.516112 -0.674489 -0.692107 -0.047601 0.560890 0.035174 0.085095 0.403417 0.060551 -0.275688 -0.624771 0.635967 0.133747 0.285662 0.559202 -0.023262 -0.133379 -0.154748 0.532765 -0.047939 -0.600110 0.137871 0.080345 0.513076 0.310514 -0.513039 -0.156620 0.952572 0.022090 0.336761 0.636550 -0.323534 -0.394689 -0.017584 0.388294 -0.631005 0.170105 0.121860 -0.128300 -0.166558 -0.016847 -0.233657 0.066869 0.249930 -0.426510 0.933116 -0.421261 -0.342574 -0.234823 -0.291516
chair -0.439974 -0.589390 0.038926 0.018646 0.374498 -0.088671 -0.027937 0.275783 0.239657 -0.586556 -0.400013 0.613864 0.161849 -0.314111 0.490730 0.023823 -0.009344 0.275695 0.598053 -0.206202 -0.066537 -0.278762 0.158157 0.423301 -0.036679 -0.686198 0.534679 0.323155 0.165479 0.143123 0.432219 0.004483 -0.321169 0.258088 0.272478 0.101517 -0.020856 -0.055494 -0.173415 -0.393681 0.086316 -0.651183 0.411829 0.405893 -0.035742 0.634964 0.118322 -0.330326 -0.023264 -0.084153
none -0.664577 -0.434226 -0.110293 -0.227947 -0.072022 -0.037718 0.108049 0.046817 -0.264397 -0.920300 -0.390695 0.715544 0.445748 0.162533 0.366038 -0.186182 -0.095583 -0.023648 0.596489 -0.232002 -0.565161 -0.014858 0.117740 0.416360 -0.238389 -0.788601 0.359697 0.006181 -0.131067 -0.109642 0.294283 -0.290350 0.232951 0.136312 0.401113 0.200541 -0.219841 0.637708 -0.042975 -0.120893 -0.450234 -0.499294 -0.008366 0.324921 0.037981 0.741483 -0.287059 -0.352885 0.106661 -0.086055
them -1.111128 -0.299293 -0.189898 0.256830 -0.203960 0.003656 0.582748 0.191262 -0.350694 0.213922 -0.834343 0.711650 -0.335695 -0.327102 0.552451 -0.094442 0.452197 0.203658 0.388633 -0.946515 -0.759255 -0.332370 -0.304416 0.374535 -0.153803 -0.668220 0.298789 0.087996 0.015079 0.549856 0.571666 -0.521418 -0.226792 -0.569835 0.250037 -0.691923 -0.505656 0.229047 -0.261192 0.117838 -1.253781 -0.132455 -0.006529 0.270697 -0.418183 0.390777 -0.229743 -0.588762 -0.305411 -0.670920
noticed -0.090738 -1.006690 -0.204201 -0.237362 0.659683 0.204549 0.307837 0.216224 0.143988 -0.792361 -0.222470 0.641408 -0.415357 -0.166956 -0.111635 -0.173584 -0.243742 0.113910 0.722682 -0.695762 -0.265357 -0.120257 -0.244353 0.319788 -0.232377 -0.922160 0.514369 0.011223 0.193329 -0.177049 0.022912 -0.017769 -0.414005 0.035035 0.716766 0.088670 -0.386514 0.531164 -0.356917 0.025739 -0.067071 -0.692412 -0.306207 0.470228 0.295230 0.891420 0.109954 -0.591357 -0.196058 0.320742
tawny -0.157135 -0.049006 -0.368007 0.208891 0.270196 -0.078009 0.372668 -0.222079 0.176092 -0.083669 0.112729 0.424287 0.132937 -0.121740 0.105461 -0.001951 -0.114297 0.405804 0.832050 -0.418241 -0.273326 -0.225986 -0.137638 0.241179 0.114560 -0.451152 -0.066358 0.117988 -0.412615 -0.009139 0.449016 0.283209 0.306045 -0.136141 0.473924 0.156485 0.136702 0.119851 -0.105602 0.204943 -0.246867 -0.243988 0.057183 -0.074300 0.238817 0.342575 -0.038274 -0.197325 0.346864 -0.384384
owl -0.651360 -1.001866 -0.292026 0.288132 0.227693 0.028808 -0.341084 0.540252 0.001937 -0.387260 -0.227428 0.022178 0.142712 0.016168 0.512672 -0.076506 0.398538 0.226651 0.706572 -0.052697 -0.304454 -0.477995 -0.089816 0.155777 0.069537 -0.770968 0.718278 -0.115629 -0.077892 0.212813 0.543686 -0.368125 -0.367679 -0.304129 0.745564 0.097716 -0.317454 -0.051219 -0.158568 0.231226 -0.245752 -0.345962 0.060125 -0.053650 -0.429017 0.541502 -0.596618 -0.420224 0.346863 -0.397570
flutter -0.407480 -0.620557 0.331661 -0.166055 0.030358 -0.324850 0.221013 -0.001221 0.062770 -0.417832 -0.211308 0.220906 0.456495 -0.056938 0.643188 0.064332 -0.383858 0.331192 0.440831 -0.380075 -0.110351 -0.100842 -0.318306 0.253781 -0.110928 -0.489496 -0.119320 -0.098258 -0.294021 -0.038777 0.312183 0.232964 -0.451939 -0.109710 0.020192 -0.036834 0.065862 0.231508 -0.326577 0.019844 -0.183021 0.183294 0.083144 -0.444780 -0.262637 0.387218 -0.292938 -0.314193 0.004056 0.076398
past -0.346634 -0.940050 -0.166163 0.398785 0.222792 -0.112259 0.388403 0.229136 0.496568 -0.943272 0.049355 0.529691 -0.066788 -0.260399 0.388802 -0.169205 0.021247 0.161500 0.179930 -0.176959 -0.469284 -0.289680 -0.139916 0.700931 -0.244397 -0.902541 0.498304 0.042586 0.445575 0.028971 0.268411 -0.217310 -0.131998 0.020647 0.209489 -0.158067 -0.132919 -0.409160 0.083261 -0.044989 -0.238303 -0.409628 0.019901 0.662107 0.032117 0.869531 -0.278872 -0.146982 -0.098892 0.233702
window -0.410749 -0.541166 -0.351334 -0.005222 0.214452 -0.050862 -0.002904 0.342012 0.169907 -0.847868 -0.412257 0.462444 -0.179504 -0.040063 0.410779 0.320798 -0.185828 0.264931 0.707074 -0.449002 -0.467859 0.115612 0.198219 0.498849 -0.047580 -0.753957 0.501042 0.344204 0.003622 -0.243388 0.268117 -0.217154 -0.348444 -0.130019 0.501102 -0.361003 -0.100493 -0.023671 -0.120069 -0.495074 -0.270070 -0.621743 -0.671507 0.029843 -0.434352 1.047487 -0.008948 -0.437034 0.196509 -0.057168
at -0.972274 -0.738993 -0.498464 -0.138791 1.184196 0.101917 0.213761 -0.186413 -0.432319 -1.022520 -0.929683 0.247659 -0.120772 0.099486 0.594841 -0.451862 -0.098386 -0.927830 0.448252 -0.203467 0.069576 0.278739 0.585269 -0.201039 -1.016282 -0.103293 -0.197752 0.002284 -0.586409 0.241371 -0.216878 -0.486256 -0.420863 -0.529806 0.608918 -0.663520 0.049851 -0.300721 -0.531345 0.435710 -0.845233 -0.424351 -0.814361 0.048674 0.286290 1.489256 0.190680 -0.926037 -0.112567 -0.020258
half -0.140410 -0.609000 -0.171446 0.092392 0.029467 -0.339339 -0.327552 0.686269 0.232595 -0.348772 -0.385295 0.086698 -0.110292 -0.363902 0.500482 -0.395929 -0.015314 0.089307 0.332633 -0.357387 -0.461419 -0.034967 -0.374675 0.338853 -0.528444 -0.806414 0.016197 0.116245 -0.085411 -0.001666 0.263468 -0.171689 -0.038809 -0.577445 0.636384 -0.079117 0.198746 0.021409 -0.528199 0.091892 -0.350141 -0.548500 -0.137647 -0.087753 0.283528 0.673448 -0.502131 -0.510741 0.006761 -0.078244
eight -0.426306 -0.366543 0.076724 0.345045 0.355569 -0.163682 0.003434 0.133668 0.084003 -0.550453 -0.110045 0.490586 -0.131169 0.279122 0.483389 -0.086690 -0.118275 0.158955 0.467587 -0.347291 -0.413067 -0.072509 0.095181 0.303015 -0.094459 -0.883104 0.155419 0.141604 -0.403538 0.551641 0.091928 -0.060135 -0.005345 -0.222281 0.255835 -0.137478 0.498881 0.047213 0.074188 0.250189 -0.292797 -0.412459 0.105446 -0.001417 0.175456 0.636854 0.058082 0.075925 0.095404 0.097120
briefcase 0.151917 -0.592878 -0.081863 0.438877 -0.016613 0.134442 0.052861 -0.192654 -0.177630 -0.118416 -0.316256 -0.353393 -0.133766 -0.034494 0.417474 0.136235 0.051881 0.324472 0.842721 -0.092358 -0.145410 -0.164046 0.308099 0.024901 -0.112199 -0.282503 0.188770 0.004818 0.331917 0.266904 0.030303 0.294987 -0.240274 0.126861 0.228077 0.193398 0.074559 0.275952 -0.058546 -0.005421 0.025603 -0.379484 -0.153104 0.067159 0.403723 0.051365 -0.161961 -0.343715 0.043031 -0.140569
pecked -0.271529 -0.014391 -0.100777 -0.046599 -0.100115 0.239595 0.101760 0.018154 -0.161232 -0.243749 -0.197391 0.132557 0.192074 0.122483 -0.067542 -0.504058 -0.267760 -0.046639 0.493544 -0.122055 -0.216180 -0.445750 -0.178579 0.141333 0.137154 -0.327420 0.167574 -0.085618 0.060150 -0.137641 0.122691 -0.102837 -0.079934 0.168666 -0.210044 -0.261227 -0.115265 -0.241379 -0.324904 -0.183954 -0.152837 -0.066719 0.081674 -0.260744 0.081581 0.083358 -0.077780 0.124495 0.226028 -0.426200
cheek -0.773908 -0.667286 -0.138932 -0.140165 0.184103 -0.084479 -0.353148 -0.336500 -0.022204 -0.115012 -0.367623 0.642744 0.104299 -0.111097 0.156528 0.061175 -0.041152 0.031832 0.837035 -0.471705 -0.224795 0.194864 0.136866 0.406101 -0.263315 -0.114454 -0.085165 0.204340 0.084291 -0.091726 0.737338 -0.286897 -0.239119 -0.042653 0.168225 -0.274861 -0.020710 -0.011235 -0.357362 -0.041970 0.070718 -0.170396 -0.114474 0.438718 0.283044 0.551866 -0.137333 -0.429517 -0.332860 0.253739
tried -0.418317 -0.533657 -0.198488 0.114474 0.457081 0.122102 -0.012720 0.036597 0.111391 -0.891247 -0.649657 0.992617 -0.295546 -0.135502 0.235634 -0.077848 0.109425 0.742363 0.302618 -0.855893 -0.698480 -0.662367 -0.004758 0.385799 -0.612200 -0.884026 0.464499 0.405335 0.221204 0.142503 0.097759 -0.133778 -0.560151 -0.155210 -0.043985 0.179187 -0.384368 0.230636 -0.248639 0.368063 -0.183620 -0.919528 -0.498953 0.727221 -0.002477 0.594623 -0.086604 0.149485 -0.255862 -0.080715
kiss -0.120716 -0.449725 0.217503 -0.498360 0.401833 0.051420 -0.008808 -0.255501 0.099715 -0.143388 -0.006089 0.377614 -0.084344 -0.305694 0.689383 -0.241529 -0.273431 -0.021563 0.377102 -0.254130 -0.142726 -0.407847 -0.106963 0.399679 0.077381 -0.679017 0.423585 0.266147 0.357035 0.347066 0.378488 -0.053258 0.143172 -0.234886 0.277911 -0.233813 -0.277152 0.200747 -0.147343 0.519985 -0.060281 -0.098683 0.208020 0.088745 -0.027356 0.426839 -0.355813 -0.011977 0.075158 -0.170016
goodbye -0.278613 -0.458669 -0.366102 0.023990 -0.040024 -0.245061 0.186081 0.306472 0.287575 -0.539721 -0.290164 0.354812 -0.061300 -0.158248 0.471411 0.098189 -0.027708 0.353607 0.527366 -0.376849 -0.512444 -0.131933 -0.124451 0.020024 -0.498813 -0.556404 0.118988 0.253393 0.076994 0.262532 0.207248 -0.104519 -0.315385 -0.511093 0.341326 0.208756 -0.384226 -0.024724 -0.441877 -0.107715 -0.117397 -0.461933 0.443198 0.381208 0.529946 0.540731 -0.135378 -0.127318 0.397018 -0.167895
missed -0.434265 -0.359440 0.071432 -0.126837 0.179629 0.133985 0.325238 0.166852 0.243824 -0.382972 -0.283104 -0.140012 0.217519 -0.119150 0.136159 -0.192327 -0.019569 0.316977 0.726120 -0.207211 -0.034976 -0.500230 -0.139431 0.131007 -0.445948 -0.575099 0.039935 0.647477 0.193074 0.112628 0.074201 -0.380807 0.208156 0.315374 0.568546 -0.129320 -0.161644 0.332354 -0.134002 0.090472 -0.156615 -0.144041 0.084037 -0.121555 0.174795 1.038670 0.003790 -0.288232 -0.167463 -0.157911
now -0.563327 -0.630990 -0.139381 0.596134 0.263896 -0.155443 0.386749 0.122997 -0.166312 -0.778909 0.041722 0.497502 0.086856 -0.188394 0.276537 -0.222531 0.108908 0.275607 0.649458 -0.417070 -0.588939 -0.294698 -0.050009 -0.093430 0.110096 -0.854381 -0.077353 -0.054289 0.189805 0.405909 0.223705 -0.485035 -0.607266 -0.099220 0.730631 -0.082047 -0.041950 0.206263 -0.187066 0.053974 -0.027696 -0.740347 0.046504 0.333836 -0.211305 0.770474 0.234368 -0.636331 0.042728 0.684601
having -0.480784 -0.991018 -0.217390 -0.042287 0.625620 -0.100622 0.221010 0.001837 -0.181720 -0.180940 -0.338204 0.435093 0.002806 0.142571 0.636494 -0.165221 -0.199268 0.441652 0.433485 -0.285824 -0.408699 -0.325658 -0.088350 0.193860 0.099348 -0.378646 0.445577 0.216652 -0.284019 -0.008610 0.065766 -0.347012 -0.384990 -0.138445 0.485824 0.244611 0.008850 -0.038253 -0.166722 -0.260013 -0.326024 -0.585485 0.182670 0.368737 -0.281883 0.667639 0.093634 -0.407689 -0.037569 -0.006255
