6022 50
harry -0.706717 0.145703 -0.069275 1.117876 -0.117339 -0.057966 -0.904349 -0.117766 0.679081 -0.040072 -0.301672 0.244205 0.436584 0.245752 -0.413973 0.450093 -0.093091 0.099009 -0.026774 -0.491179 -0.263533 -0.345113 -0.427590 -0.514494 0.489785 -0.225853 -0.101675 0.394095 -0.726557 -0.208100 -0.686812 0.050107 -0.244578 0.226536 0.530289 -0.290187 -0.457141 0.381918 -0.194762 0.078797 0.648759 -0.373114 0.768271 -0.111840 -0.023080 0.189075 0.531457 -1.240978 -0.946220 -0.310593
potter -0.521186 -0.182050 0.264545 0.718861 -0.377784 -0.543937 -0.534549 -0.169159 0.282440 0.940011 0.318187 0.561746 0.307010 -0.151174 -0.520428 0.476995 0.077614 -0.111643 0.329549 -0.178547 0.007279 0.188518 0.137350 -0.747054 0.066091 -0.747146 -0.084969 0.319538 -0.568263 -0.793068 -0.430407 0.640830 -0.050266 0.871679 -0.092754 0.067258 0.097416 -0.180559 -0.389567 -0.124813 0.197054 -0.556898 0.677291 -0.284734 -0.393849 0.312878 -0.228104 -0.789546 -0.468697 -0.944955
and -0.092498 0.228577 0.091364 0.310233 -0.381844 -0.517691 -0.850107 -0.108041 -0.190234 0.419410 -0.436248 0.046647 0.043987 -0.385494 -0.449281 0.390317 0.517902 0.290928 0.054115 -0.439657 -0.236380 -0.513958 0.429064 -0.784532 0.313550 0.089216 -0.152840 -0.262224 -0.307745 -0.208539 -0.706089 0.778907 0.271439 0.300926 0.230175 0.015486 -0.478594 0.316740 -0.062652 -0.260776 0.739875 -0.178357 0.271077 0.115254 -0.625921 -0.137837 0.378217 -0.183229 -0.793284 -1.030919
the -0.430946 0.322330 -0.057946 -0.214795 0.012930 0.118736 0.504786 -0.272818 0.692078 0.574813 -0.223766 0.386120 -0.227122 -0.703286 -1.007022 0.356332 -0.410778 -0.329638 0.252405 -1.080502 0.110766 0.204001 -0.344050 -0.556891 0.554627 -0.029745 -0.210548 0.276110 -0.376818 -0.560123 -0.349153 0.349467 -0.395167 0.676173 -0.273296 0.536181 -0.672795 0.253976 -0.610965 -0.075322 1.680440 -0.494348 -0.008590 0.296570 0.283521 0.206463 0.435348 -0.035565 -0.472375 -0.234003
sorcerers -0.384886 0.354192 0.179733 0.406380 -0.160663 -0.069139 -0.430484 0.271879 0.141092 0.919416 0.254053 -0.022008 -0.439681 -0.714958 -0.647668 0.375802 -0.404222 0.592047 0.159076 -0.639359 0.172754 -0.005821 -0.081688 -0.724060 0.504748 -0.233347 0.085214 -0.006420 -0.598402 -0.291771 -0.078687 0.435838 -0.096721 -0.067448 0.057442 0.592017 -0.096540 0.340391 -0.332358 -0.422449 0.559499 -0.220067 0.130215 -0.053981 -0.236761 -0.326634 0.227209 -0.245262 -0.818518 -0.249770
stone -0.495101 -0.327855 -0.109435 0.322011 -0.451194 -0.458447 0.018527 -0.372317 0.287867 0.489436 0.357877 0.213775 -0.705043 -0.417286 -0.768030 0.561361 -0.532583 0.159978 0.441201 -0.417135 0.141358 -0.131763 -0.407620 -0.668378 0.701889 -0.506953 0.214884 0.652886 -0.367793 -0.493720 -0.446383 0.448359 -0.031540 0.468345 0.009429 0.283000 -0.159950 0.230774 -0.054726 -0.359404 0.658205 -0.023841 -0.132485 0.232394 -0.133558 -0.413651 0.268736 -0.401719 -0.032942 -0.349069
chapter -0.166244 0.242895 0.224164 0.273159 -0.331723 -0.152940 0.043828 -0.190611 0.244235 0.631015 -0.138769 0.108429 0.031976 -0.154089 -0.732260 0.319288 -0.358557 0.236169 0.076059 -0.352498 -0.087314 -0.192431 0.018204 -0.379640 0.406721 -0.425624 -0.281168 -0.173543 -0.605547 -0.457081 -0.425544 0.491417 -0.048320 -0.001259 0.070743 -0.143474 0.239679 0.026918 0.397795 -0.153997 0.626026 -0.103241 0.202998 0.072659 0.132402 0.177250 0.071325 -0.210283 0.102559 -0.079462
one -0.617169 -0.190364 0.186728 0.365874 -0.162155 -0.520833 0.264796 0.219242 0.314443 0.931895 -0.071172 0.180324 0.148127 0.511293 -0.570042 1.051409 -0.201326 0.500848 0.529995 -0.909571 -0.079624 -0.474440 -0.126241 -0.762037 0.445970 -0.108918 -0.318119 0.273285 -0.575608 -0.554466 -0.545616 0.563328 0.301730 0.266766 -0.618441 0.007832 -0.129739 0.187491 -0.470552 0.206365 0.565828 -0.089648 -0.453859 0.107833 0.243610 -0.387254 -0.171747 -0.851032 -0.609435 0.114628
boy -0.682443 0.166154 0.146190 1.049836 -0.617156 0.165460 -0.188710 -0.146266 0.293272 0.638620 0.128698 0.057770 -0.371446 -0.143964 -0.358791 0.494927 -0.309280 0.070059 0.312079 -0.217474 -0.173366 0.170220 -0.058440 -0.663203 0.540317 0.116010 -0.683948 0.326039 -0.252714 -0.564477 -0.405598 -0.050057 0.107533 0.011695 -0.166467 0.168214 0.211433 0.168502 -0.422521 0.113082 0.764704 -0.213579 -0.135592 -0.462656 -0.314871 -0.059985 -0.327220 -0.562745 -0.798147 -0.680266
who -0.100301 -0.582784 -0.097276 1.074912 -0.250223 0.227554 -0.372284 0.073291 0.845608 0.417046 0.056153 0.322406 -0.223397 0.279056 -0.669919 0.748687 -0.149824 0.025814 0.137132 -0.334718 -0.275468 -0.572414 0.003417 -0.587776 -0.076424 -0.491614 -0.207771 0.607051 -0.613261 -1.051091 -0.378205 -0.095444 0.202640 0.156787 0.010854 0.068358 -0.114612 0.138563 -0.151348 0.105717 0.881775 -0.187350 0.048935 -0.013454 -0.026502 -0.617518 0.271395 -0.874087 -0.508959 -0.302467
lived -0.351521 0.316859 -0.293759 0.858708 -0.073605 -0.382204 -0.178944 -0.136445 -0.340095 0.089072 -0.001446 0.310397 -0.389650 -0.283817 -0.520499 0.539704 0.061093 0.325572 -0.224919 -0.521279 -0.083663 0.083871 -0.262757 -0.732700 -0.186331 -0.432955 -0.068536 -0.147678 -0.134506 -0.447334 -0.651320 0.118795 0.124680 0.187272 -0.319679 0.320555 0.008903 0.341563 -0.213926 0.426900 0.596347 -0.161790 0.141689 0.278423 0.455749 -0.089320 -0.199192 -0.559650 -0.295550 -0.366158
mr -0.129139 -0.199959 0.146651 0.628844 -0.349757 0.103714 -0.607297 -0.530767 0.548894 0.531600 0.501990 0.646735 -0.716830 0.040523 -0.606066 0.502433 0.529751 0.021272 0.164956 -0.069686 -0.038031 0.360921 0.388158 -0.809295 0.131097 -0.335982 -0.673832 0.020240 -0.692807 -0.172585 -0.711211 0.933125 -0.340271 0.764375 0.076594 -0.106510 -0.699670 -0.046543 -0.219605 0.336726 0.317093 -0.907862 0.198434 -0.573979 0.122565 0.417044 -0.134150 -1.199547 -0.010345 -0.527626
mrs -0.385640 0.145007 0.620513 0.106714 -0.435444 0.105373 -0.589150 -0.348080 0.648361 0.366922 -0.008571 -0.064010 -0.521988 -0.415272 -0.477282 0.459571 0.257892 0.423126 0.508583 0.221787 -0.205566 -0.195260 0.264934 -0.675081 0.056724 -0.559809 -0.072478 0.055007 -0.526366 -0.252127 -0.749349 0.326833 0.310977 0.180012 0.325519 0.051130 -0.388162 0.149285 -0.046487 0.428573 0.440703 -0.141055 0.139603 0.016327 0.189150 -0.472455 0.313217 -1.121152 -0.233944 -0.662174
dursley -0.316248 -0.157236 0.504808 0.626658 -0.397880 -0.258435 -0.509768 -0.473225 0.837225 0.269408 0.200374 0.260738 -0.268333 -0.472954 -0.921685 0.161944 0.117539 -0.084039 0.202387 -0.093963 -0.252825 -0.018499 0.109897 -0.504399 0.336028 -0.792209 -0.075806 0.146871 -0.793987 -0.439025 -0.582084 0.545181 -0.134614 0.375220 0.027492 -0.276190 -0.513783 0.504522 -0.298572 -0.036353 -0.283151 -0.219126 0.278726 -0.213880 -0.171505 -0.302530 0.107003 -0.570246 -0.162220 -0.762963
of -0.679604 -0.128860 0.008471 0.767873 -0.386985 -0.122290 0.474556 -0.268022 0.353599 0.537788 -0.469021 0.354246 0.132321 -0.368642 -1.516741 0.538293 -0.664105 0.263424 0.396252 -0.901188 0.769994 -0.693297 -0.426890 -0.977448 0.855833 -0.555576 -0.052384 -0.489158 0.742971 0.180273 -0.434098 0.216601 0.102537 0.659802 -0.284186 0.810743 -0.426349 -0.806237 -0.285667 0.118003 1.019241 0.092867 -0.571042 0.805611 -0.039852 0.088670 -0.313552 -0.273662 -0.089862 -0.501967
number -0.212551 -0.075398 0.048824 0.321649 -0.058787 -0.585163 -0.203871 -0.380100 0.020943 0.462113 0.264370 0.312583 -0.345446 -0.689936 -0.743175 0.627259 -0.118540 -0.019316 -0.043102 -0.426885 0.426432 -0.154270 0.046949 -0.621649 0.206083 -0.404205 -0.151833 -0.100800 -0.429281 -0.438683 -0.415818 0.435999 0.077665 0.263718 -0.164961 0.128378 -0.031290 0.189051 -0.650746 -0.087871 0.690022 -0.221567 0.019105 0.090363 -0.100937 -0.273236 0.205248 -0.450542 -0.543418 -0.165666
four -0.648650 0.092270 0.019327 0.376013 -0.145463 -0.430148 -0.315238 -0.001001 0.418771 0.564862 0.469515 -0.353791 -0.098907 -0.576175 -0.627346 0.134648 -0.067003 0.609603 -0.332349 -0.511421 0.002611 -0.738832 0.180399 -0.550568 0.165046 -0.206464 0.117735 0.135592 -0.506921 -0.717431 -0.707242 0.321864 0.208173 -0.021536 -0.344699 0.023437 0.105115 0.254760 0.090248 0.100269 0.590871 0.094267 0.126509 0.115765 -0.161876 -0.123523 0.330005 -0.365515 -0.282189 -0.665367
privet -0.421109 -0.005887 0.008967 0.426500 0.154331 -0.269870 -0.380398 -0.319541 0.761215 0.609784 -0.011552 0.115517 -0.040931 0.228999 -0.074663 0.625757 -0.222654 0.198975 0.266931 -0.503495 0.214174 -0.116032 -0.748707 -1.250424 0.634020 -0.090440 0.385725 -0.201307 -0.618267 -0.400236 -0.411420 0.448770 0.082105 0.324651 -0.448255 0.165850 -0.240187 0.705315 -0.178795 -0.295171 0.590389 0.480712 0.173279 -0.342393 0.139938 -0.122036 -0.035105 -0.349220 -0.305593 -0.200344
drive -1.106540 0.078040 0.074973 0.387722 -0.377697 -0.639586 -0.311600 -0.570606 0.136808 0.199981 0.200780 0.102922 0.133945 0.307336 -0.500501 0.530652 -0.186276 0.275089 -0.270493 -0.409567 -0.375579 0.087535 0.118935 -0.691322 0.021377 -0.220833 0.053637 -0.166408 -0.275918 -0.358768 -0.992642 0.576122 -0.077829 0.675643 0.156537 0.300592 -0.360478 0.666477 -0.552402 -0.005224 0.566009 0.131595 -0.147107 -0.158594 0.225494 0.084038 0.036242 -0.725673 -0.309714 -0.483477
were -0.164263 0.005982 0.057699 0.152528 0.757677 0.482207 -0.309544 -0.028962 -0.228982 0.348959 0.309578 0.213035 -0.423329 -0.231364 -0.413127 0.298485 0.415440 0.637605 -0.506491 -0.046580 -0.671410 -0.598508 -0.088086 -0.991985 0.374565 0.010194 -0.024078 -0.005684 -0.400393 -0.119432 -1.046652 1.202605 0.149156 0.295301 -0.934298 0.454883 0.357382 0.625392 -0.390194 0.340943 0.435795 -0.997163 -0.185511 0.583021 -0.351371 0.140812 0.155541 -1.062385 -0.837272 -0.614798
proud -0.331993 -0.218724 -0.139876 0.729540 0.151438 -0.384352 -0.290030 -0.266403 0.236632 0.478166 0.128261 0.136348 -0.186555 0.102381 -0.435580 0.376198 -0.192739 0.335033 -0.160540 -0.383963 -0.293271 -0.104695 -0.482745 -0.696858 -0.040428 -0.463639 0.040751 0.074286 -0.517692 -0.531981 -0.080040 0.528609 0.132233 0.104049 0.164274 0.225760 -0.186237 0.281555 -0.265605 -0.012255 0.402537 0.186248 0.081648 -0.010653 -0.079942 -0.132998 0.181053 -0.532802 -0.296196 -0.170514
to -0.445734 -0.912494 0.252572 0.417915 -0.387495 -0.044595 -0.536247 -0.879959 0.046615 0.087132 -0.723989 0.104461 -0.350768 0.080199 -1.171748 0.922474 0.710684 0.807119 0.453356 0.111285 -0.238898 0.188737 -0.718368 -1.345014 0.049963 -0.513055 0.191559 0.865793 -1.102789 -0.810733 0.001543 0.591003 -0.059168 0.300379 -0.446712 -0.089356 0.255484 -0.119372 -0.006989 0.267689 0.664037 -0.091191 0.257550 -0.411204 -0.288274 0.180571 0.256102 -0.129566 -0.815888 0.328861
say -0.009565 -0.419483 -0.272970 1.124700 0.111242 -0.011240 0.144863 -0.236223 0.091114 0.385576 -0.163605 0.427260 -0.301388 -0.026077 -0.629105 0.531603 0.348930 0.497903 -0.208323 -0.457455 -0.504436 0.059883 -0.792891 -0.605785 0.521854 -0.470313 0.196029 0.344091 -0.649035 -1.274348 -0.185523 0.750007 0.014020 -0.064652 -0.034976 0.214852 0.428295 0.342299 -0.633965 0.276263 0.266191 -0.137428 0.446015 -0.527418 -0.313731 -0.431913 0.148061 -0.841540 -0.499355 -0.922393
that -0.402668 -0.490815 0.222395 0.985629 0.350469 0.126516 -0.506883 0.274577 0.905150 0.399296 -0.187766 0.302207 0.452626 -0.070408 -0.794762 0.696112 -0.186670 0.424579 0.024433 -0.598517 -0.314603 -0.674716 0.060667 -0.414299 0.064096 0.154873 0.245708 -0.213721 -0.621220 -1.010210 -0.079399 0.123873 -0.233311 0.524488 0.010598 0.490560 0.210798 0.443470 -0.440226 0.195840 1.112322 -0.444145 0.129108 0.057943 0.055266 -0.329601 0.048965 -0.256178 -0.487005 -0.233261
they -0.741553 -0.479290 0.126376 0.573744 0.516971 0.424081 -0.766860 -0.369263 0.632663 -0.609054 -0.077784 -0.131090 -0.513662 0.579884 -0.736578 -0.005879 0.183791 0.083864 -0.343035 -1.044884 -0.199394 -0.269225 -0.194119 -0.436939 -0.082965 -0.254923 -0.049703 0.349835 -0.457222 -0.663198 -0.788491 1.076842 -0.566960 0.399183 0.013300 0.797634 -0.025513 0.446481 -0.774062 -0.329162 0.459735 -0.435177 0.224793 -0.476980 0.299474 0.183681 0.740707 -0.547769 -1.439906 -1.137982
perfectly -0.294788 -0.228817 0.221764 0.552274 0.065145 -0.429785 -0.284206 -0.281296 -0.053475 0.382837 -0.070748 0.120759 -0.224397 0.046301 -0.342825 0.364350 -0.123224 0.038727 -0.060306 -0.231882 -0.180412 0.215201 -0.104684 -0.666395 0.211447 -0.257238 -0.283578 -0.463870 -0.369291 -0.258965 -0.345428 0.205516 -0.215013 0.020048 0.113479 0.060476 0.083261 0.461534 -0.317181 0.089010 0.234376 -0.240669 0.385541 0.016399 -0.147389 -0.350307 -0.118586 -0.700731 -0.416032 -0.278750
normal -0.332848 0.254350 0.525540 0.924464 -0.214377 0.177848 -0.169857 -0.322465 0.377069 0.155557 0.144879 0.248799 -0.096102 -0.511451 -0.566208 0.531354 -0.166446 0.304597 -0.036148 0.025437 -0.157659 -0.244225 -0.494021 -0.592057 0.110028 -0.180080 -0.340900 0.168454 -0.366825 -0.565983 -0.369971 0.305474 0.271766 0.416225 0.120846 0.656947 0.110817 0.005971 -0.186629 -0.095901 0.731938 -0.102237 0.261575 -0.150151 -0.076198 -0.174649 0.026114 -0.495129 -0.278527 -0.467546
thank -0.008618 -0.053276 0.164164 0.852917 -0.048747 0.097191 -0.501671 -0.522952 0.214216 0.497614 0.307744 0.278308 -0.032177 0.007826 -0.504646 0.328374 -0.383509 -0.019673 0.295973 0.178028 -0.402731 -0.196065 -0.278992 -0.880266 0.218042 -0.171953 -0.182980 0.021022 -0.684783 -0.462798 -0.284006 0.222874 -0.165218 -0.118716 0.001864 0.004432 -0.027730 0.158434 -0.318573 0.244334 0.454949 -0.012476 -0.028564 0.185125 -0.069126 -0.290394 -0.239371 -0.543651 -0.159588 -0.246480
you -0.875250 -0.338211 0.348331 1.140314 -0.064367 -0.037226 -0.783990 0.225104 0.082600 0.889508 0.306498 0.483246 0.037093 0.332656 -0.888354 0.355034 0.040623 -0.275635 0.118763 -0.782941 -0.358614 -0.286730 -0.378331 -0.764385 0.332002 -0.170722 -0.228287 0.696193 -0.493360 -1.280469 -0.357985 0.888047 -0.356675 -0.101265 -0.023873 0.440845 0.324733 -0.186355 -0.015748 0.567464 0.217997 0.112726 0.445819 -0.170478 -0.622889 0.077260 -0.411519 -0.849920 -0.384946 -0.701669
very -0.381957 0.184308 0.470185 0.808741 -0.298236 -0.085606 0.070475 -0.554130 0.701176 -0.032450 -0.136759 -0.136043 -0.143163 -0.200247 -0.356073 0.829401 0.231774 0.412359 0.212055 -0.038867 0.026588 -0.535559 -0.479118 -0.362611 0.139631 -0.238138 0.172262 0.018795 0.284818 -0.462483 -0.541404 0.405168 0.138729 0.472651 -0.032781 1.013361 -0.116557 0.508119 -0.573943 0.053501 1.039441 -0.435752 0.329857 0.084891 -0.020361 -0.760061 -0.885699 -0.477373 -0.408313 -0.729697
much -0.446426 0.042287 0.199353 0.849541 -0.030320 0.322312 -0.146858 -0.081311 0.114612 0.210962 0.281172 -0.076127 -0.081883 0.033753 -0.705048 0.340786 0.015931 0.577079 -0.794623 -0.701465 -0.481147 0.164650 -0.308455 -1.018466 -0.323551 -0.522731 -0.360797 0.518319 -0.701257 -1.173057 -0.048124 0.865224 0.333300 -0.026012 0.246806 0.539886 -0.174497 0.196414 -0.689799 0.458613 0.564870 0.001189 0.060353 -0.354136 -0.098674 -0.657721 0.408877 -0.355073 -1.138260 -0.666184
last -0.344786 0.005661 0.438813 0.897930 -0.103689 -0.270441 -0.247950 -0.088500 0.359158 0.492783 -0.064430 -0.176877 0.352280 -0.193295 -0.524502 0.636717 0.021752 -0.020822 0.115830 -0.517992 -0.139529 -0.431326 -0.248755 -0.768071 0.569012 0.047204 -0.167043 0.382307 -1.024834 -0.512290 -0.441107 -0.408949 0.106834 0.146534 -0.435764 0.223388 0.150217 0.393604 -0.849695 -0.184242 1.161602 -0.411195 -0.176618 0.194892 0.228608 -0.343211 0.218693 -0.810567 0.124199 -0.699109
people -0.488228 0.058589 0.104317 0.942670 0.020348 0.590211 -0.415716 -0.271323 0.273063 0.353465 0.023201 -0.107361 -0.031770 0.044955 -0.810279 0.490322 -0.262411 -0.359140 -0.031737 -0.489701 -0.246074 -0.716838 -0.378502 -0.840682 0.351405 -0.229207 0.167366 0.337772 -0.457281 -0.144870 -0.692710 0.526487 -0.322322 0.205424 -0.301586 0.477026 0.013154 0.002084 -0.859621 -0.161568 0.606313 -0.073294 0.314638 0.350101 -0.029395 -0.189085 0.138643 -0.684486 -0.771732 -0.085862
youd -0.355599 0.076864 -0.075680 0.914853 -0.026056 -0.064688 -0.089789 0.120937 0.457658 0.482799 0.067683 0.321960 -0.282112 -0.152474 -0.768412 0.410625 0.124431 0.082796 0.413902 -0.692613 -0.336548 -0.370124 -0.521360 -1.056961 0.326829 -0.508025 0.296385 0.307793 -0.554938 -0.677647 -0.157934 0.593274 0.117039 0.036806 0.215895 0.151344 0.710653 0.107698 -0.527756 0.440246 0.279593 -0.078828 0.366495 -0.126503 -0.258480 -0.264355 0.222503 -0.294157 -0.520555 -0.149134
expect 0.210403 -0.367596 0.213960 0.885590 -0.014408 -0.247972 -0.286809 -0.128314 0.253748 0.311405 0.385765 0.268540 -0.184038 0.184125 -1.146642 0.326224 0.157681 -0.170425 0.070073 -0.152928 -0.354425 -0.195961 -0.242785 -0.640578 0.354128 -0.411515 0.014481 0.276173 -0.954087 -0.774712 -0.431566 0.713130 0.016200 0.357455 0.308276 -0.067293 0.247507 0.191477 -0.440420 0.258485 0.675640 0.225662 0.178444 -0.205718 -0.438654 0.072486 0.177382 -0.695073 -0.048615 -0.195488
be -0.503477 0.079976 -0.846516 1.423631 0.261177 -0.551645 0.172247 -0.121220 -0.107709 -0.248796 -0.174733 0.353759 -1.075928 0.420618 -0.383028 1.005331 -0.254492 0.541609 -0.068912 -0.594197 -0.680761 -0.487570 -0.864174 -0.854786 0.240289 0.293090 0.123516 -0.165566 -1.174141 -0.539492 -0.358562 1.038971 -0.634979 -0.146046 -0.576280 0.895126 0.246547 0.461844 0.396267 0.589250 0.545479 0.241491 0.749211 -0.347497 -0.418981 -0.099192 -0.764708 -0.778390 0.144759 -0.221798
involved -0.357366 0.227547 -0.172074 0.590308 -0.060531 -0.135129 -0.248468 -0.137227 0.101055 0.236563 0.306647 0.166435 -0.329425 -0.318443 -0.467532 0.305123 0.225778 0.567268 0.043360 -0.075090 0.120818 -0.285182 -0.521091 -0.731070 0.425876 -0.377719 0.239779 -0.086084 -0.253925 -0.267837 -0.358943 0.507579 0.118203 0.509534 -0.426546 0.039105 -0.351945 0.362570 -0.134484 -0.163990 0.473790 0.104488 -0.326699 -0.459763 -0.148225 -0.378104 0.274947 0.029841 -0.065257 -0.425600
in -0.007587 0.358500 -0.117808 0.401022 -0.957707 0.359380 0.181635 -0.119385 0.099282 0.741032 -0.183077 0.070892 0.387646 0.372965 -0.537282 0.711438 -0.041702 0.418782 0.306192 -0.498435 0.214893 -0.071965 -0.335492 -0.655311 0.739644 -0.758613 -0.211232 0.251788 -0.121337 0.445677 -0.379142 0.655379 -0.158940 0.196170 -0.248199 0.542066 -0.272326 0.652129 -0.362980 0.341674 1.438582 -0.188438 -0.341321 -0.371797 -0.132595 0.430545 -0.083766 -0.143133 -0.731182 -0.545390
anything -0.648229 -0.210645 0.357791 0.890208 -0.189026 -0.290896 -0.114204 0.322535 0.742688 -0.051135 0.553423 0.291707 -0.569537 -0.012879 -0.849187 0.596527 0.132327 0.341289 -0.020458 -0.779397 -0.457868 -0.419421 -0.702889 -0.748795 0.226728 -0.071177 0.019159 0.588888 -0.634444 -1.331491 -0.304998 0.386477 0.029674 0.113235 0.172141 0.286322 0.251249 0.264262 -0.273136 0.428174 0.089829 -0.286117 -0.043585 -0.053924 -0.256300 -0.507344 -0.089982 -0.888828 -0.992119 -0.366758
strange -0.789428 -0.012722 0.140724 0.796569 0.016921 -0.029441 -0.046467 -0.477534 0.220063 0.439380 0.045670 -0.133338 -0.467624 0.049527 -0.405378 0.188220 -0.236131 0.308441 -0.240971 -0.420172 -0.358654 0.233401 -0.191549 -0.982318 -0.061034 -0.250021 -0.073413 0.232976 0.037494 -0.299679 -0.383499 0.684410 0.273042 -0.230904 0.015700 0.240829 -0.185590 0.050309 -0.321055 0.323068 0.640850 0.039482 0.178022 -0.183386 -0.003850 -0.513013 0.037208 -0.882602 -0.659363 -0.744797
or -0.068491 0.299885 -0.041733 1.100554 -0.116750 0.232331 -0.198550 0.039225 -0.228221 0.389518 0.337981 -0.071565 -0.368168 -0.155271 -1.024090 0.206533 0.278968 0.381844 -0.157838 -0.067417 -0.109686 -0.585949 -0.102814 -0.501465 0.600601 -0.341824 -0.163557 0.229866 -0.032146 -0.496238 -0.461488 0.641080 -0.185688 0.758206 0.088820 0.270246 0.365069 0.036346 -0.119947 -0.101198 0.355955 -0.107532 0.201869 -0.115792 0.003825 -0.266854 -0.350403 -0.575519 -0.368094 -0.390627
mysterious -0.200478 -0.278860 0.212910 0.327525 -0.111021 -0.321102 0.172544 -0.350734 0.228498 0.411329 -0.007968 0.190953 -0.198004 -0.284475 -0.622935 0.083710 -0.095981 0.273826 0.276743 -0.184951 -0.014992 -0.335973 -0.059922 -0.396374 0.548335 -0.135176 -0.178831 -0.094721 -0.818802 -0.194076 -0.479688 0.329429 -0.135040 0.310072 0.032191 0.487296 0.138361 0.566201 0.024319 -0.141358 0.487095 -0.272925 0.229199 0.133066 -0.200392 -0.216216 0.127525 -0.388722 -0.344141 -0.269448
because -0.025198 -0.156968 0.132090 0.799795 -0.464468 -0.073827 -0.279110 -0.374693 0.489539 0.153502 -0.061747 0.408590 -0.326551 0.334207 -0.232326 0.977548 -0.057233 0.646667 -0.379218 -0.128621 -0.407636 -0.084454 -0.319150 -0.322046 0.633773 -0.113730 0.138504 0.019406 -0.155043 -0.775048 -0.440609 0.540687 -0.035073 0.156376 -0.028586 0.139012 -0.244420 0.675017 -0.642466 0.166099 0.728474 -0.042646 0.191334 -0.358163 0.066769 -0.594431 -0.196291 -0.760956 -0.354282 -0.604747
just -0.214571 0.272076 0.207500 0.993585 -0.150810 0.040490 -0.237143 -0.332688 0.332674 0.274753 0.213798 0.596454 -0.143871 0.613581 -0.539502 0.850773 -0.314183 0.309141 -0.220098 -0.816638 -0.367959 -0.148079 0.342165 -0.929631 0.596100 -0.219599 0.187419 0.348809 -0.630309 -0.599368 0.008277 0.280143 -0.010154 0.395884 0.048611 0.233436 0.273571 0.340328 -0.389280 0.445573 0.682566 -0.356710 0.172669 -0.580034 0.150373 -0.409888 0.452228 -0.613153 -0.501108 -0.168244
didnt 0.073593 -0.176443 0.306494 1.196719 0.041895 -0.005290 -0.188900 -0.509183 0.140117 -0.013882 0.008635 0.625523 -0.014007 0.051715 -0.744315 0.545946 -0.217186 0.519972 0.869501 -0.489165 -0.586997 0.100111 -0.561986 -0.830298 0.450534 0.009214 0.093422 0.565446 -0.598883 -1.033697 -0.281691 0.886365 0.040221 -0.272510 0.536710 -0.352442 0.624160 0.326276 -0.245093 0.458914 0.845637 -0.015442 0.153625 0.333990 0.117471 0.001790 0.509006 -0.667091 -0.673313 -0.771613
hold -0.391384 0.005402 -0.114187 0.621062 0.050618 -0.374262 -0.063598 -0.298534 -0.009039 0.536584 0.078946 0.161585 -0.159526 -0.189807 -0.808235 0.763439 -0.054858 0.515394 -0.078758 -0.326199 -0.286065 -0.041482 -0.066148 -0.929376 0.466316 -0.440295 0.187258 -0.064600 -0.576597 -0.241754 -0.146386 0.157237 0.168510 -0.164846 -0.377152 0.227321 0.136413 0.167674 -0.323988 0.078418 0.481221 0.250321 -0.123776 -0.474035 -0.382461 -0.204433 -0.020518 -0.355895 -0.456727 -0.110728
with -0.010953 0.030574 0.237282 0.608470 0.287668 0.104260 0.142664 -0.423143 -0.076270 0.694128 -0.606518 0.380077 -0.244643 -0.161240 -0.468604 0.819223 0.306526 0.410253 0.372857 -0.442090 -0.136329 -0.236314 -0.461762 -0.831398 0.118256 -0.706382 0.145643 -0.386978 0.056869 0.180606 -0.193604 0.247349 0.363106 0.634786 0.126164 0.616346 0.032756 0.540851 -0.310654 0.068412 1.079180 -0.312597 -0.151579 0.099074 -0.443802 0.255064 0.316447 -0.688933 -0.175336 -0.113376
such -0.001771 0.206642 0.623702 1.288714 0.122132 -0.080859 -0.032938 -0.014370 0.134703 0.692650 0.590395 -0.099824 -0.041247 0.520125 -0.814914 0.302271 -0.245686 0.208350 -0.070024 -0.129044 -0.005446 -0.362046 -0.398713 -1.107334 0.423212 -0.305828 -0.144212 0.125759 -0.280095 -0.522608 -0.447729 0.466133 -0.069003 0.415313 0.080105 0.114714 -0.073476 0.081675 -0.405731 0.511705 0.491751 -0.051830 0.211575 -0.085354 -0.204971 -0.602367 0.192815 -0.269128 -0.325740 -0.087751
nonsense 0.237783 -0.430951 -0.188149 0.263649 -0.358919 -0.535405 -0.299246 -0.272649 0.398487 0.239595 0.345097 -0.060823 -0.202460 0.037372 -0.621844 0.263394 0.312679 0.100621 -0.005637 0.103487 0.177973 -0.280484 -0.072442 -0.401715 0.359848 -0.087745 0.066890 -0.175138 -0.113537 -0.509436 -0.439054 0.067468 0.339492 0.003886 -0.238538 0.343639 0.243152 0.546850 -0.177149 0.102928 0.417376 0.172225 0.020754 -0.074294 -0.107994 -0.221130 0.324764 -0.509120 -0.332521 -0.155858
was -0.372155 0.349160 0.065263 0.725886 0.765017 0.562306 -0.380335 0.261882 0.581910 0.576576 -0.463456 0.495499 -0.239627 -0.323032 -0.376045 0.287668 -0.315591 1.025327 0.363243 -0.262997 0.047141 -0.273173 -0.239147 -0.974831 0.991715 -0.344126 0.189709 0.146644 -0.628870 0.153938 -0.552616 0.498913 0.906668 0.344198 -0.980120 0.344166 0.043368 0.385548 0.175538 0.571051 0.596563 -0.965885 0.060323 -0.206868 0.481342 -0.454300 -0.363456 -0.596116 -0.353323 -0.814633
director -0.328708 -0.301961 -0.275404 0.118996 -0.530369 -0.359446 -0.224642 -0.084209 0.313191 -0.028788 -0.134812 0.100452 -0.363135 0.137159 -0.678366 0.147892 -0.140351 0.122729 0.180343 -0.271011 0.009540 -0.340263 -0.597213 -0.253133 0.420185 -0.421725 -0.020580 -0.156877 -0.392767 -0.248645 -0.241848 0.263238 -0.000587 -0.127808 0.043273 0.043659 -0.039734 -0.005469 -0.114718 -0.031046 0.459146 -0.183788 -0.358492 -0.004360 0.110853 0.102034 -0.031972 -0.379339 -0.246502 -0.344011
a 0.156643 0.480319 1.105158 0.587090 0.011156 -0.047759 -0.292583 -0.900864 0.359716 0.214825 0.555388 -0.613663 0.436894 -0.173712 -1.058218 -0.028869 0.390715 0.312219 0.291153 -0.500098 0.272237 -0.384383 -0.717454 -0.826857 0.299330 -0.150392 -0.069964 -0.434673 -0.374778 0.002270 0.322055 0.469818 0.343297 0.706588 -0.042900 0.502098 -0.164763 -0.049039 -0.231670 0.584721 1.328448 -0.534908 -0.137548 -0.178017 -0.016870 -0.671484 -0.145699 -0.628927 -0.229582 -0.356718
firm -0.057993 0.455974 0.271055 0.081876 -0.109913 -0.364874 -0.162489 0.051026 0.268903 0.383234 0.292946 0.004014 -0.105506 -0.217168 -0.429489 0.230508 -0.198801 0.290231 -0.148119 -0.151975 -0.104059 0.063774 -0.154298 -0.516278 0.001940 0.119702 0.073282 -0.427598 0.032932 -0.022696 -0.494315 0.431208 0.343857 -0.106274 -0.187093 0.269772 0.101068 0.264541 -0.218386 -0.031627 0.130067 0.148933 -0.241951 -0.154599 0.114276 -0.494661 0.349967 -0.124672 0.145050 -0.330673
called -0.198542 0.149608 0.195283 0.829752 0.007546 -0.266380 -0.539424 -0.444739 0.676116 0.622568 0.176477 0.243379 0.020656 -0.140431 -0.640182 0.960051 -0.346160 0.291860 0.270785 -0.192746 -0.165496 -0.265828 0.065638 -0.685287 -0.023247 -0.414205 -0.003748 0.270003 -0.497308 -0.400541 -0.242333 0.329471 0.348287 0.427037 -0.275936 0.073358 0.223885 0.115064 -0.249069 -0.174006 0.439004 0.099859 0.088653 -0.180978 0.100086 -0.062450 -0.116256 -0.306264 -0.436575 -0.489435
grunnings -0.076808 0.143585 -0.305100 0.232576 -0.050767 -0.345705 -0.167810 -0.498918 0.263061 0.223496 0.008537 0.017703 -0.026030 -0.108850 -0.255384 0.008361 -0.166581 0.095120 -0.075195 -0.070294 0.386335 0.356402 -0.185397 -0.523335 0.460116 -0.364679 -0.342720 -0.113369 -0.167869 -0.117844 -0.110172 -0.046133 -0.120359 0.049986 -0.175580 0.063908 0.199485 -0.062057 -0.321077 0.076391 0.511745 0.021840 -0.036133 -0.250485 0.202309 -0.153354 0.268377 -0.520090 -0.062505 0.241901
which -0.197178 -0.142098 0.258729 0.533540 -0.270543 -0.010902 -0.426544 0.263444 0.334325 0.525064 -0.263024 0.028691 -0.027910 0.333178 -0.671593 0.686717 0.237089 0.318499 -0.108451 -0.466226 -0.384431 -0.391442 -0.074454 -0.641454 0.711925 -0.610535 -0.144393 -0.229203 0.018127 -0.520156 -0.134953 0.311951 0.123502 0.068090 -0.562199 0.502628 -0.111987 0.439124 -0.068599 -0.425409 0.877668 -0.090120 0.094831 -0.348451 0.308068 -0.398924 -0.106988 -0.052208 -0.392085 -0.213531
made -0.196595 0.217864 0.095768 0.714815 -0.198801 -0.261586 -0.343674 -0.345476 0.453980 0.307008 -0.123739 -0.118407 -0.030662 0.379118 -0.811890 0.808984 -0.073021 0.489130 0.414252 -0.286370 -0.131453 -0.460887 -0.575744 -1.098957 0.417943 -0.036320 0.029675 0.132105 -0.068316 -0.314809 -0.448639 0.553750 0.580205 0.607954 -0.405200 -0.001762 0.008983 0.194828 -0.415062 -0.023535 0.512633 0.067915 -0.385839 0.397429 -0.196021 -0.545991 -0.031536 -0.420897 -0.398932 -0.658092
drills -0.429666 -0.106288 0.049748 0.415156 -0.205539 0.114472 0.031109 -0.208834 -0.020006 0.269316 0.008731 -0.066131 -0.419496 0.002769 -0.730524 0.507038 0.037553 0.046386 0.060971 -0.405349 -0.174877 -0.308059 -0.322170 -0.603011 0.379181 -0.099459 -0.427230 -0.062304 -0.312291 -0.388753 -0.582514 0.280625 0.321764 0.135722 -0.114798 0.064424 -0.025465 0.301964 0.066653 -0.074948 0.395083 0.036117 0.169120 -0.331104 0.061829 -0.334947 -0.031138 -0.771320 -0.287739 -0.298403
he -0.924761 -0.143141 0.372502 0.812150 -0.033124 0.636236 -0.701938 -0.071897 0.917213 -0.171145 0.132494 0.786820 -0.060491 0.285628 -0.777985 0.153466 0.148250 0.719283 -0.478900 -0.861848 0.162230 0.165362 -0.469195 -0.804851 0.720824 -0.122573 -0.379275 -0.072964 -0.439182 -0.745555 -0.319117 0.171500 -0.081372 0.147468 0.454729 -0.186222 -0.353234 0.220901 -0.168736 -0.156415 0.451067 -0.115361 0.636969 -0.555857 0.687368 0.089777 -0.172929 -0.476559 -0.808459 -0.759429
big -0.809662 0.360024 0.079091 0.658584 -0.098462 -0.845669 0.050809 -0.367695 0.104404 0.135566 0.283716 -0.132486 -0.079780 -0.132902 -0.526970 0.494432 -0.175030 0.862917 -0.320784 -0.306100 -0.381175 -0.233475 -0.307957 -0.627690 0.761716 -0.623611 0.018708 0.277245 -0.105220 -0.168256 -0.382830 0.414375 0.107252 0.356906 0.095167 0.362086 -0.193116 0.142074 -0.373719 0.164916 0.653053 -0.050770 0.069908 -0.106954 -0.134789 -0.427524 0.021440 -0.542768 -0.320100 -0.121484
beefy -0.094116 0.411810 -0.010059 0.210990 -0.093694 -0.028885 -0.031895 -0.280863 0.100849 0.276837 0.478534 0.066890 -0.201334 -0.162898 -0.090610 0.197920 0.240922 0.253120 0.064748 0.023275 0.311236 -0.063325 -0.154607 -0.499384 -0.043447 0.093391 0.056926 -0.157177 0.242184 0.063270 -0.386523 -0.196362 0.056853 -0.153082 -0.005046 0.080073 0.267008 0.074870 -0.114097 0.217900 0.569787 0.161800 0.158383 0.198012 0.099886 -0.055507 -0.052084 -0.489388 -0.323101 0.013149
man -0.653199 0.167944 0.086536 0.946102 -0.176070 -0.251036 -0.138977 -0.336658 0.117041 0.483598 0.260062 -0.150145 -0.135111 -0.191969 -0.368721 0.498070 -0.122905 -0.037631 0.134685 -0.026876 -0.050379 -0.279058 -0.561115 -0.871912 0.338366 -0.215185 -0.003354 0.020550 -0.102502 -0.309901 -0.239902 0.117063 0.194960 0.343990 0.043509 0.814636 0.179810 0.368456 -0.540364 -0.177380 0.614602 -0.427488 -0.154803 -0.168897 -0.451277 -0.113943 0.265480 -0.720445 -0.587966 -0.387359
hardly 0.132213 0.348917 -0.007690 0.692260 0.192362 -0.224542 -0.092283 0.279874 0.850029 0.265387 0.124323 0.265898 -0.165600 0.181493 -0.782807 0.674737 -0.341466 0.668307 -0.150758 -0.181272 0.006374 -0.285559 -0.113089 -0.730120 0.124187 -0.169894 0.140797 -0.226745 -0.629218 -0.632414 -0.761907 0.149164 0.080003 0.265059 -0.025669 0.052329 0.053804 0.006375 -0.638452 0.037295 0.441930 0.208205 0.645136 0.166298 -0.014625 -0.420921 0.135814 -0.521859 -0.642363 -0.516583
any -0.372881 0.467010 0.514754 0.415004 -0.363037 -0.159159 0.112998 -0.012742 0.814435 0.619540 -0.075934 -0.030996 -0.377983 -0.039588 -0.713169 0.909789 0.438465 -0.098377 0.054123 -0.724539 -0.374553 -0.251663 -0.435418 -1.023429 -0.002160 -0.050090 0.096669 0.090010 -0.431613 -0.702614 0.002484 0.465170 -0.190348 0.074324 -0.097762 0.573691 0.407681 -0.195071 -0.448587 0.240140 0.355386 0.032268 -0.067760 0.012520 -0.024569 -0.283003 -0.095040 -0.641251 -0.524940 -0.329023
neck -0.445319 0.219004 0.397741 0.043615 -0.403227 0.094348 -0.036855 -0.509334 0.117013 0.419038 -0.132680 0.203908 -0.153766 -0.014217 -0.718367 0.716004 -0.326320 0.395132 -0.454141 -0.709803 -0.386754 -0.132415 -0.157322 -0.967546 0.517429 0.034338 -0.238661 -0.380936 -0.278978 -0.425840 -0.410189 0.357669 0.286637 0.164689 -0.049396 0.237061 0.225378 0.460942 0.081026 -0.001738 0.575819 0.168873 -0.101870 -0.310992 -0.242914 0.165584 0.361775 -0.606257 -0.656566 -0.388591
although -0.184889 -0.353737 0.311025 0.592565 -0.171460 -0.220738 -0.222078 0.089488 0.602461 0.322617 0.166028 0.035826 -0.178993 0.009963 -0.599543 0.628191 -0.315937 -0.233943 -0.178505 -0.004208 0.095104 -0.181505 -0.237895 -0.726137 0.345068 -0.138893 0.102333 -0.175054 -0.454053 -0.635540 -0.713482 0.340489 -0.200724 0.466264 0.129625 0.378846 0.003539 0.311000 -0.168984 0.250534 0.274753 0.208644 0.193818 -0.299226 0.307764 -0.199762 0.183353 -0.582060 -0.361485 -0.534255
did -0.288315 -0.278169 0.246516 0.687789 -0.005009 0.084491 0.110156 -0.076641 0.378000 0.262142 0.445899 0.413351 -0.163651 -0.125325 -0.894536 0.381301 -0.415357 0.430860 0.260348 -0.240000 -0.271964 0.210804 -0.647702 -0.876047 0.418113 0.255506 -0.064867 0.607724 -0.369890 -0.780697 -0.709494 0.913405 0.150254 0.663577 0.398745 0.200572 0.686942 -0.033535 -0.446219 0.479572 0.851564 -0.099824 -0.055508 0.106577 -0.209051 0.068140 0.099546 -0.758102 -0.538845 -1.020616
have -0.185145 -0.201490 -0.153029 1.378950 0.206671 -0.083917 0.234623 -0.380732 -0.181354 0.134850 -0.104377 0.305879 -0.255540 0.771747 -0.760713 0.886903 -0.450789 0.261172 -0.131763 -0.495159 -1.051641 -0.395933 -1.190380 -1.105051 0.301970 -0.064654 0.027933 -0.277301 -0.661769 -0.805604 -0.089942 0.714626 -1.000014 0.150612 0.475882 -0.074227 -0.012309 0.905966 -0.397107 0.171795 0.660471 0.183748 0.271710 -0.119645 -0.409111 -0.497858 -0.505838 -0.538368 -0.214486 -0.101134
large -0.215586 0.584652 0.761219 0.759732 -0.162888 -0.285291 -0.406603 -0.694457 0.144169 0.439321 0.210316 -0.395580 -0.378823 -0.246471 -0.945893 0.375975 -0.288112 0.465982 -0.213481 -0.011422 0.584382 -0.465547 -0.492201 -0.926584 -0.142226 0.014531 0.113576 -0.545191 -0.311219 0.143292 -0.156401 0.637550 0.293937 0.152089 -0.405895 0.705418 -0.225789 0.417666 -0.278482 -0.160333 0.802419 -0.328599 -0.158864 -0.222378 -0.399985 -0.396718 -0.130933 -0.262030 -0.272147 -0.180965
mustache -0.286133 0.117065 -0.030516 0.352442 -0.176541 -0.690010 -0.271015 -0.443590 0.519119 0.236515 0.050591 0.242462 -0.169092 -0.097568 -0.490549 0.179851 -0.180903 0.363759 0.045401 -0.141268 -0.195832 -0.299489 -0.245772 -0.746116 0.313382 -0.356621 0.185648 0.016027 -0.385336 -0.438476 -0.575736 0.250336 0.084996 -0.198663 -0.108493 0.067347 0.234899 0.450065 -0.188433 -0.289105 0.120316 0.042407 -0.016088 0.084840 -0.192881 -0.319903 0.195833 -0.410710 -0.277387 -0.483684
thin -0.522210 -0.137959 0.317354 0.894032 -0.142184 -0.186728 0.126832 -0.620576 0.329476 0.470428 0.001663 0.218082 -0.055295 -0.227967 -0.248784 0.551590 -0.120290 0.227387 -0.132185 -0.304498 -0.054025 -0.307900 -0.023584 -0.718271 0.277224 -0.353359 0.038364 -0.307265 -0.114235 -0.309140 -0.680579 0.228059 0.455259 -0.153365 0.231191 0.105578 0.083292 0.287477 0.115617 -0.030817 0.874631 -0.559733 -0.078776 -0.036732 -0.038370 -0.389523 -0.164675 -0.271295 -0.672314 -0.283768
blonde -0.026881 -0.096041 -0.065906 0.227582 -0.444998 -0.162991 -0.323787 0.073084 0.194093 -0.006767 -0.027246 0.075242 -0.185438 -0.127312 -0.511508 -0.179219 -0.050724 0.219287 0.235627 -0.388218 0.006903 -0.261985 0.157148 -0.399788 0.131875 -0.547813 0.190832 -0.139139 -0.569104 -0.315440 -0.295995 0.200742 -0.008563 -0.314421 -0.068374 -0.112918 -0.152402 0.165205 -0.171578 0.114849 0.385262 -0.335367 0.110593 -0.057711 -0.151842 -0.206638 0.128822 -0.392459 -0.540177 -0.213198
had -0.069366 0.667425 0.344725 0.594587 0.405443 0.377850 0.001443 -0.111798 0.779287 0.162974 -0.040542 -0.360132 0.110757 0.706763 -0.973271 1.018677 -0.530103 0.828328 0.299233 -0.500311 -0.427160 -0.023326 -0.392458 -1.467609 -0.422856 0.098472 -0.292049 0.160967 -0.505683 -0.181582 -1.037042 0.352843 -0.448800 0.856127 -0.254713 -0.753442 -0.158090 0.694728 -0.439295 0.541121 0.515718 -0.142932 0.010646 -0.709347 0.291893 -0.324223 0.149050 -0.318427 -0.776785 -0.139732
nearly -0.089988 0.397161 0.186933 0.587745 -0.157646 -0.464329 -0.126943 -0.144510 -0.008320 0.463522 0.076415 0.378880 0.223555 -0.164363 -0.416509 0.532059 0.094354 0.545671 -0.114734 -0.262531 -0.522902 -0.313784 -0.259171 -0.355920 0.325753 -0.001102 -0.157796 0.064991 -0.839950 -1.014108 -0.706198 0.375698 0.223078 0.276967 0.286475 0.367556 -0.321420 0.595293 -0.267296 -0.531593 0.427623 0.125351 0.358525 -0.077446 -0.185834 -0.314313 -0.014763 -0.511060 -0.189146 -0.277580
twice -0.317310 -0.152576 0.155252 0.628238 -0.451601 0.290838 -0.240993 -0.328065 0.446514 0.441828 0.287964 -0.052825 -0.544799 -0.179254 -0.344133 0.292695 0.028108 0.443868 -0.304281 -0.719604 -0.137942 -0.241810 -0.049779 -0.436026 0.533223 -0.589255 0.031954 -0.135415 -0.379199 -0.533122 -0.514311 0.388098 0.164342 0.130422 -0.090336 -0.118804 0.494546 0.184776 -0.025586 -0.238597 0.769036 -0.062305 -0.035821 -0.165004 -0.165741 -0.419555 -0.306042 -0.199419 -0.406138 -0.467724
usual -0.652575 0.209674 0.029769 0.834304 -0.176391 -0.230006 -0.027807 -0.483365 0.301854 0.257858 -0.051455 0.218634 -0.525242 -0.141092 -0.718914 0.508398 -0.528029 0.509086 -0.480196 -0.226114 -0.150414 -0.066577 0.149074 -0.727114 -0.073292 -0.379974 -0.330782 0.020711 -0.340230 -0.028076 -0.727679 0.103374 0.130745 0.377610 0.129105 0.426595 0.324924 0.440199 -0.211702 -0.304433 0.246900 -0.445343 0.350706 0.146121 0.217890 -0.586742 -0.042918 -0.236771 -0.650090 -0.465298
amount -0.352161 0.071602 -0.080495 0.173378 -0.402473 -0.306776 0.017772 -0.100354 0.096214 0.125485 0.455419 0.070431 -0.103279 -0.074468 -0.110595 0.076898 0.271626 0.266241 -0.037402 -0.049262 0.039663 -0.172281 -0.186486 -0.333844 0.099112 -0.109613 -0.160796 -0.358712 -0.271127 0.050223 -0.202016 0.198911 -0.282147 -0.069091 0.020820 0.110312 -0.046682 0.193703 0.118460 -0.078789 0.017176 0.193696 -0.152485 -0.097973 0.118754 -0.172675 0.182715 -0.317620 -0.246304 0.149756
came -0.314313 0.063416 0.383057 0.259120 0.097201 -0.209419 -0.021199 -0.424493 0.648469 -0.170348 -0.058940 0.516459 -0.473495 -0.237852 -0.405356 0.161044 0.029536 0.042457 0.292819 -0.387273 0.021643 -0.560240 -0.593093 -1.055485 0.675861 -0.163760 -0.314646 -0.351651 -0.757997 -0.336472 -0.512675 0.288005 0.526826 0.513837 -0.426933 0.446057 0.088967 0.535820 -0.351287 -0.184176 0.672290 -0.082619 0.117294 0.356744 -0.206178 -0.158788 0.081342 -0.381056 -0.339715 -0.586556
useful -0.096559 0.013843 0.632532 0.722944 -0.028767 0.184935 -0.074260 0.125264 0.571985 0.374008 -0.273129 -0.118477 -0.058449 -0.369246 -0.595842 0.739272 -0.078181 0.328798 0.326378 -0.299641 -0.152624 0.352469 -0.335324 -0.807301 0.439081 -0.170917 0.346822 -0.078139 -0.473260 -0.574164 -0.253289 -0.091635 -0.178113 -0.007418 0.351846 0.442225 0.538696 0.317210 0.052061 -0.052401 0.246798 -0.041624 0.116794 0.023807 -0.189195 0.079295 -0.007266 -0.314519 -0.242207 -0.500872
as -0.391908 0.149290 0.105885 1.043201 0.265316 0.463370 -0.109587 -0.526039 0.316546 -0.558195 -0.068620 0.448920 -0.514879 -0.136840 -0.382463 0.557754 -0.349165 0.575742 -0.423391 -0.620037 -0.010732 0.448517 -0.269712 0.128290 -0.243541 -1.495238 -0.468815 0.308339 -0.264202 -0.090811 -0.908098 0.535727 0.645504 0.553891 0.801161 0.475750 -0.128836 0.872225 -0.567598 0.509399 1.258683 0.038207 0.422017 -0.329517 0.248431 0.111641 0.221504 -0.536985 -1.031391 -0.784973
she -0.679689 0.197686 0.300331 0.981273 -0.101966 0.273306 -0.968791 -0.336017 0.651258 0.107472 -0.201585 0.204670 -0.366314 0.120738 -0.612263 0.213305 0.084077 0.343328 -0.199825 -0.371303 -0.127799 -0.041463 -0.097983 -0.787925 0.591557 -0.361032 -0.016937 0.622037 -0.677023 -0.334687 -0.260498 0.420732 -0.365789 0.099137 0.508904 -0.326465 -0.457929 0.608592 -0.778585 0.049442 0.434367 -0.301978 -0.037679 -0.390825 0.141667 -0.298213 -0.160450 -0.645095 -0.637306 -0.435694
spent 0.015857 0.006580 0.093934 0.733408 -0.321358 -0.126245 0.109440 -0.472245 0.103602 0.397050 -0.115217 0.119459 0.303331 -0.281110 -0.604126 0.644513 -0.323656 0.521569 -0.059265 -0.434789 -0.064045 -0.234892 -0.102927 -0.707541 0.335915 -0.368847 -0.084294 0.000526 -0.110331 -0.435256 -0.309219 0.373230 0.436949 0.246553 0.319049 0.417720 0.063590 0.226930 -0.749766 -0.048984 0.616194 0.116862 0.092377 -0.309188 0.145941 0.243254 0.092474 -0.649978 -0.340648 -0.937170
so -0.018264 -0.084176 0.636757 1.141494 0.039974 0.145609 -0.109964 -0.368801 0.426547 0.122028 0.006837 0.613780 -0.243190 0.128138 -0.461185 0.854799 0.477339 0.109348 -0.098336 -0.736633 -0.273543 -0.394544 -0.028448 -0.322393 0.283306 -0.472834 0.045272 0.197289 0.182712 -1.367052 -0.909072 0.315479 0.248637 0.547797 0.163837 0.018309 -0.068225 0.419011 -0.549666 0.280987 0.324531 -0.161703 -0.143798 -0.298260 0.233984 -0.243972 -0.139295 -0.698358 -1.000041 -0.361929
her -0.060418 0.289661 0.873085 0.192152 -0.626767 -0.252185 -0.507414 0.125777 0.771763 0.129713 -0.742991 -0.216529 -0.287120 -0.096410 -0.676041 0.548957 0.062988 -0.203755 0.267241 -0.982091 -0.375955 0.076922 -0.082046 -0.758604 0.473520 -0.405216 -0.448437 -0.237642 -0.630156 -0.129773 -0.583992 0.498629 0.696365 -0.423130 0.172191 0.061901 -0.129359 0.419480 -0.349002 0.637563 0.919235 -0.019955 0.252920 -0.195883 -0.147927 0.168499 -0.335765 -0.849906 -0.385626 0.058174
time -0.770619 0.245627 0.026613 0.820157 -0.239563 -0.124324 0.035946 -0.410343 0.360501 0.122680 0.287178 0.100189 -0.215652 0.234084 -0.484066 0.868455 0.083454 0.867184 0.132556 -0.316103 -0.361214 -0.295066 0.025556 -0.497857 0.375492 -0.191674 0.016076 0.475294 -0.525261 -0.736825 -0.406906 0.116726 0.314120 0.172799 -0.585058 0.561018 0.568342 0.259150 -0.752802 0.488012 0.848960 -0.286250 0.463194 -0.288485 -0.258126 -0.067998 -0.181341 -0.845480 -0.551263 -0.419319
craning -0.174812 -0.122207 0.235717 0.449832 0.158804 -0.041892 0.027797 0.121445 0.019769 -0.093343 0.155529 0.269244 0.141107 0.032182 -0.596458 0.443914 -0.025802 0.033426 -0.260260 -0.485500 0.246234 -0.152291 -0.453471 -0.700180 0.155326 0.053714 0.177137 -0.447627 -0.289261 -0.027348 -0.421416 0.176879 -0.240037 -0.164700 0.030530 -0.117105 0.120315 -0.154932 -0.018870 -0.151339 0.669974 -0.148070 -0.195889 -0.098703 0.142480 -0.026134 0.283059 -0.348861 -0.070292 -0.157292
over -0.516139 0.098380 0.413756 0.742358 -0.678860 -0.215906 -0.389444 -0.424877 0.401334 -0.123077 -0.773568 0.353538 0.069387 -0.028427 -0.798398 0.556695 0.125295 -0.064203 0.044715 -0.817353 -0.535803 0.049947 -0.130854 -0.555805 0.563272 -0.850720 0.095864 0.119968 0.415211 -0.439295 -0.862314 0.242253 0.536615 -0.129253 -0.603718 0.049812 -0.406673 0.096058 -0.046760 -0.451799 1.186844 -0.390876 0.067101 0.022121 0.357861 0.605866 0.133717 -0.475973 -0.353315 -0.217962
garden -0.574436 -0.090831 -0.075849 0.372712 -0.039222 -0.455106 -0.303321 -0.130179 0.361463 0.747459 0.344249 0.386100 -0.346369 -0.469718 -0.253560 0.537727 -0.250482 0.280215 -0.203853 -0.157307 -0.311059 -0.159878 -0.301489 -0.322752 0.541329 -0.247905 -0.281842 -0.206549 -0.792112 -0.465930 -0.694891 0.034599 -0.287278 0.160251 -0.308767 0.514799 -0.467499 0.358632 -0.031149 -0.155270 0.558902 0.185704 -0.398625 -0.218042 -0.199899 -0.075584 0.198273 0.055861 -0.462723 -0.339217
fences -0.084347 0.583027 0.199695 0.180187 -0.481363 -0.417159 0.143308 0.139403 0.494785 0.383839 0.137893 -0.018503 -0.022100 -0.160660 -0.261638 0.035784 -0.492319 -0.175178 0.013498 0.364667 -0.208861 0.223239 -0.067154 0.114305 0.324136 0.303388 0.028727 0.244924 -0.438053 -0.381032 -0.342771 -0.144527 0.190717 -0.139519 -0.281915 0.265773 0.022489 0.350527 -0.187157 -0.012653 0.132834 0.086154 0.018519 -0.257694 0.134319 0.003891 -0.098854 -0.383653 -0.309206 0.102269
spying -0.299761 0.000140 -0.045610 0.111474 0.091509 -0.038961 0.035596 -0.669470 0.237068 0.460237 0.060529 0.060027 -0.098156 -0.146126 -0.525554 0.158067 -0.002526 0.209330 -0.102581 -0.242220 -0.146098 -0.083273 0.008004 -0.644505 0.208831 -0.212056 0.026451 -0.142214 -0.605200 -0.471414 -0.354859 -0.091838 0.357918 0.089090 0.008722 0.164602 -0.045012 0.489118 0.140338 -0.011923 0.482483 0.305498 0.282381 0.355312 0.069021 -0.213312 -0.128821 -0.160590 -0.306634 -0.173921
on -0.017040 -0.319374 -0.005323 0.458933 0.002683 -0.165017 -0.854606 -0.694102 0.484277 0.720987 -0.234287 0.173555 0.246967 0.448461 -0.721079 0.407228 0.046042 0.004315 -0.147090 -0.725108 -0.249975 0.684598 -0.509809 -1.322474 0.904267 -0.216238 -0.075083 0.066076 0.673682 -0.514781 0.128540 0.027057 0.257694 0.832431 -0.838691 0.509542 -0.770161 0.616502 -0.185791 -0.020873 1.120241 -0.139256 -0.578198 -0.141336 0.226451 0.530207 0.431322 -0.453025 -0.358275 -0.324361
neighbors -0.153517 -0.105300 0.296792 0.386928 -0.114763 0.162062 0.028506 -0.365102 0.218802 0.137031 -0.052381 0.010574 -0.342811 -0.028102 -0.287360 0.486409 0.171682 0.288675 0.133965 -0.331812 -0.212177 0.082500 0.037979 -0.441185 0.402943 -0.034648 -0.183773 0.010247 -0.319236 -0.561331 -0.512394 0.300253 -0.275303 0.663034 -0.164481 0.041708 0.758207 0.264041 -0.294262 -0.325935 0.490106 0.095775 -0.123179 -0.555758 0.230208 -0.042694 -0.129825 -0.200103 -0.213149 -0.376273
dursleys -0.839771 0.003412 0.354599 0.171630 -0.131041 -0.163519 -0.026267 -0.145751 0.422920 0.140987 0.256674 -0.126704 -0.670475 -0.160054 -0.316498 0.645853 -0.382511 0.286845 0.457515 -0.861406 -0.338041 -0.281970 -0.230856 -0.705620 0.442581 -0.330728 -0.263634 0.239532 -0.653164 -1.038446 -0.698304 0.265717 -0.463864 0.522088 -0.359526 0.192163 -0.281286 0.493196 -0.635138 -0.195154 0.485128 0.241638 0.092293 -0.292305 0.206828 -0.634329 0.614154 -0.541172 -0.454405 -0.556899
small -0.578760 0.432296 0.587469 0.526758 -0.259947 -0.451194 -0.012595 -0.482139 -0.019886 0.464535 -0.070086 -0.313507 -0.118964 -0.227129 -0.426137 0.291766 -0.123038 0.507281 0.250116 -0.596811 0.281704 -0.197694 0.154266 -1.070344 0.038943 -0.199329 -0.148287 -0.225499 -0.273168 -0.261032 -0.138739 0.199939 0.325189 -0.006314 0.036888 0.635663 0.067711 0.424237 -0.252515 -0.084412 0.698312 -0.326240 0.128777 -0.462352 -0.052098 -0.487953 -0.161002 -0.406534 -0.306585 -0.542561
son 0.063451 0.106018 0.189931 0.550090 -0.004391 -0.372951 -0.276350 -0.139610 0.063688 0.266955 0.414810 0.381944 -0.324517 0.027293 -0.198238 0.258885 0.069054 0.348608 0.004134 -0.100319 0.104891 0.064544 -0.249638 -0.905390 0.375442 -0.263190 0.075022 -0.353256 -0.123677 -0.762921 -0.453727 0.393486 0.200037 0.471772 0.017229 0.296895 0.161580 0.286277 -0.147508 -0.026384 0.592149 -0.066164 0.133979 -0.083320 -0.321733 -0.191378 0.131957 -0.470225 -0.197790 -0.629519
dudley -0.494668 0.318498 0.160579 0.863000 -0.121724 0.080488 -0.233080 -0.044995 0.772136 0.379872 -0.111192 -0.264404 -0.373256 0.029064 -0.494785 0.167920 0.204847 0.551881 -0.046830 -0.542974 -0.159338 -0.041975 -0.310767 -0.948994 0.247196 0.157704 -0.371475 0.304723 -0.842476 -0.504759 -0.515675 0.463488 0.422732 0.273006 -0.157060 -0.373600 -0.403890 0.209547 -0.425125 -0.496472 0.362809 -0.461871 -0.434733 -0.157071 -0.095647 -0.650794 0.249033 -0.642222 -0.800383 -0.361479
their -0.424020 0.323260 0.507396 0.052091 -0.217578 -0.364763 -0.654636 0.191798 0.384222 0.187679 -0.266837 -0.026080 -0.781210 0.006299 -0.675228 -0.238077 0.632988 -0.135846 -0.183137 -0.882184 0.051320 -0.226882 -0.245895 -0.494428 0.085982 -0.372554 -0.250459 -0.057018 -0.485046 0.147781 -0.933421 0.578868 0.293690 0.908654 -0.326288 1.034324 -0.325069 0.184601 -0.213717 0.608936 0.908820 -0.229041 -0.240336 -0.226056 0.311676 0.591158 0.057208 -0.829275 -0.978008 -0.304143
opinion -0.413105 -0.067820 -0.060672 0.500080 -0.154309 -0.230859 -0.341092 -0.070462 0.213239 0.319405 0.337619 -0.080153 -0.266752 -0.194956 -0.244687 0.227451 -0.156859 0.138847 -0.082399 -0.188670 -0.035948 -0.310792 -0.209130 -0.446423 0.343005 -0.300337 -0.207942 -0.267551 -0.240873 -0.465555 -0.495282 0.319412 -0.317834 -0.119638 -0.226360 0.275167 0.102409 0.175889 -0.061753 0.199349 0.733290 -0.252008 0.203992 0.218176 0.177165 -0.140441 0.123449 -0.429178 -0.269073 -0.285921
there -0.225929 -0.603976 0.076410 0.756669 -0.279063 -0.216400 -0.465946 -0.045150 -0.205739 0.725757 0.157465 0.187971 0.335745 0.039952 -0.248526 1.038728 0.234316 0.403275 -0.099872 -0.688357 -0.089449 -1.186372 -0.296225 -0.618133 0.546650 -0.299155 -0.447214 0.454446 -0.439583 -0.678024 -0.590769 0.892768 -0.064339 0.617986 -0.197207 0.073274 0.054693 0.367118 -0.621683 -0.354267 0.460093 -0.716643 0.141850 -0.382429 0.233769 -0.836707 -0.361400 -0.829283 -0.596461 -0.248430
no -0.342419 -0.430752 0.211253 0.909943 0.166550 -0.696702 0.165389 -0.512775 0.648483 1.098635 -0.339971 0.058209 0.020457 0.286484 -0.225543 0.918157 0.242298 0.669392 0.058721 -0.882478 -0.034218 -0.894122 0.003469 -0.477502 0.365368 0.024741 0.262160 0.223355 -0.261653 -1.142224 -0.194182 0.362504 0.134208 0.247376 -0.233166 0.164240 -0.278685 -0.195832 0.022441 0.587898 0.693453 -0.378595 0.528852 -0.469359 0.518311 -0.191741 -0.668552 -1.503922 0.103261 -0.460968
finer -0.011820 0.170938 -0.257744 0.406458 0.151606 -0.220974 -0.228058 -0.135713 0.399078 0.441579 -0.124395 -0.012782 0.142178 0.032860 -0.387550 0.214397 -0.010044 0.335364 -0.378017 -0.179137 0.050207 0.223594 -0.136776 -0.405725 0.024300 -0.064922 -0.057783 0.089146 -0.246113 -0.189259 -0.413453 0.184913 -0.022582 -0.129853 -0.254723 0.412478 0.079167 0.032020 -0.070215 -0.150068 0.151485 0.019750 0.078894 -0.077604 0.481053 -0.142101 -0.053925 -0.291656 -0.424338 -0.181070
anywhere -0.601969 -0.149937 0.011794 0.752656 -0.125865 -0.073494 -0.015432 -0.009289 0.300456 0.401071 0.341954 0.049629 0.111936 0.120320 -0.843544 0.153989 -0.283174 0.150886 0.192156 0.120502 -0.026448 0.243669 -0.008605 -0.929724 0.310885 -0.165286 0.012214 0.236818 -0.807344 -0.222549 -0.227140 0.033245 0.164837 0.158996 0.051560 0.247078 0.244418 0.347580 -0.465444 -0.311270 0.459549 -0.050259 0.014677 -0.135490 0.181005 -0.026175 -0.044890 -0.492419 -0.583597 -0.372458
everything -0.339115 -0.003757 0.024546 0.785906 -0.497004 -0.058357 -0.184727 0.195182 0.392649 0.023853 0.129090 0.326346 -0.253507 0.053111 -0.633226 0.797796 -0.286973 0.296620 -0.037769 -0.484275 -0.415874 -0.468645 0.142608 -1.029652 0.081402 -0.321173 -0.084395 0.255016 -0.631747 -0.873848 -0.242776 0.386192 0.305242 0.073138 -0.123274 0.030806 -0.078044 0.184548 -0.108475 -0.086278 0.605809 0.047069 0.122338 -0.207767 0.321130 -0.181792 -0.044116 -0.753540 -0.310443 -0.397118
wanted -0.322006 -0.164286 0.618766 1.195861 -0.138166 -0.071881 0.158858 -0.030008 0.325168 0.578606 0.312967 0.312206 -0.358440 0.251968 -0.824451 0.512955 -0.112359 0.027043 -0.054546 -0.095002 -0.467639 0.078137 -0.461355 -1.239131 0.657385 -0.199922 0.343382 0.209327 -0.994744 -0.688374 -0.286319 0.458535 0.024743 0.134730 -0.064460 0.105782 0.619893 -0.087626 -0.213250 0.874199 0.386124 -0.111333 -0.108482 -0.378807 0.148597 -0.306845 -0.146575 -0.413256 -0.618373 -0.638252
but -0.153889 -0.177200 -0.163633 0.314280 -0.433752 0.029001 -0.413228 -0.356363 0.475017 0.587585 -0.298538 0.504530 -0.090183 0.426490 -0.481660 0.411318 -0.027632 0.301209 0.295883 -0.636478 -0.225844 -0.278618 -0.370585 -0.205165 0.483413 -0.373942 0.346607 -0.091324 -0.278380 -0.535611 -0.383290 0.427069 -0.249783 0.258762 0.249924 0.426010 0.142756 0.681489 -0.774815 0.350476 0.619459 -0.239557 0.399852 -0.318609 0.046914 -0.492449 -0.065041 -0.716202 -0.515150 -1.161735
also -0.113517 0.297420 0.059680 0.837974 0.087436 -0.232454 -0.423386 0.021007 0.121521 0.132253 -0.129990 0.066601 -0.462664 0.049895 -0.905248 0.335365 -0.226765 0.653502 -0.003343 -0.109755 -0.554789 -0.094787 -0.194849 -0.842842 0.312616 -0.765880 -0.028581 -0.026805 -0.215679 -0.499297 -0.121944 0.312611 0.192859 -0.060748 0.114188 -0.135964 0.054734 0.234973 -0.479238 0.085786 0.268598 -0.242781 0.118070 0.102930 0.278146 -0.482816 0.037988 -0.568703 -0.390574 -0.494646
secret -0.358765 -0.016296 0.145918 0.593177 -0.158587 -0.187856 -0.103574 -0.356661 0.230576 0.504129 0.498381 -0.102033 0.188091 0.137683 -0.406435 0.323871 -0.444924 0.480428 -0.259955 -0.474839 -0.101697 -0.091805 -0.515313 -0.684379 0.393460 -0.558983 0.128311 0.240378 -0.194543 -0.408012 -0.404787 -0.012309 -0.102146 0.178711 0.031866 0.455606 0.226240 0.221908 -0.303964 -0.116164 0.601262 0.052871 -0.158713 -0.077416 0.376881 -0.101493 0.083414 -0.809827 -0.546838 -0.608758
greatest -0.253834 0.329561 0.323876 0.433323 -0.055520 -0.338737 -0.196765 0.186598 0.056812 0.658918 0.140123 0.106755 -0.584086 -0.415322 -0.606852 0.797940 -0.500013 0.228476 0.243057 -0.289092 -0.001250 -0.021857 -0.293048 -0.575405 0.424779 0.044833 -0.557511 -0.021014 -0.092363 -0.418520 -0.497584 0.224030 -0.114924 -0.122895 -0.396463 0.265142 -0.045156 0.278831 0.151737 -0.302813 0.672588 0.122247 0.189158 0.006757 0.105612 -0.247355 0.274428 -0.363746 -0.070521 0.039886
fear -0.239331 0.107526 -0.078736 0.569090 -0.246530 -0.141093 -0.073025 -0.104648 0.416718 0.311414 0.373324 0.225610 -0.400338 -0.238007 -0.595718 0.346114 -0.012104 0.082947 -0.127958 -0.250015 0.140731 -0.304663 -0.012885 -1.102032 0.352526 -0.509943 0.040641 -0.438666 -0.007151 -0.569992 -0.297715 0.289159 -0.101532 0.052371 -0.196655 0.623620 -0.052024 0.157719 -0.419546 -0.395558 0.819707 -0.099230 0.329877 -0.063887 -0.001777 -0.114721 0.101350 -0.230717 0.082855 -0.072626
somebody -0.008258 0.255044 0.060813 0.197329 -0.414375 -0.113747 -0.199487 -0.339097 0.073720 0.184947 0.099988 -0.044192 -0.030537 -0.155320 -0.494558 0.098782 0.089772 0.085663 -0.004888 -0.446151 0.097619 -0.310266 -0.171078 -0.009641 0.541569 -0.210419 -0.070024 -0.120688 -0.217041 -0.303203 -0.474356 0.468546 -0.017457 -0.373753 -0.138528 0.242555 0.471440 0.416140 0.112528 0.063157 0.359771 0.006467 -0.046336 -0.012078 0.286017 -0.353089 -0.025885 -0.771964 -0.472985 -0.324942
would -0.269612 0.152945 0.326609 0.892018 -0.015032 -0.365533 -0.149103 -0.200318 0.279863 0.234212 -0.209328 0.245115 0.267749 0.371320 -0.958607 0.956929 -0.068632 0.034905 0.440982 -0.593148 -0.132458 0.141519 -0.395204 -1.003845 0.463726 -0.108782 -0.268476 0.754564 -0.258254 -0.840991 -0.500993 0.696847 -0.172439 0.571949 0.368432 -0.198336 0.755343 0.272299 0.180684 0.616667 0.394519 0.106830 -0.296826 -0.226290 0.189706 0.179710 0.112446 -0.495160 -0.465986 -0.694819
discover -0.336012 -0.258173 0.042410 0.383799 -0.379814 -0.237790 -0.059792 0.148597 0.082614 0.462741 0.376382 -0.317687 -0.179170 -0.066899 -0.269376 0.096818 -0.238562 0.178587 -0.099190 0.150527 -0.305456 -0.156804 0.079862 -0.596740 0.155966 0.101327 -0.141840 -0.243369 0.171053 -0.412224 0.143815 -0.018905 -0.178044 0.278027 0.123463 -0.120254 0.019747 0.371683 -0.158018 -0.496279 0.235063 0.085692 0.202509 -0.167387 -0.093486 0.140897 -0.033803 -0.370931 -0.103462 0.013590
it -0.735310 -0.069579 0.460605 0.608624 -0.361940 -0.287810 -0.801525 0.080024 0.438938 0.011318 0.323755 0.232402 -0.242049 0.316034 -0.130118 0.510521 0.323034 0.747648 0.038016 -0.958449 -0.267189 0.122111 -0.318530 -0.615353 0.594524 -0.162933 0.200326 0.313945 -0.259145 -0.588129 -0.480600 0.791343 -0.151841 0.270208 0.185692 0.368113 -0.133341 0.546734 -0.154695 0.092390 0.732733 -0.009914 0.744517 -0.388620 0.017521 -0.741345 -0.189745 -0.457347 -0.598918 -0.183943
think -0.338208 -0.565993 -0.187741 1.349014 -0.228646 -0.479631 0.004037 -0.215502 0.222519 0.604165 0.456075 0.851994 -0.320739 0.271649 -0.696009 0.830315 0.016612 0.396055 -0.363776 -0.471201 -0.291717 0.045360 -0.075520 -0.730336 0.741994 -0.332096 0.480225 -0.058420 -0.485661 -1.293879 -0.351994 1.100513 -0.061726 0.037413 0.423248 0.548262 0.249068 0.360279 -0.655218 0.419165 0.327041 0.116089 0.781071 -0.229122 -0.388889 -0.401956 -0.552285 -0.325868 -0.447757 -0.442547
could -0.078795 -0.415506 0.240080 0.725916 0.104448 -0.098969 -0.180317 -0.160336 -0.089879 0.079318 0.362812 0.635401 0.164334 0.300421 -1.015396 0.541447 -0.690400 0.588296 0.566742 -0.752813 -0.237272 0.185850 -0.348547 -0.735507 0.310630 0.192662 -0.306849 0.412286 -0.416797 -0.847302 -0.727812 0.806979 0.029681 0.581574 0.264233 0.659925 0.876597 -0.209381 0.267142 0.398985 0.545543 0.097389 0.090177 -0.285668 0.270500 0.028701 0.225953 -0.619957 -1.098743 -0.713522
bear -0.221053 -0.050069 0.360304 0.448523 -0.041743 -0.106109 -0.309175 -0.411719 0.129792 0.100678 -0.093030 0.292774 -0.011563 0.186386 -0.385081 0.246557 0.014064 0.278570 -0.045758 -0.568530 0.152110 -0.256769 -0.010434 -0.559255 0.275291 -0.236634 0.130029 -0.179818 -0.207466 -0.293041 -0.618784 0.007395 0.015771 0.171983 -0.043936 0.379937 -0.099904 0.377824 -0.247618 0.009411 0.482028 0.117189 0.295007 -0.148656 -0.072064 -0.293920 0.111454 -0.891792 -0.008412 -0.286041
if -0.321639 -0.216371 0.280456 1.042951 -0.250352 0.074086 0.031685 -0.390435 0.637122 -0.033499 0.077641 0.696750 -0.011129 0.381515 -0.673734 0.631811 0.264043 0.084430 0.007861 -0.508821 -0.561229 0.229582 0.257305 -0.271463 0.444796 -0.636497 0.136063 0.050573 -0.097564 -0.863667 -0.870210 0.953777 -0.193328 0.369833 0.612402 0.382028 0.225419 0.083788 -0.828473 0.632707 0.857955 0.472568 0.143486 -0.619662 -0.198831 -0.716051 -0.027804 -0.532315 -0.794900 -0.546353
anyone -0.368594 -0.145329 0.446377 0.786216 -0.348081 0.048670 -0.259202 -0.066301 0.036862 -0.019001 0.244218 0.281040 -0.277307 0.259455 -0.850474 0.205078 0.010982 0.399538 0.135977 -0.689093 -0.308559 -0.469439 -0.723227 -0.475652 0.224374 -0.430292 0.203798 0.361496 -0.816855 -1.017054 -0.241806 0.228286 -0.258316 0.361731 0.010824 0.242029 0.563511 0.109986 0.067448 0.012172 0.357643 -0.128441 0.329547 -0.402053 -0.273800 -0.696472 -0.444525 -0.792530 -0.817704 -0.682800
found -0.275933 0.034163 0.161812 0.580489 0.016633 -0.185797 0.269135 -0.510896 0.696466 0.108391 0.221152 0.494983 -0.213454 0.009562 -0.407973 0.746747 -0.050755 0.380727 -0.146544 -0.660134 -0.410600 -0.648676 -0.301634 -1.139669 0.300963 -0.305921 0.431282 0.210394 -0.318665 -0.518263 -0.664180 0.332206 0.492208 0.852442 0.477358 0.402585 0.809836 -0.096328 -0.056907 0.033455 0.910821 -0.006913 0.287926 0.240739 -0.186890 -0.556192 0.196698 -0.496754 -0.403398 -0.788917
out -0.696414 -0.076097 0.645095 0.716425 -0.613648 0.471804 -0.117808 -0.386013 0.039710 0.425176 0.481310 -0.150281 -0.044493 0.518406 -1.018081 0.646317 0.144045 0.483383 0.521026 -0.564011 -0.144482 0.253992 -0.016056 -1.285765 0.035953 0.109766 -0.047860 0.028318 -0.130446 -0.688838 -0.669869 0.893829 0.974786 0.204404 -0.008727 0.272875 -0.664974 0.453860 -0.105527 -0.212592 0.700644 0.110375 0.063582 0.162785 -0.417921 0.029862 0.817156 -0.503271 -0.128634 -0.298070
about -0.100214 0.003842 -0.149384 0.775861 -0.360998 0.242180 -0.199727 -0.292867 0.378304 0.578440 -0.005425 0.322391 0.232812 -0.322289 -0.747155 0.372566 -0.055810 0.417018 -0.302449 -0.285854 -0.011171 -0.592622 -0.344096 -0.650001 0.411432 -0.425130 0.379359 0.920807 -0.218409 -0.881770 -0.615902 0.960271 -0.128273 0.305468 -0.110658 -0.240134 0.385879 0.029213 -0.352660 0.218030 0.761285 -0.419577 -0.171338 0.263158 -0.462804 -0.440687 -0.029007 -0.186823 -0.629089 -0.390973
potters -0.895558 0.018038 0.204364 0.763725 0.040372 0.230985 0.057390 0.012389 0.338107 0.588397 0.291007 -0.112490 -0.405502 0.042261 -0.278850 0.633124 -0.300329 0.277745 0.721709 -0.283610 -0.304492 -0.181516 0.080578 -0.629477 0.594913 -0.269604 0.377576 0.124613 -0.184895 -0.418099 -0.885489 0.212231 -0.313620 0.269985 -0.163682 0.221402 0.392824 0.129586 0.005407 -0.041624 0.561265 -0.101296 0.583309 -0.381538 0.116455 0.209408 0.101165 -0.617260 -0.704769 -0.682698
sister -0.145315 0.286244 0.155824 0.775798 -0.186894 -0.113101 -0.135192 -0.430857 0.507329 0.735623 -0.100214 0.108089 -0.478747 -0.201873 -0.567074 0.569011 -0.102012 0.346139 -0.065315 0.103844 -0.157646 -0.233080 -0.528624 -0.728563 0.459091 -0.093733 -0.036540 0.027256 -0.365573 -0.344049 -0.234508 0.436434 0.199267 0.101336 0.150564 -0.065130 0.307977 0.160282 -0.486118 -0.100235 0.379513 0.236859 -0.084808 -0.282857 -0.249052 -0.322118 0.164689 -0.528522 -0.306727 -0.522047
hadnt -0.323308 0.135137 0.234789 0.926470 -0.070982 0.432711 -0.372561 0.019855 0.515993 0.120942 0.205069 0.384925 0.173969 0.167840 -0.958127 0.692546 0.129486 0.488379 0.082113 -0.782683 -0.541457 0.249674 -0.411156 -0.879067 0.071283 -0.130810 0.212086 0.340787 -0.948837 -0.378275 -0.999652 0.390325 -0.267044 0.385577 0.062863 -0.180560 0.436581 0.421665 -0.689817 0.056538 0.573327 -0.129945 0.231174 -0.334916 0.331837 -0.344728 0.118902 -0.189232 -0.596984 -1.182385
met -0.130574 0.289444 0.335982 0.611432 -0.012668 -0.294889 -0.115087 0.157031 0.379192 0.344174 -0.052337 0.368595 -0.273752 0.247120 -0.701932 0.486113 -0.186937 0.172598 -0.007675 -0.317073 -0.438388 -0.014538 -0.342243 -1.089887 0.554288 -0.135518 -0.142304 -0.003860 -0.292671 -0.624222 -0.786792 0.306920 -0.246082 0.334359 0.377912 -0.093359 0.550648 -0.030724 -0.082308 0.138954 0.330446 0.039763 0.483231 0.137356 0.095848 -0.043794 0.253897 -0.518304 -0.201986 -0.467197
for -0.363148 0.191182 -0.143232 0.578413 0.122466 0.113876 -0.067492 -0.692671 -0.028541 0.899300 -0.446660 0.298071 -0.005290 -0.024040 -0.788108 0.512158 0.082731 0.468642 -0.003567 -0.440771 -0.435702 -0.461691 -0.090263 -0.943504 -0.318014 -0.731169 -0.085570 0.574681 0.125355 -0.333304 -0.135338 0.269859 -0.189083 0.174383 -0.190901 0.602929 -0.318622 -0.051506 -0.702851 0.438220 1.139630 -0.536887 0.216750 -0.149548 -0.003676 0.134463 -0.498194 -0.470206 -0.225265 -0.527736
several -0.455186 0.214948 0.369277 0.430071 -0.267784 -0.137412 -0.014117 -0.191088 0.312500 0.006271 -0.011930 -0.117188 -0.139545 -0.104532 -0.679798 0.457484 0.104855 0.274668 -0.193114 -0.575998 -0.036291 -0.211958 -0.232975 -0.529503 -0.053014 -0.202715 -0.214093 -0.400048 -0.418096 -0.398078 -0.416698 0.239359 -0.007028 -0.042417 -0.310836 0.285215 0.276946 0.264895 0.260419 -0.147956 1.101747 -0.131034 -0.167887 -0.082449 -0.017744 -0.274878 0.103264 -0.360310 -0.559592 -0.225060
years -0.023432 0.450822 0.020631 0.355456 -0.173232 -0.083434 0.000100 -0.351688 0.607464 0.800980 -0.069249 0.247767 -0.315780 0.248763 -0.218323 0.500337 0.027430 0.850402 -0.007779 -0.533090 -0.068826 -0.445809 0.422998 -0.229229 0.137183 0.034037 -0.574786 0.427218 -0.718356 -1.046720 -0.691764 0.319604 -0.503624 0.320610 -0.712897 -0.009476 0.391729 0.207910 -0.511281 0.640154 1.115827 -0.105723 0.138671 0.066290 -0.408281 0.081193 -0.365365 -0.849580 -0.433908 -0.113803
fact -0.128226 0.483201 0.197717 0.714535 -0.284864 -0.422269 -0.034536 -0.150850 0.512768 0.264344 -0.127373 -0.158870 -0.436226 -0.146144 -0.604828 0.732694 -0.297663 0.106575 0.075569 -0.551931 -0.079695 -0.471340 0.195789 -0.550701 0.653493 -0.338540 -0.041409 -0.113466 -0.801923 -0.248566 -0.374383 0.132732 0.381591 0.432911 -0.121619 0.293427 0.408935 0.166688 -0.663917 0.257515 0.604096 -0.251270 0.123395 -0.050996 0.050078 -0.440903 0.216655 -0.540816 -0.405088 -0.438653
pretended 0.000921 -0.285618 -0.161748 -0.050431 -0.399111 -0.166168 -0.383998 -0.119209 0.626245 0.487068 -0.109237 0.453724 -0.076926 0.297656 -0.286434 0.536893 -0.165927 0.308785 -0.153864 -0.564797 0.034170 -0.358051 -0.062484 -0.388726 0.332869 -0.098641 0.081286 -0.045530 -0.405288 -1.003890 -0.290952 0.189404 0.186418 0.413750 0.320077 0.283478 0.115110 0.546031 -0.137875 -0.172679 0.266271 0.113517 -0.154130 -0.030937 0.045908 -0.078139 0.154217 -0.657474 0.087801 -0.308246
goodfornothing -0.110567 0.094433 -0.125408 0.620226 0.199212 -0.024278 0.078226 -0.377068 0.434271 -0.151523 -0.020304 -0.072425 -0.065117 0.032519 -0.220617 0.182656 0.278104 -0.268236 -0.024875 0.007080 0.446526 -0.449442 0.059531 -0.159746 -0.004214 0.126362 -0.068725 -0.081879 -0.155845 -0.223252 -0.097027 0.569587 -0.140553 -0.272619 0.047708 0.288132 0.351843 0.824224 -0.056132 0.115382 0.205889 -0.044376 -0.177707 0.210740 0.132633 0.172728 -0.065010 -0.081407 -0.166505 0.082439
husband -0.453869 0.073687 -0.116615 0.046067 0.003302 -0.201083 -0.255371 0.067080 0.158892 0.257107 -0.247970 0.056527 0.039251 -0.058850 -0.509475 0.297600 -0.206486 0.327767 0.203542 -0.087628 -0.224892 -0.075792 0.029132 -0.093252 0.202870 0.282882 -0.022403 -0.116871 -0.094811 0.007313 -0.060820 0.113323 -0.341397 -0.181600 -0.067382 0.157358 -0.248384 0.066660 -0.234539 0.019759 0.159487 0.504877 0.281343 -0.187437 0.136708 0.244219 -0.121703 -0.105415 -0.311191 -0.112425
undursleyish -0.017912 0.279073 -0.133594 0.058228 0.369020 -0.145245 -0.143942 -0.236928 -0.095597 0.271681 -0.720106 -0.048576 -0.261125 -0.055872 0.110344 0.487239 -0.138942 0.366150 -0.060695 -0.089818 -0.361472 0.113865 -0.135091 -0.082232 -0.027671 -0.284132 -0.238843 0.102145 -0.141130 -0.101970 -0.031966 -0.098391 -0.029906 -0.219018 0.141600 0.125256 -0.047025 0.428610 0.017870 -0.386710 0.076283 0.201694 0.059656 -0.363600 0.189861 0.166513 0.099009 -0.437076 -0.291378 -0.170254
possible -0.343866 0.238995 0.493876 0.563195 -0.352727 -0.136290 -0.261422 -0.270107 0.391680 -0.218210 0.232221 0.117006 -0.363838 -0.076173 -0.582190 0.465177 0.066085 0.294691 -0.590243 -0.219176 -0.185414 0.207065 -0.297469 -0.413947 0.147283 -0.440971 -0.109213 0.120476 -0.494937 -0.622732 -0.853749 0.572141 0.099385 0.141241 0.209416 0.540432 0.268283 0.255097 -0.214606 -0.035680 0.733059 -0.162309 0.015767 0.075351 0.101276 -0.654978 0.433693 -0.196564 -0.335281 -0.456816
shuddered -0.329538 -0.121801 0.369124 0.345703 -0.108287 -0.247055 -0.066009 -0.095251 0.246651 0.504602 0.145338 0.269734 0.009869 -0.141296 -0.567023 0.180727 -0.118322 0.400575 -0.228285 0.043224 -0.148851 0.241664 -0.283757 -0.206765 0.218215 -0.231538 0.103230 0.034458 -0.549980 -0.114176 -0.281346 0.141472 -0.277954 0.103564 0.089304 0.081855 0.609586 0.067473 -0.300239 0.265973 0.226836 -0.034259 0.263509 0.094707 -0.000186 -0.010889 -0.009933 -0.413586 -0.543608 -0.138423
what -0.168992 -0.748011 0.325442 1.213735 0.046565 0.194059 -0.569965 0.002005 0.985795 0.292763 0.266882 0.522919 0.080568 0.175199 -0.896788 0.955389 0.074204 -0.015800 0.249761 -0.519212 -0.603300 -0.195674 -0.362726 -0.218521 0.435034 -0.224823 0.120912 0.289083 -0.853435 -0.859022 -0.564276 0.355815 -0.143574 -0.146899 0.107262 0.383570 0.378648 0.009100 -0.517730 0.034620 0.446417 0.029116 0.124312 -0.350867 -0.501242 -1.066482 0.278193 -0.600761 -0.503670 -0.589423
arrived -0.291721 0.111499 0.135069 0.266949 -0.184157 -0.318902 0.211844 -0.380549 0.307750 0.232418 0.220469 0.115556 -0.114419 -0.068640 -0.467974 0.865976 -0.333685 0.427952 -0.084189 -0.033190 0.037013 -0.197643 0.128668 -0.659660 0.558354 -0.076958 0.072413 0.094435 -0.913668 -0.342630 -0.718433 0.429420 0.010990 0.371549 -0.188057 0.245861 0.076814 0.478438 -0.464809 -0.187792 0.883436 -0.426983 0.082073 -0.448829 0.063520 -0.444413 0.054626 -0.527191 -0.268024 -0.423407
street -0.690085 -0.243037 0.037199 0.536068 -0.507656 -0.203351 -0.020469 -0.348700 0.220558 0.502536 0.310488 0.085435 -0.366139 -0.419808 -0.846966 0.390899 -0.221634 -0.000087 -0.287349 -0.588336 -0.159906 0.108534 -0.477911 -0.908340 0.311857 -0.225593 -0.116734 0.320117 -0.477816 -0.329328 -0.767998 0.046051 -0.097571 0.422632 -0.455946 0.260311 0.257407 0.352183 -0.640663 -0.180744 0.909726 -0.250790 0.309262 0.368640 -0.108113 -0.165195 0.518149 -0.327690 -0.152671 -0.160369
knew -0.252653 0.251735 -0.110373 0.665760 -0.098783 -0.249115 -0.371793 0.095142 0.456660 0.486973 0.062748 0.274624 -0.176314 0.448340 -0.700097 0.812348 -0.176199 0.390747 -0.038461 -0.374084 -0.409788 0.003397 -0.129572 -0.796341 0.726100 -0.146457 0.495814 0.100827 -0.229771 -1.096809 -0.820351 0.769678 0.334471 0.548861 0.545331 -0.024333 0.600954 0.036042 -0.547726 0.072857 0.667791 -0.314251 -0.190093 -0.311297 0.396549 -0.462626 -0.260685 -0.430165 -0.691246 -1.043263
too -0.138418 -0.325240 0.459933 0.999631 -0.108519 0.010703 -0.070588 -0.405688 0.127045 0.630078 -0.107285 -0.270181 -0.434580 -0.317560 -0.139581 0.715079 0.444871 0.552435 -0.349293 -0.402087 -0.544819 -0.345373 -0.585695 -0.345985 0.489663 -0.358889 -0.026417 0.281123 -0.121820 -0.633420 -0.424347 0.589189 0.001242 0.636179 0.103833 -0.112092 0.056263 0.704019 -0.370149 0.252124 0.479563 -0.032839 0.179950 -0.075339 -0.070498 -0.455533 -0.358646 -0.844383 -0.625516 -0.483979
never -0.077094 0.047853 -0.016901 1.456906 -0.135870 -0.220280 -0.234612 0.089767 1.314977 0.171816 0.483999 0.534239 -0.331658 0.809038 -0.837716 0.955849 0.090597 0.439180 -0.084428 -1.130681 -0.530848 -0.862958 -0.306443 -0.864065 0.163173 -0.034389 -0.156661 0.643500 -0.730858 -0.557310 -0.631430 0.542535 -0.235530 0.227728 0.277597 -0.071801 0.468657 0.452224 -0.645722 0.609345 0.782257 0.597787 0.248058 -0.052356 0.144685 -0.148758 -0.371393 -0.388349 -0.051293 -0.325552
even -0.221885 0.366993 0.062210 0.815276 -0.056966 0.098443 -0.083988 0.131109 0.368715 0.229102 0.013175 -0.169184 -0.085707 -0.075528 -0.803988 0.435361 -0.229064 0.536031 -0.035175 -0.759141 -0.368654 -0.478282 -0.224059 -0.653733 0.390969 -0.214196 -0.066610 0.386272 -0.591481 -0.569654 -0.113977 0.455089 -0.170366 0.296552 0.384949 0.253696 0.366058 0.410199 -0.449661 0.472155 0.380286 0.145879 0.238935 -0.224925 -0.248011 -0.462460 0.245450 -0.709837 -0.345624 -0.990375
seen -0.459231 0.221847 0.310513 0.752693 -0.213105 0.150965 0.076896 0.022472 0.681775 0.208207 -0.045884 0.008726 -0.448629 0.743635 -0.851676 0.785065 -0.129028 0.562127 0.003151 -0.688944 -0.539802 -0.569359 -0.194817 -1.025188 0.213754 -0.468656 -0.081014 0.406167 -0.483679 -0.838811 -0.802197 0.096247 -0.376606 0.811825 0.467278 0.028775 0.486242 0.487122 -0.494701 0.150176 0.184500 -0.028853 0.229949 0.179047 -0.093423 -0.498197 -0.018492 -0.646679 -0.158019 -0.626344
him -0.013995 -0.122668 0.317255 0.926271 -0.618728 -0.136000 -0.666299 0.142495 -0.474230 -0.062898 -0.058876 0.227499 -0.160757 0.087082 -0.639071 0.198841 0.204151 -0.010627 0.075857 -1.064889 -0.276153 -0.510673 0.129729 -0.966207 0.422353 -0.015140 -0.104054 -0.336416 -0.987530 -0.930767 -0.637750 0.285080 0.119717 -0.108811 0.078827 -0.314570 -0.030201 0.470443 -0.641101 0.487956 0.632561 -0.015610 0.239588 -0.248779 0.102165 -0.456779 0.599446 -0.614293 -0.948812 0.183818
this -0.533671 0.425171 0.541746 0.714579 0.062354 0.301970 -0.201109 0.445790 0.512968 0.506567 -0.066309 0.614585 0.505486 0.108872 -0.332808 0.767033 0.191994 0.337268 -0.217134 -0.401395 -0.127762 -0.343385 -0.155294 -0.602709 0.352064 -0.705719 0.052911 0.706169 -0.172469 -0.841260 -0.096352 0.658948 -0.113058 0.259603 0.002131 0.294542 -0.010907 0.411382 -0.467030 0.144574 1.409593 -0.086835 0.678446 0.646533 -0.019712 -0.395447 -0.512575 -0.970791 -0.684633 -0.112544
another -0.144168 0.115096 0.244431 0.336086 -0.177412 -0.371313 -0.200387 0.027069 0.515740 0.707083 0.084425 0.071211 -0.099775 0.099252 -0.723253 0.235090 0.258440 0.084233 -0.200850 -0.494937 -0.235473 -0.465191 -0.054439 -0.933972 0.014555 -0.109046 -0.208757 0.065988 -0.670226 -0.629518 -0.183024 0.279336 0.602167 0.459102 -0.086448 0.293524 -0.051003 0.100521 -0.307873 0.209382 1.185912 0.052037 -0.008080 -0.068856 0.139351 -0.159094 -0.249092 -0.743596 -0.096039 -0.206745
good -0.474542 -0.146755 0.443991 0.710390 -0.309499 -0.377084 -0.551028 -0.360233 0.252099 0.398626 0.324886 -0.132431 0.128984 0.124830 -0.553679 0.787399 0.198744 0.689001 0.284014 -0.340510 0.168252 -0.286278 -0.255459 -0.759978 -0.200458 -0.440160 0.240769 0.817783 -0.290553 -0.663533 -0.245991 0.412241 0.067700 0.334806 0.147866 0.413530 -0.012478 0.174826 -0.597611 0.701583 0.893833 -0.493499 0.074946 -0.230724 -0.130276 -0.618956 -0.429017 -0.961491 -0.250768 -0.677568
reason -0.569940 -0.463432 0.277917 0.480196 -0.185163 -0.308680 -0.166547 -0.214796 0.231360 0.548117 0.103433 -0.035265 -0.352926 0.133955 -0.134953 0.856813 0.482126 0.440889 -0.045469 -0.163218 -0.025839 -0.417725 -0.483470 -1.019278 0.518729 -0.392036 0.009153 0.357851 -0.550859 -0.608175 -0.632891 0.208122 0.041985 0.211018 -0.462660 0.249940 0.136857 0.347801 -0.378918 0.482171 0.571736 -0.011104 0.498974 -0.182301 0.400613 -0.531379 -0.206556 -0.418820 -0.546778 -0.602937
keeping -0.589973 0.018791 0.404298 0.540062 -0.361165 0.019459 -0.110372 -0.252663 0.345352 0.488449 -0.075711 0.171659 -0.182177 0.175490 -0.576259 0.732136 -0.060637 0.087381 0.175719 -0.247859 0.076825 0.099103 -0.315196 -0.681846 0.439431 -0.490900 -0.087863 -0.024191 0.098267 -0.238467 -0.397892 0.271646 0.209114 -0.106276 -0.350020 0.321149 0.264759 0.563785 -0.184965 0.352984 0.534124 -0.053325 -0.204781 -0.147217 0.089386 -0.130839 -0.141140 -0.632719 -0.316390 -0.247886
away -0.236889 -0.010347 0.624230 0.270723 -0.552717 -0.202074 -0.643658 0.112532 0.101815 0.599036 -0.105598 -0.078883 -0.224154 0.168253 -0.590391 0.377595 -0.271002 0.595077 -0.026650 -0.671014 -0.476948 0.176975 -0.425862 -0.426937 0.353522 -0.296821 -0.090987 0.097657 -0.311914 -0.608084 -0.523498 0.697248 0.350643 0.054596 -0.094522 -0.158656 0.098450 0.286955 -0.446666 -0.185973 0.780271 -0.228276 0.308435 -0.194220 -0.231321 0.122726 0.524371 -0.597789 -0.165721 -0.424465
want -0.137537 -0.562321 -0.098221 1.205443 -0.394607 -0.598210 -0.045761 -0.254725 0.468810 0.655147 0.037776 0.664366 -0.056241 -0.011158 -0.564484 0.330316 0.063294 0.209560 -0.502163 -0.295457 -0.573034 0.192343 -0.426592 -1.215547 1.010358 -0.390059 0.635240 0.125909 -0.759886 -1.308869 -0.318468 0.791805 -0.146568 0.246726 0.293606 0.462729 0.646740 -0.079510 -0.356009 0.415144 0.235264 0.280038 0.238549 -0.405582 -0.609847 -0.209292 -0.017865 -0.560612 -0.589703 -0.453251
mixing -0.294544 0.039225 0.051166 0.337509 -0.028569 -0.149763 0.151318 0.050054 0.326509 0.218149 -0.012049 0.008862 -0.092507 -0.152430 -0.146366 0.338518 -0.062563 0.193313 -0.111573 -0.434488 0.176634 -0.216166 -0.157317 -0.451116 0.163389 -0.415277 0.144003 0.227820 0.148040 -0.553374 -0.226622 0.384311 -0.400278 -0.106965 0.024499 -0.005332 0.037814 0.163139 0.072833 0.205086 0.520036 -0.454810 -0.084755 -0.237866 0.119661 -0.195667 0.232145 -0.361320 -0.452162 -0.039569
child -0.280252 -0.140266 -0.002506 0.277083 0.071317 -0.031980 -0.203853 -0.240133 -0.175329 0.039002 -0.131692 0.208754 -0.384138 -0.160638 -0.136922 0.105141 -0.264651 -0.068780 -0.005691 -0.216330 -0.165036 -0.330572 -0.264238 -0.567479 0.182537 -0.320718 -0.206602 0.090133 -0.014996 -0.367301 -0.684244 0.341142 0.203638 0.038522 0.177750 0.450817 0.452215 -0.113541 -0.459694 -0.190112 0.218230 0.040909 0.088359 0.218937 -0.119930 0.157285 -0.032081 -0.752082 -0.267394 -0.145007
like -0.372915 -0.017261 0.781452 1.421310 0.119020 0.260032 0.173101 -0.334434 -0.131588 0.242786 0.207495 0.036832 0.154969 -0.528490 -0.836558 0.565025 0.144691 0.494570 0.483204 -0.298327 -0.535734 0.160264 -0.457172 -0.533160 0.296632 -0.668561 0.260279 -0.380209 -0.128386 -0.271015 -0.296379 0.483475 -0.019545 0.212753 0.374472 0.209306 -0.282461 0.465545 -0.640068 0.093144 0.434339 -0.663007 -0.065194 0.223167 -0.253099 -0.581094 -0.065918 -0.318741 -0.348184 -0.316805
when -0.200538 -0.256195 0.224796 0.662752 -0.205523 -0.008037 -0.368410 0.007514 0.818053 0.437325 -0.028280 0.534190 0.276442 0.372048 -0.682223 0.677681 -0.196917 0.472858 0.087354 -0.283048 -0.359475 0.030522 0.256250 -0.289300 0.086038 -0.088456 -0.141499 -0.078196 -0.384288 -0.642054 -0.495571 0.372122 0.160121 0.420389 0.160512 0.436811 -0.109525 0.669442 -0.578308 0.094336 0.533642 -0.251751 -0.080472 -0.311433 -0.079894 -0.124965 0.772763 -0.477692 -0.759747 -0.694701
woke -0.198251 -0.169995 0.427862 0.377714 -0.266274 -0.222497 0.002833 -0.129420 0.397625 0.643065 0.099108 0.309331 -0.158127 -0.032981 -0.668389 0.330190 -0.312805 0.357898 -0.459845 -0.218738 -0.386052 -0.222446 -0.073635 -0.792241 0.595593 -0.287290 -0.141830 -0.223118 -0.546537 -0.128830 -0.783207 0.186036 0.007972 0.204942 -0.282904 0.030918 0.059351 0.052274 -0.439509 -0.098324 0.550569 -0.013210 0.225158 0.140994 0.104950 -0.013215 -0.230984 -0.353080 -0.327485 -0.401493
up -0.339885 -0.164183 0.144135 0.657744 -0.773077 0.070688 -0.018057 -0.897962 -0.121640 0.409797 0.243950 -0.313036 -0.037707 -0.432594 -0.155387 0.342884 0.542348 0.072769 -0.273179 -0.501900 -0.184123 0.264836 -0.083908 -1.311800 0.216426 -0.445002 -0.146271 -0.057266 -0.488941 -0.463336 -0.976454 0.462662 0.128398 0.332664 0.299036 -0.097724 -0.407250 0.457648 -0.839444 -0.156952 0.724677 -0.152356 0.043560 -0.009445 0.142857 0.440718 -0.111818 -0.167214 -0.522762 -0.373662
dull 0.212127 -0.012191 0.242502 0.428041 -0.115532 -0.480966 -0.012435 -0.042799 0.382509 0.377028 0.209668 -0.026748 -0.055456 -0.092224 -0.629014 -0.155954 -0.007749 0.022514 0.036338 -0.144583 0.186469 -0.102522 -0.266394 -0.403180 0.319748 -0.323697 0.169768 0.065337 -0.284576 -0.197524 -0.135437 0.322155 -0.211798 -0.115183 -0.424252 0.196126 0.159083 0.308095 -0.008157 0.068488 0.556420 -0.116023 -0.360119 -0.200375 -0.214598 -0.067913 0.180250 -0.156994 0.107219 -0.363710
gray -0.445322 -0.059282 0.256612 0.392603 -0.297819 -0.245170 -0.409769 -0.519034 0.077518 0.324782 0.137556 0.101677 -0.413573 0.067846 -0.863819 0.510262 -0.038696 0.275934 0.076704 0.070962 -0.058787 -0.183781 0.085915 -0.888003 0.218864 -0.335910 0.087932 0.086845 -0.444155 -0.364961 -0.475771 -0.069773 -0.175650 -0.266659 -0.040184 0.113500 0.018681 0.236559 -0.197879 -0.004052 0.808916 0.072841 0.046601 0.086554 -0.084990 -0.211295 -0.275528 -0.457326 -0.304262 -0.433196
tuesday -0.051735 0.094931 -0.092378 0.273705 -0.069628 -0.280050 -0.316694 -0.210630 0.265717 0.695744 0.130452 0.212522 -0.015627 -0.125875 -0.389087 0.168587 -0.127748 0.190760 0.056624 -0.023710 -0.146396 -0.118376 0.192594 -0.900647 0.296933 -0.352186 0.177796 0.104326 -0.124236 -0.272147 -0.279425 0.204568 -0.234398 0.124675 -0.045501 0.218280 -0.010034 0.405946 -0.107683 -0.097940 0.274401 -0.299813 0.107796 0.041144 -0.304469 0.048630 -0.212697 -0.073891 -0.346349 -0.613217
our 0.001818 0.077776 0.264515 0.220476 -0.451838 -0.476363 -0.288818 0.080465 0.373421 0.283079 0.221399 0.343772 0.208197 0.117228 -0.528163 0.456993 -0.072389 -0.055628 -0.351349 -0.510435 0.027948 -0.412097 -0.099693 -0.828700 0.564408 -0.636750 -0.313266 -0.357552 -0.502382 -0.434139 -0.113808 1.042415 -0.276642 0.305155 -0.242445 0.751766 0.080985 -0.029423 -0.624165 0.405203 0.648481 -0.090827 0.264412 0.077832 -0.183014 0.353469 -0.179713 -0.458890 -0.570238 -0.092931
story -0.387394 0.075345 0.097362 0.488867 -0.154712 -0.491343 -0.289045 0.037641 0.492785 0.368778 0.017284 -0.011599 -0.246022 -0.411848 -0.710287 0.266566 -0.185101 0.384629 -0.057966 -0.236425 0.441192 0.259924 -0.643438 -0.536796 0.385552 -0.564458 -0.351452 0.554801 -0.399945 -0.318812 -0.579774 0.107862 0.308487 0.184075 0.026988 0.186620 0.074479 0.464532 -0.458161 -0.346241 0.235746 0.071932 0.179157 -0.399794 -0.048707 -0.238745 0.108478 -0.417245 -0.416662 -0.445799
starts -0.194943 0.212154 0.267935 0.483732 -0.247985 -0.027736 -0.126195 -0.520472 0.031172 0.597944 -0.082261 -0.064141 -0.296335 -0.417341 -0.415864 0.165473 -0.064792 0.086176 0.003438 -0.282590 -0.036516 -0.103905 -0.231385 -0.219969 0.063179 -0.317167 -0.126430 0.054920 -0.451761 -0.163781 -0.468995 0.313676 0.103310 0.080649 0.015976 0.187059 -0.109623 0.248336 0.184506 -0.389967 0.123678 0.032617 -0.019806 0.141428 0.181201 -0.056344 0.151246 -0.264826 -0.182182 -0.398395
nothing -0.374577 0.096939 0.049319 0.691948 -0.123116 -0.475160 -0.405563 -0.077865 0.506803 0.051135 0.283099 0.485685 -0.028969 -0.197699 -0.838645 0.878880 0.073143 0.389558 0.188616 -0.446757 -0.262739 -0.430045 -0.398125 -0.276345 0.530172 0.001286 -0.129697 0.450409 -0.509867 -0.503433 -0.416456 0.716229 0.266085 0.436952 -0.321546 0.438110 0.059169 -0.096504 -0.614369 0.158834 0.448853 -0.149797 0.297061 -0.279837 -0.074618 -0.690090 -0.528134 -0.941310 -0.658178 -0.670150
cloudy -0.092600 0.244894 0.117790 -0.130728 -0.204266 -0.196804 -0.018069 -0.461812 0.153885 0.608627 -0.195667 -0.014298 -0.006387 -0.443378 -0.230424 -0.019114 -0.174475 0.318274 0.328009 -0.304440 0.006071 0.113182 -0.161267 -0.622067 0.439046 -0.349096 0.138369 -0.071142 -0.027461 -0.309010 -0.671351 0.230034 -0.068605 0.095084 0.088950 0.076928 0.001849 0.118926 -0.058030 -0.016766 0.129779 -0.135560 -0.008355 0.122489 0.059005 0.314444 -0.073885 -0.153119 -0.313816 -0.127202
sky -0.516816 0.289602 -0.190468 0.573190 -0.107559 -0.538008 -0.010700 -0.159138 0.064048 0.345343 0.140084 0.222872 -0.361020 -0.254781 -0.611458 0.601150 -0.226599 0.410279 -0.108512 -0.539218 -0.158900 0.095990 -0.435291 -0.517489 0.632338 -0.485872 -0.467427 -0.019393 -0.503114 -0.450867 -0.414208 0.324242 0.179990 -0.099049 0.046174 0.521936 0.360214 0.014700 -0.271559 -0.511809 0.615751 -0.129087 0.164418 -0.040114 0.045181 -0.472952 0.271942 -0.303256 -0.547303 -0.248325
outside -0.398572 0.183381 0.074510 0.286135 -0.089130 -0.337455 -0.032424 -0.388577 -0.055073 0.573162 -0.058641 0.246544 -0.374377 -0.544509 -0.843600 0.506869 -0.252113 0.173272 0.177093 -0.191705 0.066755 -0.108766 -0.302747 -0.791848 0.776895 -0.332066 -0.344547 0.196950 -0.115281 -0.458848 -0.388444 0.405536 0.112571 0.442701 -0.131742 0.084126 0.091302 0.072545 -0.183872 -0.303927 0.636939 -0.260654 0.173611 0.036340 0.000590 -0.134651 0.313187 -0.219962 -0.267174 -0.330460
suggest 0.005317 0.140226 -0.186228 0.656188 -0.081980 -0.413038 0.073049 -0.273878 0.275605 0.377779 0.177374 0.243568 0.045789 -0.011690 -0.491305 0.243582 0.011038 0.181834 0.322716 -0.199570 -0.179628 -0.196450 -0.140279 -0.620410 0.367575 -0.347718 0.627546 0.273913 -0.249929 -0.184979 -0.380664 0.240848 -0.209500 0.009495 -0.111835 0.064718 0.397176 0.237398 -0.323615 -0.501095 0.461595 -0.441463 -0.356341 -0.250806 -0.101680 -0.224885 -0.163170 -0.673673 -0.203318 -0.096580
things -0.550371 -0.083587 0.005101 0.803483 -0.039097 -0.249761 -0.170652 0.039298 0.343377 0.626394 -0.044396 0.300510 -0.244628 -0.149476 -0.799213 0.431711 -0.178166 -0.109799 0.012724 -0.471752 -0.334285 -0.414884 -0.422095 -0.494682 0.111574 -0.198368 0.417098 0.374945 -0.467902 -0.690282 -0.068531 0.675678 0.089297 -0.314694 0.109850 0.498434 0.376061 0.198957 -0.358697 0.171747 0.543231 -0.009560 0.111544 0.082665 -0.096941 -0.269238 0.643866 -0.583414 -0.423651 -0.378636
soon -0.322152 0.012673 0.582704 0.720053 -0.259625 -0.308324 0.229995 0.053971 0.187006 0.401108 0.255473 0.131038 -0.004038 0.206441 -0.656152 0.499786 -0.568613 0.467712 0.047439 -0.271158 -0.372768 0.237045 -0.172050 -0.541994 0.433475 -0.424016 0.056213 0.249300 -0.491998 -0.307448 -0.487154 0.338755 -0.270839 0.449898 0.195669 0.409575 0.025022 -0.127810 0.025071 0.193922 0.541051 -0.102179 0.637497 -0.051888 0.216064 -0.247195 0.132396 -0.420654 -0.703578 -0.596013
happening -0.203406 0.030844 0.128279 0.543025 -0.242169 -0.044274 -0.171515 -0.059510 0.203277 0.326540 -0.019358 -0.037095 -0.298581 -0.063905 -0.612740 0.355378 0.309062 0.081241 -0.059203 0.225169 0.246181 0.180906 -0.346404 -0.267198 0.252801 -0.566608 -0.371617 -0.147040 -0.483177 -0.260980 -0.687952 0.204295 -0.127343 0.057130 -0.161151 -0.137938 0.066459 0.126491 -0.125306 0.196818 0.545712 0.180931 -0.126554 -0.423543 0.157306 0.225252 -0.363490 -0.501515 -0.491372 -0.316371
all -0.546945 -0.098352 -0.458832 0.343640 -0.542320 0.312873 -0.584484 0.206254 0.152384 0.411140 -0.373042 -0.036405 -0.137409 -0.241294 -0.713233 1.058485 0.172545 0.056203 -0.173940 -1.060718 -0.238728 -0.084168 0.443747 -0.715655 0.046127 -0.259288 0.212939 0.638092 -0.350384 -0.787046 -1.294024 0.914005 0.096866 0.458138 -0.505287 0.911552 0.182330 0.455388 -0.651597 -0.037971 0.247324 0.074180 -0.111744 0.274063 -0.206602 -0.052531 -0.560766 -0.758746 -0.400565 -0.292947
country -0.485424 0.083269 0.169426 0.225041 -0.154628 -0.336775 -0.044477 -0.431055 0.143976 0.524982 0.267843 -0.071293 -0.329990 -0.220106 -0.185224 0.458793 -0.066129 0.397188 -0.039183 -0.126386 0.133705 -0.155902 -0.486433 -0.719744 0.923630 -0.288751 0.036156 -0.043776 -0.089108 -0.476455 -0.471297 0.483554 0.262493 0.109930 -0.076322 0.124796 0.194830 0.224329 -0.156769 0.302795 0.408920 -0.241813 0.340835 -0.166270 0.189099 0.201842 0.201806 -0.039073 -0.271996 -0.084093
hummed -0.394282 -0.044394 0.132065 0.438752 -0.193926 -0.121619 -0.496524 -0.270804 0.685153 0.476137 0.118399 -0.050734 -0.116999 -0.080176 -0.420777 0.170343 -0.314208 0.120472 0.226558 -0.396458 -0.169001 -0.332038 -0.145887 -0.367489 0.237053 -0.326517 0.196047 -0.166008 -0.005884 -0.227144 -0.495405 0.176588 -0.070145 0.361816 0.263417 0.272063 -0.044761 0.131283 0.102492 0.432828 0.384666 -0.377649 0.278724 -0.270340 -0.152296 0.055129 -0.017827 -0.660408 0.076351 -0.015526
picked -0.327477 0.301187 0.444544 0.723524 -0.608931 -0.014824 0.102406 -0.559124 0.319315 0.424452 0.046867 0.382544 -0.242914 -0.537890 -0.121605 0.549244 -0.195634 0.330269 -0.154023 -0.230877 -0.583833 -0.213111 -0.042243 -1.037745 0.321146 -0.379456 0.292234 0.106251 -0.530811 -0.131210 -0.518615 0.047654 0.150350 0.121332 -0.131411 0.164373 0.269481 0.362545 0.006295 -0.451811 1.015598 -0.296043 0.183699 -0.123855 -0.000318 -0.063689 0.058976 -0.243431 -0.314466 -0.664723
his -0.287677 -0.003759 1.507391 0.093670 -0.928017 -0.206871 -0.353220 0.308780 0.819362 0.033306 -0.694570 0.060186 -0.007751 0.683410 -0.474061 0.759033 0.581719 0.305448 -0.160006 -0.643643 -0.162860 0.238368 -0.252262 -1.033407 0.920218 -0.215137 -0.250049 -0.894610 -0.626150 0.542553 -0.553140 0.294403 0.477532 0.049040 0.048526 0.611174 -0.195355 0.614051 -0.104258 0.376298 0.766900 0.171231 0.059200 0.258087 0.548173 0.552470 -0.110239 -1.341758 -0.786452 -0.126855
most -0.453867 0.309725 -0.053736 0.531065 -0.244923 -0.291651 -0.176494 0.050522 0.211611 0.573967 0.056958 -0.135692 -0.211771 0.094251 -1.070491 0.700135 -0.338435 0.379253 -0.308669 -0.384928 -0.553146 -0.118482 0.341862 -0.483709 0.728933 -0.180906 -0.323922 -0.248259 -0.252313 -0.289291 -0.368736 0.391189 0.205226 -0.158830 -0.038385 0.580302 0.006188 0.201846 -0.087901 -0.490791 0.446448 0.120806 0.236579 -0.268350 -0.064221 -0.166798 0.110294 -0.480272 -0.298599 -0.241483
boring -0.038459 0.153949 0.131697 0.182839 -0.194510 -0.017848 -0.443424 -0.248938 -0.008348 0.282265 -0.089377 -0.146300 -0.209045 -0.029732 -0.741606 0.125998 -0.066320 0.284209 -0.204361 0.020424 0.046496 -0.244546 -0.110237 -0.458972 0.321548 -0.412949 0.010971 -0.107977 -0.129076 -0.310623 -0.437194 0.457976 -0.114095 0.076184 0.198592 0.297715 0.092550 0.153908 -0.201389 -0.101557 0.730056 -0.111756 0.114279 0.147476 -0.039511 -0.024819 0.020576 -0.394660 0.065357 -0.578117
tie -0.233402 0.029610 0.486898 0.292851 0.104733 -0.237431 -0.062168 -0.128051 0.182376 0.259549 0.155381 0.058501 0.061553 0.061507 -0.247593 -0.134529 -0.204779 -0.029967 0.075557 0.001408 -0.256308 0.104227 0.223798 -0.192882 0.042407 -0.227490 -0.133119 0.393231 -0.144905 -0.036031 -0.405052 0.298077 -0.212102 0.064085 0.087793 0.107636 -0.212257 -0.145127 -0.118355 -0.375429 0.113766 0.022710 -0.027349 -0.160739 0.173033 0.000792 -0.065502 -0.165636 -0.180685 -0.162044
work -0.460919 -0.092643 0.206644 0.111258 -0.076754 -0.141598 -0.060233 0.127824 0.503063 0.407614 -0.082335 0.007576 -0.230329 -0.063969 -0.328995 0.613679 0.002775 0.494438 0.061148 -0.539527 -0.433440 -0.045718 -0.586303 -0.794553 0.412155 -0.462028 0.171062 -0.106514 -0.277987 -0.603002 -0.604118 0.328455 0.147366 0.090444 -0.005902 0.308742 -0.120909 0.311742 -0.082843 0.153829 0.723039 -0.026149 0.222643 0.259313 -0.464782 -0.322653 0.176269 -0.670182 -0.167580 -0.511414
gossiped 0.168982 0.261779 0.137256 0.528046 -0.232154 -0.159518 -0.249241 -0.140581 0.432619 0.328033 0.069665 0.334679 -0.142124 0.261510 -0.350156 0.183750 -0.319881 0.234957 0.330448 0.241262 -0.155117 -0.006876 -0.339091 0.136144 0.277444 0.128498 -0.062842 -0.143448 -0.329751 -0.121255 -0.065788 0.057772 -0.046163 0.359917 -0.568274 0.142241 0.012769 0.236659 0.237897 0.006827 0.421813 -0.005907 -0.092341 -0.279310 -0.019342 0.164475 0.209031 -0.419394 0.080487 0.225184
happily 0.027374 0.064752 0.128126 0.614040 -0.041005 -0.307985 -0.302935 -0.233853 0.219853 0.208579 0.100298 0.148155 -0.242847 -0.097999 -0.275900 0.535055 -0.198446 0.330746 0.020715 -0.247759 -0.220370 0.167168 0.147556 -0.797605 0.259862 -0.495374 -0.054729 -0.228274 -0.243787 -0.214115 -0.310469 0.153156 -0.088631 0.160114 0.119589 0.128416 0.147730 0.344017 -0.284972 -0.020594 0.529172 -0.047394 -0.050012 0.035787 0.094151 -0.368771 -0.086663 -0.721467 -0.495259 0.088751
wrestled -0.200872 -0.088475 0.382498 0.329762 -0.008624 -0.362487 -0.264262 -0.151895 -0.136597 0.475094 0.143361 0.199000 0.067639 -0.183001 -0.137904 0.358439 -0.141138 0.263475 0.151397 0.055843 0.134657 0.033772 -0.222770 -0.025925 0.041739 0.084436 0.219741 0.088324 -0.183052 -0.085735 -0.597218 -0.172154 -0.175220 -0.066035 -0.148722 0.038660 0.427381 0.423929 -0.027809 0.393015 0.121339 -0.350925 0.041305 0.026110 -0.520914 0.138325 -0.120835 -0.267114 -0.302884 -0.182360
screaming -0.307746 0.522614 0.135435 0.328500 -0.434454 -0.296589 -0.478022 -0.310836 0.291732 0.247924 0.051782 0.266200 0.376657 0.091736 -0.880332 0.243892 0.130849 0.391537 -0.010137 0.076136 -0.175762 0.101879 0.168292 -0.645127 0.138575 -0.276796 -0.048332 0.371723 -0.666308 -0.341944 -0.063599 0.353730 -0.132366 -0.169317 -0.361486 0.536361 -0.102411 0.340552 -0.012207 -0.075480 0.407236 -0.025545 0.024426 -0.124350 0.185199 -0.280190 -0.086201 -0.349847 -0.140450 -0.043551
into 0.057086 0.048072 0.351437 0.619800 -0.596245 -0.315812 -0.118177 -0.985811 0.487722 -0.036703 -0.282005 0.109213 -0.127295 0.200616 -1.032472 0.402680 -0.197891 0.485123 0.372127 -0.453519 -0.256497 0.188685 -0.654414 -0.887398 0.216368 -0.280985 -0.284751 0.043591 0.473697 0.406283 -0.555239 0.391944 -0.200043 1.239009 -0.085759 0.836898 -0.549668 0.716744 -0.095999 -0.255361 0.976749 -0.461828 -0.085634 -0.066654 -0.117819 0.270827 0.819981 0.099680 -0.174225 -0.446773
high -0.445397 0.160359 0.410346 0.282888 -0.560769 -0.161069 0.242032 -0.860257 -0.071080 0.179096 0.539615 0.451434 -0.400741 -0.159486 -0.552883 0.286922 0.174462 0.182830 -0.197311 -0.279363 0.170796 0.185826 -0.144305 -0.736095 0.505368 -0.015160 -0.127354 -0.190258 -0.844930 -0.428248 -0.212715 0.423056 0.269251 0.107164 -0.353659 0.439637 -0.083880 0.809299 0.103735 0.319016 1.112594 -0.341409 -0.154189 0.318964 0.177505 -0.186802 0.543880 -0.329295 -0.696027 -0.232003
chair -0.232779 0.291621 0.166555 0.258169 -0.129588 -0.021216 -0.184802 -0.212692 0.256913 0.693034 0.053059 0.024569 -0.336495 0.047187 -0.476477 0.415670 -0.263064 -0.003824 0.204806 -0.269658 0.177149 -0.043240 -0.131371 -0.882374 0.673581 -0.241962 -0.256312 -0.275299 -0.776516 -0.417598 -0.496539 0.122160 -0.201009 -0.129017 -0.223807 0.237053 0.164986 0.089345 -0.343195 -0.161299 0.630179 -0.029161 -0.031245 -0.123564 0.208291 -0.322544 0.246847 -0.287435 -0.320402 -0.491721
none -0.647548 0.028623 0.085370 0.626475 -0.438197 -0.135452 -0.139609 -0.191167 0.229557 0.678358 0.239443 -0.412424 -0.235555 -0.306981 -0.618659 0.710292 -0.442181 0.365804 -0.053896 -0.430323 -0.063276 -0.214741 -0.032205 -0.614487 0.247890 -0.413264 -0.030840 0.063588 -0.303021 -0.427808 -0.446386 0.387814 0.436861 0.413075 0.026955 0.401128 -0.070579 0.145482 -0.135955 -0.283706 0.717071 0.039601 -0.077714 0.285653 -0.084695 -0.024249 0.101681 -0.529180 0.031708 -0.370128
them -0.818965 -0.440503 0.085991 0.252208 -0.550261 0.003738 -0.384817 -0.446827 -0.063512 0.410742 -0.147883 0.142370 -0.052083 -0.061550 -1.197024 -0.158572 -0.351935 -0.302066 -0.195740 -1.002084 0.130613 -0.480134 -0.328782 -0.650865 0.336853 -0.454675 0.540563 -0.038074 -0.961056 -0.442499 -1.107391 0.638515 0.337321 0.035313 0.076244 -0.082472 -0.202928 -0.053700 -0.494188 0.329863 0.418151 -0.160887 -0.080451 -0.116199 0.149545 -0.161577 -0.130985 -0.504570 -1.062499 -0.198564
noticed -0.232175 0.180922 0.636820 0.930310 -0.297283 -0.109305 -0.269829 -0.080180 0.675374 0.360764 0.006860 0.110782 -0.212382 0.218334 -0.521486 0.765028 -0.444950 0.538222 0.179263 -0.002517 -0.203580 -0.395376 -0.376387 -0.964913 0.187615 -0.285033 0.070130 0.295293 -0.443993 -0.706358 -0.639613 0.200907 0.363567 0.789648 0.078203 -0.053413 -0.013140 0.049311 -0.506152 0.147153 0.496076 -0.316754 -0.001090 -0.352685 0.247619 -0.048503 0.208856 -0.506050 -0.311707 -0.975937
tawny -0.205722 0.146420 0.190910 0.408222 0.076836 -0.351711 -0.031861 -0.218445 0.267874 0.060666 0.146190 0.061801 0.052059 0.135279 -0.487585 0.196421 0.100090 0.206930 0.383133 -0.289672 -0.039976 -0.165096 -0.071506 -0.312321 0.360274 -0.572156 -0.096324 -0.184466 -0.373770 -0.278083 -0.360737 0.196130 0.022766 0.018689 0.125074 -0.085993 0.050929 0.253564 0.285893 -0.057631 0.623736 0.114884 0.114257 -0.237581 0.147094 -0.437215 0.098511 -0.112436 0.056498 0.017485
owl -0.602341 0.189081 0.210769 0.928611 0.198992 -0.171643 -0.142412 0.027617 0.351257 0.224662 0.149578 0.250733 0.040503 -0.336188 -0.222002 0.494260 0.026355 0.266793 -0.018257 -0.659788 0.071348 -0.323199 -0.178772 -0.938618 -0.164529 -0.552382 0.069477 -0.110373 -0.206065 -0.551251 -0.592873 0.414748 0.122799 0.111965 -0.316347 0.415478 0.370894 0.593074 -0.577701 0.007790 0.597967 -0.235468 0.213964 -0.497575 -0.384277 -0.405633 0.109777 -0.279425 0.031784 -0.146346
flutter -0.255018 0.046786 -0.112209 -0.026928 -0.011552 -0.139359 -0.089524 -0.168153 0.360319 0.129802 0.030094 0.043655 -0.242697 -0.474193 -0.637138 0.043557 -0.054206 0.200136 0.195414 -0.582279 -0.222744 0.031218 -0.261630 -0.445293 0.126691 -0.173372 -0.272230 -0.394232 -0.373277 -0.470075 -0.273250 0.104728 -0.142764 0.701532 -0.305136 -0.059049 -0.002747 0.243844 -0.303655 0.003735 0.526048 0.198410 0.225805 0.001082 0.090175 -0.102637 0.331935 -0.482197 -0.095428 -0.156634
past 0.530345 0.215502 0.909996 0.377246 -0.313644 -0.352866 0.011899 -0.277905 0.023635 0.318212 0.190558 -0.037786 -0.180367 -0.100562 -0.982812 0.362112 0.147224 0.273263 -0.023754 -0.480603 0.002035 -0.345045 -0.656253 -0.847250 0.148085 -0.181228 -0.078455 0.296459 -0.595700 -0.717255 -0.921628 0.425455 0.194634 0.488444 -0.016723 0.107538 0.044987 0.261289 -0.252560 0.180380 0.628028 -0.003761 -0.180450 0.103353 -0.439972 0.361613 0.624583 0.019979 -0.335457 -0.534551
window -0.822895 0.252892 0.529223 0.760048 -0.517684 -0.175782 0.064443 -0.317564 0.040974 0.902125 0.161420 -0.011324 -0.200765 -0.453729 -0.261936 0.943302 -0.284929 -0.086911 -0.023342 -0.498378 -0.116824 -0.168602 -0.593631 -0.556080 0.331019 -0.189415 0.227680 -0.098848 -0.475143 -0.569446 -0.458537 0.329639 0.045855 0.337085 -0.194382 0.185887 0.147611 0.443516 -0.342241 -0.338242 0.968994 -0.195455 0.245484 -0.477422 0.071310 -0.112115 0.347491 -0.141025 -0.346620 -0.734110
at -0.277011 0.413994 0.511908 0.927626 -0.479509 0.334969 -0.511851 -0.515889 -0.273002 0.817065 -0.854124 0.337535 -0.089833 -0.331283 -0.469226 -0.223350 0.542348 0.724711 0.431362 -0.742741 -0.657730 -0.304269 -0.057317 -0.567686 0.387180 -0.504083 0.643042 0.489870 -0.322664 -0.229921 -0.719741 -0.287362 -0.498662 0.512198 -0.605753 0.127343 -0.093625 -0.068657 -1.133728 -0.704443 1.468113 0.637286 0.190760 0.123633 0.676713 0.245447 -0.933958 -0.804931 -0.648099 -0.783587
half 0.112164 0.427021 0.673324 0.500456 -0.112028 -0.261899 -0.445455 -0.050155 0.094133 0.235060 0.086562 0.369928 0.127446 -0.337156 -0.698716 0.331211 -0.154779 0.407321 -0.037182 -0.471051 -0.131058 -0.220779 0.070503 -0.366661 0.133104 -0.343193 0.027740 0.144147 -0.386210 -0.578761 -0.611900 0.052012 -0.028859 -0.066413 -0.021199 -0.185100 0.421919 0.701929 -0.074985 -0.211408 0.714696 -0.062680 0.355297 -0.168907 -0.105870 -0.314679 -0.005342 -0.644051 -0.491588 -0.073332
eight -0.188834 0.285041 0.177591 0.593779 0.093763 -0.042648 -0.005382 -0.044660 0.318198 0.455045 0.089627 0.329141 -0.114991 -0.426245 -0.511816 0.293102 -0.103711 0.163537 -0.046101 -0.169882 0.168897 -0.122258 -0.384491 -0.588023 0.339332 -0.064551 -0.032988 -0.156455 -0.229192 -0.322093 -0.226067 0.503977 0.182002 0.221077 -0.117785 0.020052 0.050360 0.427418 -0.066319 0.290488 0.436250 0.118125 -0.269568 0.164763 0.387982 -0.496513 0.061317 -0.688342 -0.223728 0.159535
briefcase -0.183390 0.143450 0.489611 0.368573 -0.365877 -0.035997 0.199907 -0.178973 0.007618 0.142858 0.263032 -0.005525 0.171949 0.168806 0.026792 0.248377 -0.276743 -0.089911 -0.051043 -0.301088 -0.121814 -0.190501 -0.350417 -0.100671 0.503108 -0.280234 -0.187239 -0.100122 -0.222946 -0.239730 0.001192 0.215149 -0.142854 -0.141845 0.154162 0.220733 0.097402 0.357373 0.018450 -0.112428 0.428901 0.201740 -0.297986 0.033246 0.406551 -0.012191 0.007358 -0.377950 0.109602 -0.007377
pecked 0.148786 0.210950 0.121469 0.195795 0.243887 -0.107667 -0.194723 -0.054610 0.328814 0.115990 0.103087 0.111360 -0.249889 -0.118536 -0.259886 -0.185167 -0.254542 0.174846 0.114828 -0.377308 0.206395 -0.139763 -0.007270 -0.364103 0.402261 -0.288709 -0.368703 -0.153270 0.064312 -0.089127 -0.410171 -0.023749 0.223028 -0.069280 -0.005652 0.125639 0.144325 0.081016 0.153996 0.107370 0.122642 0.197861 -0.301778 0.369585 0.175266 -0.323398 -0.060110 -0.275518 -0.117495 -0.072409
cheek -0.235887 0.061022 0.088794 0.372452 -0.059252 -0.505927 -0.218908 -0.606625 0.372721 0.547689 0.689664 -0.298656 0.130842 -0.146976 -0.461850 0.526290 -0.007237 -0.158578 0.235715 -0.132472 -0.431499 0.038167 -0.152900 -0.715888 0.384584 -0.363111 -0.177482 0.324578 -0.390524 -0.659569 -0.624837 0.034372 0.149094 0.040205 -0.286354 0.239230 -0.008019 0.147269 0.039147 -0.038700 0.437669 -0.172625 0.110014 0.051331 0.140053 -0.099517 0.044243 -0.312765 -0.087100 -0.218969
tried 0.187004 -0.199610 0.569347 0.638090 -0.648416 -0.470012 -0.059286 -0.272232 0.576424 0.120240 -0.180673 0.270571 -0.220634 -0.075733 -0.495723 0.575643 0.065572 0.335157 -0.141085 -0.078578 -0.440583 -0.507778 -0.323057 -1.211319 0.414278 -0.117392 0.384676 0.222751 -0.831586 -1.236888 -0.586775 0.627046 -0.046420 0.517323 -0.230064 -0.280689 -0.047569 0.160365 -0.241830 0.309410 0.747119 -0.011644 0.439710 -0.636479 0.573103 0.034023 0.175365 -0.137541 -0.962477 -0.381113
kiss -0.191800 0.222798 0.355955 0.272951 -0.438682 -0.227626 0.015331 0.012219 0.359609 0.113824 -0.074024 0.191667 -0.228597 -0.231354 -0.608210 0.441362 0.200428 0.219318 -0.211154 0.249315 0.119841 0.159907 -0.317805 -0.570067 0.322591 -0.393292 -0.258494 0.079041 -0.348904 -0.288409 -0.113487 0.485270 -0.112415 0.074369 0.290341 -0.152585 0.044145 0.466824 -0.095161 0.191594 0.100742 -0.180715 -0.103348 -0.141127 -0.074647 0.027978 -0.075737 -0.471112 -0.405083 -0.537722
goodbye -0.225209 -0.126205 0.074420 0.410131 -0.311241 -0.505394 -0.404246 0.113583 0.565003 0.314633 -0.293457 -0.048544 -0.093111 -0.063980 -0.522721 0.570599 0.095302 -0.071089 0.072420 -0.064666 0.141530 0.276793 -0.200983 -0.981401 0.355062 -0.235135 0.041277 0.218755 -0.628361 -0.384495 -0.257097 0.361136 -0.059715 -0.140746 0.008966 0.142792 0.038630 0.513746 -0.108094 -0.288610 0.286686 -0.380448 0.352957 -0.171738 -0.071844 -0.134257 -0.093792 -0.371623 -0.550400 -0.063889
missed -0.021102 0.201925 0.192980 0.252425 -0.189802 -0.364436 0.325555 -0.121639 0.269262 0.556165 -0.073237 0.179341 -0.156143 0.169304 -0.623156 0.239052 -0.307341 0.166450 0.223592 0.098088 0.098874 0.113625 -0.068708 -0.420278 0.193397 -0.195863 0.037628 -0.031280 -0.578627 -0.334001 -0.754157 0.439717 -0.160942 0.017334 -0.056778 0.525019 0.101307 0.033753 -0.273675 0.257388 0.458117 0.229957 0.090668 -0.234076 0.204121 0.211266 -0.124795 -0.469507 -0.219584 -0.338048
now -0.325052 -0.340997 0.220083 0.578362 -0.213864 -0.547278 -0.610004 0.109708 0.447751 0.789736 0.176884 0.223822 -0.335865 0.234254 -0.391633 0.713794 0.029185 0.325230 0.137220 -0.286286 -0.159557 -0.180609 -0.168481 -0.493237 0.302117 -0.182113 0.105538 0.446930 -0.435696 -0.529436 -0.410135 0.780667 -0.053777 0.446860 0.024673 -0.064524 0.259359 0.210457 -0.093493 0.293763 0.734113 -0.227034 0.079002 -0.049746 -0.488880 -0.445082 -0.032682 -0.423799 -0.609033 -0.610308
